tree
version=v4
num_class=1
num_tree_per_iteration=1
label_index=0
max_feature_idx=15
objective=binary sigmoid:1
feature_names=bid_ask_spread midpoint price_range bid_range ask_momentum bid_momentum log_oi hours_to_expiry hour_index close_roll_mean_2h close_roll_mean_3h vol_roll_sum_3h close_vs_open close bid_close open_interest
feature_infos=[-3.6745317730602309:0.27509491518706852] [-3.6745313258684047:0.27449458024032569] [-0.39493970673609236:9.7027675409375824] [-3.6745327060942077:0.27587976278531973] [-3.0629194180436237:0.32972516305307326] [-3.0629194045444978:0.32982735016862302] [-1.6239509087459212:2.4215591552700126] [-1.0721521537995691:2.7017891864618919] [-1.0408505865036326:3.2216865255526734] [-5.1530669851869888:0.19702119612101335] [-5.153067017419783:0.19701123547002439] [-0.36393918520311025:16.844791445513096] [-4.4066613989305052:3.688349391643218] [-1.4448595136268489:1.8155158237151126] [-3.6745312732004103:0.27477667541905276] [-0.20222495773222721:10.393867152242862]
tree_sizes=1730 1725 1726 1725 1720 1730 1729 1727 1730 1727 1739 1732 1726 1738 1732 1747 1733 1736 1734

Tree=0
num_leaves=15
num_cat=0
split_feature=14 1 0 15 12 13 9 7 12 15 14 1 15 7
split_gain=1460.43 343.171 258.088 133.156 81.1956 72.0285 64.8368 74.5621 66.2024 81.7928 54.0026 40.3943 178.148 51.8655
threshold=0.27294022885847918 0.27181910181154489 1.0000000180025095e-35 -0.16781743183333139 0.79325872695886546 0.46246005871819845 0.19639256075970968 -0.2466024856173745 -0.13429459279437325 -0.18998626697095247 0.27151846377932537 0.27108852836604758 -0.029898759939632275 -0.65401660757741842
decision_type=2 2 2 2 2 2 2 2 2 2 2 2 2 2
left_child=1 2 -1 4 6 -2 7 -3 -9 10 -10 -4 13 -13
right_child=5 3 11 -5 -6 -7 -8 8 9 -11 -12 12 -14 -15
leaf_value=-0.35820241521690999 -0.40043254658672228 -0.32660940137137168 -0.5620282669593466 -0.50729747124433489 -0.22320901570515281 -0.19908789227906817 -0.4920563545206651 -0.53573402522034352 -0.31276705125494941 -0.24646873060546751 -0.47005240949731708 -0.44136271479629458 -0.21287248699785502 -0.54910995207224012
leaf_weight=99.192124769091606 18.973796263337135 186.37551772594452 254.10476514697075 80.218328505754471 29.541480258107185 291.3318337649107 43.711783796548843 32.423575893044472 25.218336805701256 27.379908531904221 75.414835780858994 64.366802513599396 15.611351355910299 185.41481918096542
leaf_count=413 79 776 1058 334 123 1213 182 135 105 114 314 268 65 772
internal_value=-0.401367 -0.454721 -0.504212 -0.393109 -0.370319 -0.211182 -0.383564 -0.368802 -0.418607 -0.385022 -0.428288 -0.532241 -0.501285 -0.522665
internal_weight=1429.28 1118.97 618.69 500.284 420.065 310.306 390.524 346.812 160.437 128.013 100.633 519.498 265.393 249.782
internal_count=5951 4659 2576 2083 1749 1292 1626 1444 668 533 419 2163 1105 1040
is_linear=0
shrinkage=1


Tree=1
num_leaves=15
num_cat=0
split_feature=14 12 1 10 6 14 12 6 14 8 12 8 6 12
split_gain=1163.43 206.301 167.134 150.332 64.194 43.7163 52.2299 72.4473 50.9502 46.0342 41.2171 64.3535 46.9024 39.9376
threshold=0.27250580063984881 0.54028963975343725 0.27284585368089254 0.1933820990551475 0.63341131345009882 0.27100504861185321 -0.19050994550669081 0.29091454650630127 0.27147897030490448 -0.69209755006266216 0.17488984712337283 1.0000000180025095e-35 0.81269658791027843 0.73704337424654798
decision_type=2 2 2 2 2 2 2 2 2 2 2 2 2 2
left_child=1 3 10 -1 13 -5 -7 8 -8 -10 11 -2 -12 -3
right_child=2 4 -4 5 -6 6 7 -9 9 -11 12 -13 -14 -15
leaf_value=-0.1322927729325151 0.066724997820178114 0.012117702652222909 0.17115102569598056 -0.12314246456628093 -0.11807562030213724 -0.068844864402718906 0.098508634786708821 0.14342776834744406 0.030242493236897747 -0.12184627456312536 0.11196106672247855 -0.11130054014866889 -0.09492776883923143 0.14456810739362477
leaf_weight=396.29401348531246 41.617785394191742 233.24989421665668 307.60959638655186 42.121419593691826 30.506172016263008 101.62775020301342 22.556899353861809 32.39003036916256 31.317346215248108 42.736870333552361 80.757733464241028 31.037226423621178 8.7021381407976133 20.390447482466698
leaf_count=1704 172 971 1245 179 130 426 94 134 131 180 333 132 37 83
internal_value=0.000277721 -0.0631475 0.128293 -0.0932766 0.0081802 -0.0352269 -0.0168979 0.0250679 -0.0197187 -0.0596835 0.0442834 -0.0115948 0.0878766 0.0253545
internal_weight=1422.92 953.191 469.724 669.044 284.147 272.75 230.629 129.001 96.6111 74.0542 162.115 72.655 89.4599 253.64
internal_count=5951 4032 1919 2848 1184 1144 965 539 405 311 674 304 370 1054
is_linear=0
shrinkage=0.1


Tree=2
num_leaves=15
num_cat=0
split_feature=14 1 0 15 9 12 7 10 1 7 7 3 1 15
split_gain=946.845 244.924 196.473 97.3196 62.6594 107.913 51.3667 50.1947 43.3087 51.2095 46.2191 40.3565 36.7001 156.191
threshold=0.27294022885847918 0.27181910181154489 1.0000000180025095e-35 -0.16781743183333139 0.19564354841432655 0.20299752347953146 -0.33237387971422583 0.19477311940089886 0.27245094911575879 2.3694250343365932 -0.37525957676265154 0.27210708115072352 0.27108852836604758 -0.029898759939632275
decision_type=2 2 2 2 2 2 2 2 2 2 2 2 2 2
left_child=1 2 -1 4 5 6 -3 -2 9 -7 -10 -6 -4 -14
right_child=7 3 12 -5 11 8 -8 -9 10 -11 -12 -13 13 -15
leaf_value=0.037902661085604375 0.0094327581890292639 0.03198032453628407 -0.14340436069146784 -0.093028732381025284 -0.064108797447184063 0.14944537644082453 -0.092847575765520995 0.16040368323947446 0.10774939827760335 -0.065381113577431135 -0.063328057079759678 0.069831846569553727 -0.1057717212063142 0.18316767018591384
leaf_weight=100.21900501847267 24.445983603596687 75.274219214916229 235.45054185390472 76.815019488334656 93.947650283575058 113.64886946976185 51.300969243049622 297.95757898688316 25.890589356422424 9.4567487239837629 27.617411240935326 24.652447953820229 236.19350193440914 15.775448381900786
leaf_count=413 99 310 1058 334 394 465 220 1193 105 39 114 102 1040 65
internal_value=0.00012642 -0.044623 -0.0880801 0.00696 0.0260462 0.0499335 -0.0202182 0.149275 0.0993823 0.131035 0.0215841 -0.034569 -0.114105 -0.0844696
internal_weight=1408.65 1086.24 587.638 498.604 421.789 303.189 126.575 322.404 176.614 123.106 53.508 118.6 487.419 251.969
internal_count=5951 4659 2576 2083 1749 1253 530 1292 723 504 219 496 2163 1105
is_linear=0
shrinkage=0.1


Tree=3
num_leaves=15
num_cat=0
split_feature=1 1 0 1 6 12 7 0 1 12 6 12 13 12
split_gain=725.117 193.94 177.057 89.9851 74.1401 50.7838 56.7825 46.9644 43.8792 59.9333 57.7824 42.6769 41.3664 67.1626
threshold=0.27278661799612247 0.27175986612677488 1.0000000180025095e-35 0.27347770098510643 0.68248299448796101 0.79325872695886546 -0.2466024856173745 0.27361365705316237 0.27251018480052885 -0.13429459279437325 0.29091454650630127 0.62461266882191335 0.98412011269291255 -0.41537135635596117
decision_type=2 2 2 2 2 2 2 2 2 2 2 2 2 2
left_child=1 2 -1 7 5 6 12 -2 9 -8 -11 -9 13 -3
right_child=3 4 -4 -5 -6 -7 8 11 -10 10 -12 -13 -14 -15
leaf_value=0.034081107491092492 0.092199452927845704 0.0029627086768448411 -0.11112719099276505 0.17263108699865948 -0.080710882105052714 0.1373804635856028 -0.12188087688585308 -0.10701251556562819 -0.11499811281622646 -0.019723030912979923 0.13437770309053362 0.096808848353017438 -0.041422414666887036 0.13343678385623695
leaf_weight=100.83671848475933 172.50023241341114 77.37880876660347 443.66799877583981 166.53987644612789 81.122945457696915 29.664524748921394 26.409776866436005 22.008628860116005 41.36273393034935 65.219819590449333 32.844746291637421 11.871002271771429 38.809391275048256 75.990299358963966
leaf_count=413 695 320 2054 669 362 119 120 95 176 274 133 50 163 308
internal_value=4.14393e-05 -0.0438609 -0.0841707 0.118336 0.00335222 0.0217463 0.0104049 0.0714752 -0.0319564 -0.000986363 0.0359051 -0.0323305 0.0468431 0.069781
internal_weight=1386.23 1013.31 544.505 372.92 468.803 387.68 358.016 206.38 165.837 124.474 98.0646 33.8796 192.178 153.369
internal_count=5951 4442 2467 1509 1975 1613 1494 840 703 527 407 145 791 628
is_linear=0
shrinkage=0.1


Tree=4
num_leaves=15
num_cat=0
split_feature=14 12 14 6 7 1 6 12 7 6 6 6 7 10
split_gain=672.571 138.721 100.297 64.2063 54.8966 67.4912 78.5173 52.9591 49.7161 42.3763 34.0127 57.8249 51.6216 31.7065
threshold=0.27250580063984881 -0.19050994550669056 0.2734536440259514 -0.15180852743001824 -0.2466024856173745 0.27177961135503154 0.94732636223159983 0.54028963975343725 -0.39670242528686439 1.2690217698620401 0.63341131345009882 0.21683020233006267 2.2836536402397418 0.19636030928258949
decision_type=2 2 2 2 2 2 2 2 2 2 2 2 2 2
left_child=1 3 7 -1 13 6 -6 8 -2 -9 11 -7 -13 -3
right_child=2 4 -4 -5 5 10 -8 9 -10 -11 -12 12 -14 -15
leaf_value=-0.0046533758400271689 0.066902998590142801 0.025957781776897493 0.1571734896555311 -0.1199313553263389 -0.12567712069680434 -0.026457764669194125 0.14307805037340912 0.12708411782499776 -0.037413445708873137 -0.084706836310559308 -0.10586857040637028 0.16348946294069677 -0.099164987743471766 -0.068146879735670449
leaf_weight=58.596110120415688 107.0277284681797 237.2912335395813 170.75569322705269 281.920992359519 115.98217040300369 95.426717400550842 7.8163665235042563 108.39074724912643 72.935202643275261 6.9070510864257804 23.018583223223686 30.481028482317924 5.8781751841306678 37.126045644283295
leaf_count=256 437 1006 698 1358 557 406 32 441 311 32 107 123 24 163
internal_value=3.25507e-05 -0.0507051 0.0968222 -0.100449 -0.0194503 -0.0503248 -0.103813 0.0598837 0.0247572 0.111403 -0.0056401 0.0150964 0.114171 0.0122347
internal_weight=1359.55 893.537 466.016 340.517 553.02 278.603 123.799 295.261 179.963 115.298 154.805 131.786 36.3592 274.417
internal_count=5951 4032 1919 1614 2418 1249 589 1221 748 473 660 553 147 1169
is_linear=0
shrinkage=0.1


Tree=5
num_leaves=15
num_cat=0
split_feature=14 6 14 3 7 6 12 8 9 10 6 12 14 14
split_gain=566.159 143.657 104.24 57.7504 53.1403 51.5432 49.1671 61.2435 40.6197 33.8699 33.5898 33.0813 30.4157 46.5925
threshold=0.27238732021658602 -0.2233173252738081 0.2734536440259514 0.27202807211125551 0.33235442453637237 1.1677348441260615 0.20299752347953146 -0.27876061798447488 0.19564354841432655 0.19336426546097121 0.81269658791027843 0.62461266882191335 0.2710840355606951 0.27183441157469285
decision_type=2 2 2 2 2 2 2 2 2 2 2 2 2 2
left_child=1 4 6 -3 8 9 7 -2 12 -5 -8 -10 -1 -14
right_child=2 3 -4 5 -6 -7 10 -9 11 -11 -12 -13 13 -15
leaf_value=0.0024266088139613395 0.065390328032622069 -0.11332073195357117 0.14645037689180737 -0.10754570393259549 -0.10146020731584293 0.12930213455927134 0.086826974105164281 -0.068329104043585623 -0.085364776017209737 -0.0012893748446840382 -0.075352111579264122 0.034420224144713595 0.13581632335010638 -0.0092437328598299669
leaf_weight=141.38411961495876 64.541588947176933 316.68725369870663 163.28434139490128 55.281102418899536 45.574816316366196 12.644356533885 203.27499112486839 62.492638394236565 62.022873982787132 59.961438462138176 9.887336313724516 31.739754855632782 48.973935216665268 36.524718731641769
leaf_count=598 265 1589 687 281 219 53 831 276 274 267 46 134 204 151
internal_value=-0.00112357 -0.0527404 0.0817003 -0.0906171 -0.00615866 -0.0322476 0.048951 -0.000487481 0.00873684 -0.0546124 0.0777499 -0.0451264 0.0314897 0.0767602
internal_weight=1314.28 810.794 503.481 444.574 366.22 127.887 340.197 127.034 320.645 115.243 213.162 93.7626 226.883 85.4987
internal_count=5875 3770 2105 2190 1580 601 1418 541 1361 548 877 408 953 355
is_linear=0
shrinkage=0.1


Tree=6
num_leaves=15
num_cat=0
split_feature=14 1 5 6 6 9 12 8 0 7 14 14 14 7
split_gain=471.601 127.093 130.636 58.0139 39.4877 37.8131 34.8921 32.9123 48.0437 44.2077 46.14 37.628 34.5935 28.8496
threshold=0.27294022885847918 0.27175986612677488 0.32624796654856453 0.68248299448796101 0.53569204973730777 0.19478753430531726 1.3835199304381993 -0.046258593690494607 0.27199414816009176 0.28946872748794666 0.2710840355606951 0.27187390504911385 0.27167643767700916 2.0906680035218259
decision_type=2 2 2 2 2 2 2 2 2 2 2 2 2 2
left_child=1 2 -1 4 7 -2 -5 8 -3 10 -10 -12 -9 -6
right_child=5 3 -4 6 13 -7 -8 12 9 -11 11 -13 -14 -15
leaf_value=0.021641577762470277 -0.0056538561789589393 0.089054298684722755 -0.099525918739798547 -0.11374857419829838 0.1151301989679951 0.11790472115351472 0.040156550119996526 0.085710694410263424 -0.063535384440652154 -0.088247336966408768 0.10782050837562177 0.0051094019979652629 -0.089081653543087988 -0.085429503689252173
leaf_weight=114.60657009482384 26.676145061850548 66.465011894702911 369.87732990086079 56.474832788109779 48.470429345965385 275.70835512876511 16.545872762799263 9.7379610538482648 48.514298170804977 45.046559497714043 53.137056022882462 93.660598680377007 55.464403674006462 4.5996744036674491
leaf_count=479 109 272 1952 279 203 1177 73 40 211 195 219 394 252 20
internal_value=-0.00108385 -0.0347467 -0.070935 0.000806242 0.0151899 0.10709 -0.0785364 0.00317521 0.0170616 -0.00425526 0.0168358 0.0446151 -0.0587312 0.0918883
internal_weight=1284.99 982.601 484.484 498.117 425.096 302.385 73.0207 372.026 306.824 240.359 195.312 146.798 65.2024 53.0701
internal_count=5875 4589 2431 2158 1806 1286 352 1583 1291 1019 824 613 292 223
is_linear=0
shrinkage=0.1


Tree=7
num_leaves=15
num_cat=0
split_feature=14 6 14 3 15 12 7 8 6 9 9 8 12 10
split_gain=397.23 110.539 86.6212 51.6758 46.7826 41.7702 40.7118 35.3399 34.9455 34.0259 33.0325 32.7359 28.2036 27.2071
threshold=0.27238732021658602 -0.2233173252738081 0.2734536440259514 0.27202807211125551 -0.046381102143790036 0.54028963975343725 0.37524012158479808 -0.33042773449424828 1.2690217698620401 0.19505503871438265 0.19564354841432655 -0.6662639918077754 0.90568943238350064 0.19336426546097121
decision_type=2 2 2 2 2 2 2 2 2 2 2 2 2 2
left_child=1 6 5 12 13 7 10 -2 11 -9 -1 -7 -3 -5
right_child=2 3 -4 4 -6 8 -8 9 -10 -11 -12 -13 -14 -15
leaf_value=0.027782499124272442 0.055229877735557258 -0.10850077446808576 0.13103327014688715 -0.098567896724422996 0.12569190055108234 0.024815649129918009 -0.093749086630832534 -0.050414351113559255 -0.083659946387172668 0.077067100360284219 -0.041631017542580195 0.14051506134958233 0.073695282452272845 -0.0005937336757878425
leaf_weight=227.33751632273197 100.07772608101368 281.38838694989681 151.65581123530865 49.855199486017227 13.11121256649494 40.038052052259445 40.370114400982857 93.922379299998283 7.4921845346689215 21.836429938673973 92.367537423968315 69.912091463804245 5.4613413214683524 58.773287311196327
leaf_count=959 414 1566 687 280 55 167 211 414 37 91 410 295 23 266
internal_value=-0.00104268 -0.0456565 0.0694184 -0.0809276 -0.0249992 0.0398587 -0.00507293 0.0130618 0.0865618 -0.0241713 0.00739566 0.101295 -0.103829 -0.0479178
internal_weight=1253.6 768.665 484.935 408.589 121.74 333.279 360.075 215.837 117.442 115.759 319.705 109.95 286.85 108.628
internal_count=5875 3770 2105 2190 601 1418 1580 919 499 505 1369 462 1589 546
is_linear=0
shrinkage=0.1


Tree=8
num_leaves=15
num_cat=0
split_feature=14 6 1 2 6 7 9 14 14 4 2 10 6 15
split_gain=333.668 96.3673 77.9494 48.9704 36.7923 35.1894 27.1148 22.74 32.9416 29.9485 21.8813 19.6019 18.466 29.3269
threshold=0.27238732021658602 -0.2233173252738081 0.27347770098510643 -0.19094562092450282 1.1206270228166948 0.37524012158479808 0.19564354841432655 0.27100504861185321 0.27183441157469285 0.32611181590684807 0.013048464887086421 0.19336426546097121 0.8443442094423671 -0.15921979401005035
decision_type=2 2 2 2 2 2 2 2 2 2 2 2 2 2
left_child=1 5 12 -3 11 6 7 9 10 -1 -9 -5 13 -2
right_child=2 3 -4 4 -6 -7 -8 8 -10 -11 -12 -13 -14 -15
leaf_value=0.021026366102452058 0.031122117250071954 -0.097323075515649254 0.12599944545418762 -0.085616930624881737 0.12604245449054005 -0.089076527734237687 -0.03815057566487759 0.14756450496008877 -0.013538925755685383 -0.092982331659795414 0.022765261806869871 0.0041156749065114229 -0.074373814904043031 0.13231406160324252
leaf_weight=106.39100821316242 297.13950629532337 287.75553101301193 139.41388516128063 41.271344512701035 10.850977435708044 38.594282582402229 91.232307821512222 36.19389982521534 37.057375624775887 24.053875282406807 24.522099986672401 50.453154847025871 9.8732667565345746 27.658823564648628
leaf_count=431 1275 1666 662 246 46 211 410 152 153 119 104 232 49 119
internal_value=-0.000933223 -0.0424222 0.0643191 -0.0764609 -0.0161327 -0.00477206 0.00662892 0.0249641 0.0601462 -0.0026531 0.102727 -0.0385981 0.0371484 0.0416147
internal_weight=1222.46 748.376 474.085 390.331 102.575 358.045 319.451 228.218 97.7734 130.445 60.716 91.7245 334.672 324.798
internal_count=5875 3770 2105 2190 524 1580 1369 959 409 550 256 478 1443 1394
is_linear=0
shrinkage=0.1


Tree=9
num_leaves=15
num_cat=0
split_feature=14 7 12 6 8 0 14 12 10 13 10 6 7 10
split_gain=286.045 91.6361 89.3495 67.342 57.1011 53.8395 42.6467 34.3733 33.443 31.4298 31.4108 42.9311 43.066 28.1779
threshold=0.27294022885847918 -0.31093103119001297 -0.13429459279437364 0.29091454650630127 1.2712528773087275 0.27369265748697075 0.27124200945837879 0.62461266882191335 0.19477311940089886 1.4405726599207871 0.19290059201238743 0.62904411792407067 2.3050964887639549 0.1935247678085579
decision_type=2 2 2 2 2 2 2 2 2 2 2 2 2 2
left_child=1 4 -3 5 6 -4 7 -1 -2 -7 -5 12 -12 -13
right_child=8 2 3 10 -6 9 -8 -9 -10 -11 11 13 -14 -15
leaf_value=-0.063962071834295961 -0.018721194515335837 -0.11964825508120146 -0.095079331159616171 -0.074828362668362416 -0.072305005258337135 0.064612249944899058 0.051397309727284096 0.021273491059687136 0.098507431708020454 -0.092059128210945251 0.13650622509511595 0.086256598731296083 -0.096486500269583927 -0.075247283898279588
leaf_weight=76.336245372891426 25.293213456869125 155.16951064765453 135.89349681138992 17.901723563671112 76.501221254467964 39.958956688642502 198.53990130126476 108.92726205289364 250.17082646489143 13.071647897362707 51.526973739266396 11.38013446331024 5.595545381307601 27.570854499936104
leaf_count=409 105 961 720 113 423 172 850 442 1181 60 217 53 23 146
internal_value=-0.000848979 -0.0277102 -0.0591198 -0.0266728 0.0038462 -0.0626782 0.0197596 -0.014605 0.0876016 0.0213894 0.0331353 0.0559591 0.107754 -0.0236166
internal_weight=1193.84 918.373 458.069 302.899 460.305 188.924 383.803 185.264 275.464 53.0306 113.975 96.0735 57.1225 38.951
internal_count=5875 4589 2465 1504 2124 952 1701 851 1286 232 552 439 240 199
is_linear=0
shrinkage=0.1


Tree=10
num_leaves=15
num_cat=0
split_feature=14 6 1 2 12 7 12 6 8 10 13 7 7 13
split_gain=235.957 82.0303 68.9861 41.9418 32.0325 26.6294 25.9769 34.1055 24.3978 49.6903 25.7517 33.3698 24.2132 28.1445
threshold=0.27238732021658602 -0.2233173252738081 0.27347770098510643 -0.19094562092450282 0.90568943238350064 0.76121139502062929 0.79325872695886546 0.8443442094423671 0.057075639329052207 0.19483999537905997 0.49506381209161815 -0.31093103119001297 0.37524012158479808 1.4405726599207871
decision_type=2 2 2 2 2 2 2 2 2 2 2 2 2 2
left_child=1 12 6 4 -3 -5 8 -8 10 -10 -2 -12 13 -1
right_child=2 3 -4 5 -6 -7 7 -9 9 -11 11 -13 -14 -15
leaf_value=0.01874193152989077 0.080349618928279701 -0.095234196124511949 0.11695861112097004 0.026122019207035621 0.080024036432242096 -0.076697209148402848 0.11166331945596364 -0.069990702548930986 -0.074609528536265804 0.076724735236819594 0.047310713537119027 -0.065495575323630803 -0.075485174483284956 -0.065747899406449345
leaf_weight=283.95953673124313 73.001758098602295 258.54610805213451 127.35572353005409 63.732490599155426 7.2400708049535742 34.928770631551743 57.597193911671638 8.8504197448492032 61.102635309100151 27.607851251959801 62.373213902115822 37.947012975811958 34.559962287545204 40.704887449741364
leaf_count=1214 301 1669 667 326 31 202 258 47 283 120 273 169 206 188
internal_value=-0.000210287 -0.0356287 0.0557954 -0.0687137 -0.0890707 -0.0122224 0.0306837 0.0842633 0.0157733 -0.0259315 0.0372475 0.00355711 -0.00158016 0.00731246
internal_weight=1179.51 723.672 455.836 364.447 265.786 98.6613 328.48 66.4476 262.032 88.7105 173.322 100.32 359.224 324.664
internal_count=5954 3836 2118 2228 1700 528 1451 305 1146 403 743 442 1608 1402
is_linear=0
shrinkage=0.1


Tree=11
num_leaves=15
num_cat=0
split_feature=14 1 4 6 6 14 8 0 14 7 0 7 14 6
split_gain=200.301 77.7728 79.5198 34.7374 30.5103 29.5456 25.2407 37.2953 29.6907 25.4317 32.0117 20.7048 20.884 22.1194
threshold=0.27294022885847918 0.27175986612677488 0.32641716918681069 0.68248299448796101 0.53569204973730777 0.27365111139805609 -0.072092151945381308 0.27179664707557089 0.27167643767700916 0.26802587896373381 0.27491716421099982 -0.93277363839218541 0.27167643767700916 -0.42901799196676099
decision_type=2 2 2 2 2 2 2 2 2 2 2 2 2 2
left_child=1 2 -1 4 6 -2 7 -3 -8 10 11 -9 -13 -14
right_child=5 3 -4 -5 -6 -7 8 9 -10 -11 -12 12 13 -15
leaf_value=0.0073012796892303194 0.045956931972964188 0.10918107426080313 -0.084823170440535126 -0.061644903743889201 0.083178535670377085 0.11683858485385237 0.080174442068617083 -0.019952971512400376 -0.080050064089225992 -0.055483713724135741 -0.069030500641171139 0.11271233631701766 -0.0058804001251935604 0.090455463866739555
leaf_weight=139.80219231545925 149.7189404964447 33.33465401828289 274.59445279836655 62.836205080151558 52.49695198237896 105.89498630166054 10.162231788039206 48.313474982976913 53.1222173422575 52.766857981681824 30.35126169025898 38.205022916197777 68.107000604271889 31.211513593792915
leaf_count=612 693 140 1854 356 231 590 44 203 262 246 141 160 291 131
internal_value=-0.000204463 -0.0225519 -0.0540272 0.00484719 0.0154514 0.0769998 0.00473462 0.0168948 -0.0503345 0.00367276 0.0190394 0.0348549 0.054134 0.0272783
internal_weight=1150.92 895.304 414.397 480.907 418.071 255.614 365.574 302.29 63.2844 268.955 216.188 185.837 137.524 99.3185
internal_count=5954 4671 2466 2205 1849 1283 1618 1312 306 1172 926 785 582 422
is_linear=0
shrinkage=0.1


Tree=12
num_leaves=15
num_cat=0
split_feature=14 8 1 7 6 2 6 14 5 10 7 6 6 6
split_gain=170.392 68.9142 56.8262 39.2189 37.9212 26.0734 35.4128 25.8101 21.7807 19.3922 19.2701 18.9487 17.8842 17.3444
threshold=0.27238732021658602 -0.58876331704311524 0.27347770098510643 0.804097092069055 -0.57807576923686321 -0.1909456209245036 1.2329349355728121 0.27100504861185321 0.32641760558269056 0.19336426546097121 -0.95421648691639827 -0.77421115441328048 0.37586117552189763 -1.1083899607583194
decision_type=2 2 2 2 2 2 2 2 2 2 2 2 2 2
left_child=1 3 -2 7 11 -6 9 8 -1 -7 -9 13 -11 -3
right_child=2 4 -4 -5 5 6 -8 10 -10 12 -12 -13 -14 -15
leaf_value=0.011260812888596693 0.026379113482861479 0.037007003067749615 0.10819940596877425 -0.070951260217111789 -0.092723591682084106 -0.094697285077473478 0.11997244997882837 -0.011299046759806367 -0.075785678465909556 -0.072280887126759549 0.070919087254242605 0.10710658691359619 0.054760965979315894 -0.074005527133017307
leaf_weight=104.09899795055389 319.36456933617592 24.624294281005856 113.21932233870029 55.136601768434048 218.39512687176466 39.324520982801914 9.5321853756904584 37.774466708302498 34.202750660479069 13.646728798747061 97.477250263094902 10.96377384662628 22.332227230072021 22.2368877530098
leaf_count=424 1451 105 667 342 1535 277 41 167 181 66 426 49 107 116
internal_value=-9.38489e-05 -0.0308797 0.0487854 0.00232267 -0.0607245 -0.0746811 -0.0256581 0.0181 -0.0121594 -0.0504147 0.0483722 0.0125818 0.00363448 -0.0177276
internal_weight=1122.33 689.746 432.584 328.69 361.056 303.231 84.8357 273.553 138.302 75.3035 135.252 57.825 35.979 46.8612
internal_count=5954 3836 2118 1540 2296 2026 491 1198 605 450 593 270 173 221
is_linear=0
shrinkage=0.1


Tree=13
num_leaves=15
num_cat=0
split_feature=14 12 7 14 15 1 13 15 8 0 14 12 7 15
split_gain=146.254 66.614 63.7745 36.5898 51.8609 32.1012 47.801 40.1 28.4568 27.7115 26.8398 35.6929 26.0981 24.8038
threshold=0.27294022885847918 -0.19050994550669081 -0.41814527381107719 0.27124200945837879 -0.20216554661202682 0.27243120388750214 -0.059199995256515321 -0.19495133915912563 1.2712528773087275 0.27400865922220408 0.27365111139805609 0.54028963975343725 2.3694250343365932 -0.20056993366950279
decision_type=2 2 2 2 2 2 2 2 2 2 2 2 2 2
left_child=1 2 8 4 -3 6 7 -5 -1 -7 11 13 -8 -2
right_child=10 3 -4 5 -6 9 12 -9 -10 -11 -12 -13 -14 -15
leaf_value=0.010163260158714256 0.073381541211029133 0.0046191870205954787 -0.10913379693111853 -0.079646973054258358 -0.095397782317677926 -0.031042126221658264 0.1079530626422546 0.039108605467348845 -0.089243796155730998 0.10820631211243575 0.10925130541070627 0.094332775440136865 -0.049902959830058637 -0.037636549557419463
leaf_weight=117.25813575088978 24.097991168498993 141.06735684722662 129.3570614233613 37.602196231484413 76.571753390133381 131.96865326166153 91.258311688899994 80.497373700141907 32.829265803098679 11.046343579888342 93.304525047540665 61.041403844952583 8.8461242914199811 60.312504544854164
leaf_count=553 118 594 990 242 517 598 411 442 237 45 590 304 42 271
internal_value=-0.000109856 -0.019423 -0.0590498 4.86926e-05 -0.0319218 0.0194842 0.0432383 -0.000401731 -0.0137567 -0.0169948 0.0682931 0.0392616 0.0922931 -0.00361123
internal_weight=1097.06 858.303 279.444 578.858 217.639 361.219 218.204 118.1 150.087 143.015 238.756 145.452 100.104 84.4105
internal_count=5954 4671 1780 2891 1111 1780 1137 684 790 643 1283 693 453 389
is_linear=0
shrinkage=0.1


Tree=14
num_leaves=15
num_cat=0
split_feature=14 12 7 14 6 7 6 6 7 14 12 8 6 12
split_gain=125.248 57.6215 58.6508 30.6165 45.847 29.275 41.1729 25.8803 28.8342 25.2217 30.8822 25.0447 21.6181 27.052
threshold=0.27294022885847918 -0.19050994550669081 -0.41814527381107719 0.27124200945837879 -1.1698512498441007 0.26802587896373381 0.21683020233006267 0.61015398060319492 2.3265393372881675 0.27365111139805609 0.54028963975343725 1.2712528773087275 -0.2233173252738081 0.34353590526032557
decision_type=2 2 2 2 2 2 2 2 2 2 2 2 2 2
left_child=1 2 11 4 -3 -5 -7 8 -8 10 12 -1 -2 -14
right_child=9 3 -4 5 -6 6 7 -9 -10 -11 -12 -13 13 -15
leaf_value=0.0091689557431296458 0.069745584736899222 0.0041707250600654389 -0.1062351702754115 0.040916180012341416 -0.091506740745017634 -0.068603606959088445 0.093431695876734527 -0.057839012681943837 -0.090397121776916931 0.10580815745767086 0.089148249873632152 -0.085848857736404355 0.017407198376383097 -0.11106717507982944
leaf_weight=117.5050114095211 23.580536425113678 141.14550386369228 120.20696776360273 213.83612225204706 72.281722337007523 71.099142611026764 49.316733658313751 18.292191401124001 6.0141384601593009 87.186031386256218 58.553701460361481 31.007505379617214 38.467625960707664 22.181742042303085
leaf_count=553 119 594 990 992 517 412 238 111 27 590 304 237 174 96
internal_value=-0.000107406 -0.0180515 -0.0557846 5.29902e-06 -0.0295854 0.0177835 -0.0166215 0.0347488 0.0676148 0.0644796 0.0365177 -0.0128195 -0.0030145 -0.0344611
internal_weight=1070.67 840.705 268.719 571.986 213.427 358.558 144.722 73.6231 55.3309 229.97 142.784 148.513 84.2299 60.6494
internal_count=5954 4671 1780 2891 1111 1780 788 376 265 1283 693 790 389 270
is_linear=0
shrinkage=0.1


Tree=15
num_leaves=15
num_cat=0
split_feature=14 12 8 14 12 14 12 12 6 13 6 14 8 15
split_gain=111.13 50.6845 46.9869 27.8134 40.4215 22.3426 23.9597 19.3697 20.8704 18.8878 21.4195 35.0002 46.4184 32.3053
threshold=0.27294022885847918 -0.19050994550669081 -0.25292705972958818 0.27124200945837879 0.62461266882191335 0.27365111139805609 0.54028963975343725 0.34353590526032557 -0.2417903810632572 -0.71127506272490748 0.21683020233006267 0.27151846377932537 -0.614596875298002 -0.16987984643457257
decision_type=2 2 2 2 2 2 2 2 2 2 2 2 2 2
left_child=1 2 -1 4 -3 6 7 -2 -9 -5 11 -11 -13 -12
right_child=5 3 -4 9 -6 -7 -8 8 -10 10 13 12 -14 -15
leaf_value=-0.0062060339841430029 0.039645135926832151 -0.085364894179812092 -0.090932860450632869 -0.064077985007997273 0.0046222848285182262 0.10333840872020453 0.083213210647775648 0.045199998909554853 -0.10066768686732425 0.081548739383670188 0.093394570408457334 0.021821631094650386 -0.085985539195360117 -0.0027626988715259231
leaf_weight=119.48517771810293 49.799507007002831 74.394273817539215 141.87052848935127 22.190083846449852 133.16264127194881 79.451885506510735 57.076055333018303 11.529437124729155 22.890431776642799 38.384547665715218 76.890744388103485 101.47287172824144 59.314128056168556 60.450288578867912
leaf_count=632 232 550 1166 161 552 577 310 63 98 187 348 460 307 323
internal_value=-0.000195351 -0.0170672 -0.0530415 -0.000144469 -0.028881 0.0620369 0.0360746 0.00125532 -0.0522715 0.0166519 0.0228355 0.00162257 -0.0193421 0.0524608
internal_weight=1048.36 827.615 261.356 566.26 207.557 220.747 141.295 84.2194 34.4199 358.703 336.513 199.172 160.787 137.341
internal_count=5966 4686 1798 2888 1102 1280 703 393 161 1786 1625 954 767 671
is_linear=0
shrinkage=0.1


Tree=16
num_leaves=15
num_cat=0
split_feature=14 7 12 15 8 7 14 12 6 6 6 14 1 1
split_gain=95.0482 52.9014 52.9429 41.5403 33.2326 29.8178 23.9499 33.7034 22.1636 23.5608 24.5555 21.243 21.0111 27.4015
threshold=0.27294022885847918 -0.2466024856173745 -0.13429459279437364 -0.18998626697095247 1.2712528773087275 2.2407679431913161 0.27100504861185321 0.62461266882191335 -0.38523913722763575 -0.57807576923686321 -0.77421115441328048 0.27373009834689793 0.27181910181154489 0.27227324206144871
decision_type=2 2 2 2 2 2 2 2 2 2 2 2 2 2
left_child=1 4 -3 12 6 -5 7 -1 9 10 -8 -2 -4 -14
right_child=11 2 3 5 -6 -7 8 -9 -10 -11 -12 -13 13 -15
leaf_value=-0.079646274116337651 0.035653134981151156 -0.1048800025628466 -0.096387357758139114 0.053158497012721774 -0.056679516169612226 -0.10769616973717949 0.0074492211659229965 0.018501199498504713 0.073910259941688844 -0.059921975319730897 0.11550498812773642 0.1049645571432216 0.052845395479461411 -0.052260457731197855
leaf_weight=46.160738222301006 147.82233607769012 98.715033322572708 55.941803283989429 82.758608676493168 65.385649785399437 8.5369686037301999 90.766797184944153 106.50159639120102 94.084931999444962 30.567610427737236 22.688691094517708 64.373417630791664 30.709979668259621 78.440216824412346
leaf_count=318 776 933 460 463 465 38 384 430 447 137 102 504 147 362
internal_value=-0.000180055 -0.0158228 -0.0444816 -0.0196654 0.00672746 0.0333062 0.0179191 -0.0127605 0.0374471 0.0119464 0.0330214 0.0586123 -0.0490766 -0.021669
internal_weight=1023.45 811.259 355.103 256.388 456.156 91.2956 390.77 152.662 238.108 144.023 113.455 212.196 165.092 109.15
internal_count=5966 4686 2403 1470 2283 501 1818 748 1070 623 486 1280 969 509
is_linear=0
shrinkage=0.1


Tree=17
num_leaves=15
num_cat=0
split_feature=14 8 12 15 14 7 10 12 14 15 15 15 15 12
split_gain=81.8146 45.5331 40.7838 45.7651 32.0204 30.0081 27.2924 29.878 25.4036 24.0182 23.3498 21.967 25.136 19.1195
threshold=0.27250580063984881 -0.2270935014747015 -0.47158670906827843 0.11027753452168067 0.27365111139805609 0.54678290977850086 0.19316809592503192 0.31542822890416661 0.27207137242121854 -0.18748251261965146 -0.18177055777753084 -0.16550039814551726 -0.18926484622566234 0.79325872695886546
decision_type=2 2 2 2 2 2 2 2 2 2 2 2 2 2
left_child=1 5 -3 6 13 10 -4 11 -7 -10 -1 12 -8 -2
right_child=4 2 3 -5 -6 8 7 -9 9 -11 -12 -13 -14 -15
leaf_value=0.0064368518972028142 0.0085803694425031843 -0.10744823718137878 -0.096447943882078946 0.13675215398863549 0.097723473925669213 -0.086186845585944527 -0.023107961333724163 -0.051060366656606807 0.080166849862362721 -0.084860429896590456 0.11869025160535718 -0.064277063851637603 0.15256707569970315 0.072281506778528501
leaf_weight=318.05176971852779 214.65492112934589 87.730376191437244 48.451992861926556 11.474496662616728 69.17751570045948 59.303921483457088 10.583480507135393 55.454172559082508 19.680953413248066 8.9406089037656766 14.733399920165537 7.6209270432591429 18.870488718152046 56.011074602603912
leaf_count=1443 1034 875 434 50 577 504 66 320 95 50 72 63 81 302
internal_value=-0.00026231 -0.020735 -0.0549886 -0.0223473 0.0392746 -0.000763348 -0.0395369 -0.00631914 -0.0510792 0.023663 0.01309 0.058717 0.0952502 0.0228345
internal_weight=1000.74 660.897 240.186 152.456 339.844 420.711 140.981 92.5291 87.9255 28.6216 332.785 37.0749 29.454 270.666
internal_count=5966 4053 1889 1014 1913 2164 964 530 649 145 1515 210 147 1336
is_linear=0
shrinkage=0.1


Tree=18
num_leaves=15
num_cat=0
split_feature=10 6 12 10 15 1 6 10 7 7 14 12 13 1
split_gain=72.1439 42.2286 33.4474 45.6496 65.8369 31.6393 24.8646 25.3857 27.727 22.3746 22.0594 25.4092 38.4737 20.1903
threshold=0.19477311940089886 0.4209592429531836 0.62461266882191335 0.19243246016525958 -0.020919193486491738 0.27349744621336314 0.83228100215972012 0.1937031037503209 2.2193250946671035 -0.48247381938371575 0.27199238547237664 -0.13429459279437325 0.29944129185110063 0.27231273251796201
decision_type=2 2 2 2 2 2 2 2 2 2 2 2 2 2
left_child=2 5 3 -1 9 13 7 -4 -9 -5 -11 -12 -13 -2
right_child=1 -3 6 4 -6 -7 -8 8 -10 10 11 12 -14 -15
leaf_value=-0.10279148006611807 0.060939312325685724 0.10391892239734486 0.0018839274505269234 0.0011100785814922671 0.15481965130047401 0.084913620183142052 -0.084738172370984965 0.11776614366405209 -0.077775474840198644 -0.092150285948869648 -0.090748491878792067 0.05511703410940956 -0.11630293825282152 -0.0096608111827131832
leaf_weight=82.713645368814468 44.349999256432056 64.906273059546947 147.64543636888266 120.26391418278217 15.202104747295378 52.489902801811695 19.589338839054108 35.645655728876591 5.1890628561377516 78.663205094635487 28.236239917576313 51.282914340496063 12.133100584149359 221.34201584011316
leaf_count=937 212 423 631 603 65 454 127 172 25 748 214 246 55 1054
internal_value=-0.000203708 0.0334124 -0.0218888 -0.0390492 -0.0204307 0.0176445 0.0103165 0.0221304 0.087144 -0.032063 -0.0548509 -0.0197266 0.0162172 0.00303189
internal_weight=979.653 383.088 596.565 388.495 305.781 318.182 208.069 188.48 40.8347 290.579 170.315 91.6523 63.416 265.692
internal_count=5966 2143 3823 2868 1931 1720 955 828 197 1866 1263 515 301 1266
is_linear=0
shrinkage=0.1


end of trees

feature_importances:
bid_close=47
log_oi=43
close_vs_open=38
hours_to_expiry=33
midpoint=21
open_interest=18
hour_index=16
close_roll_mean_3h=15
bid_ask_spread=9
close=8
close_roll_mean_2h=7
price_range=4
bid_range=3
ask_momentum=2
bid_momentum=2

parameters:
[boosting: gbdt]
[objective: binary]
[metric: binary_logloss,auc]
[tree_learner: serial]
[device_type: cpu]
[data_sample_strategy: bagging]
[data: ]
[valid: ]
[num_iterations: 500]
[learning_rate: 0.1]
[num_leaves: 15]
[num_threads: 0]
[seed: 42]
[deterministic: 0]
[force_col_wise: 0]
[force_row_wise: 0]
[histogram_pool_size: -1]
[max_depth: -1]
[min_data_in_leaf: 20]
[min_sum_hessian_in_leaf: 0.001]
[bagging_fraction: 0.9]
[pos_bagging_fraction: 1]
[neg_bagging_fraction: 1]
[bagging_freq: 5]
[bagging_seed: 400]
[bagging_by_query: 0]
[feature_fraction: 0.9]
[feature_fraction_bynode: 1]
[feature_fraction_seed: 30056]
[extra_trees: 0]
[extra_seed: 12879]
[early_stopping_round: 0]
[early_stopping_min_delta: 0]
[first_metric_only: 0]
[max_delta_step: 0]
[lambda_l1: 0]
[lambda_l2: 5]
[linear_lambda: 0]
[min_gain_to_split: 0]
[drop_rate: 0.1]
[max_drop: 50]
[skip_drop: 0.5]
[xgboost_dart_mode: 0]
[uniform_drop: 0]
[drop_seed: 17869]
[top_rate: 0.2]
[other_rate: 0.1]
[min_data_per_group: 100]
[max_cat_threshold: 32]
[cat_l2: 10]
[cat_smooth: 10]
[max_cat_to_onehot: 4]
[top_k: 20]
[monotone_constraints: ]
[monotone_constraints_method: basic]
[monotone_penalty: 0]
[feature_contri: ]
[forcedsplits_filename: ]
[refit_decay_rate: 0.9]
[cegb_tradeoff: 1]
[cegb_penalty_split: 0]
[cegb_penalty_feature_lazy: ]
[cegb_penalty_feature_coupled: ]
[path_smooth: 0]
[interaction_constraints: ]
[verbosity: -1]
[saved_feature_importance_type: 0]
[use_quantized_grad: 0]
[num_grad_quant_bins: 4]
[quant_train_renew_leaf: 0]
[stochastic_rounding: 1]
[linear_tree: 0]
[max_bin: 255]
[max_bin_by_feature: ]
[min_data_in_bin: 3]
[bin_construct_sample_cnt: 200000]
[data_random_seed: 175]
[is_enable_sparse: 1]
[enable_bundle: 1]
[use_missing: 1]
[zero_as_missing: 0]
[feature_pre_filter: 1]
[pre_partition: 0]
[two_round: 0]
[header: 0]
[label_column: ]
[weight_column: ]
[group_column: ]
[ignore_column: ]
[categorical_feature: ]
[forcedbins_filename: ]
[precise_float_parser: 0]
[parser_config_file: ]
[objective_seed: 16083]
[num_class: 1]
[is_unbalance: 0]
[scale_pos_weight: 1]
[sigmoid: 1]
[boost_from_average: 1]
[reg_sqrt: 0]
[alpha: 0.9]
[fair_c: 1]
[poisson_max_delta_step: 0.7]
[tweedie_variance_power: 1.5]
[lambdarank_truncation_level: 30]
[lambdarank_norm: 1]
[label_gain: ]
[lambdarank_position_bias_regularization: 0]
[eval_at: ]
[multi_error_top_k: 1]
[auc_mu_weights: ]
[num_machines: 1]
[local_listen_port: 12400]
[time_out: 120]
[machine_list_filename: ]
[machines: ]
[gpu_platform_id: -1]
[gpu_device_id: -1]
[gpu_use_dp: 0]
[num_gpu: 1]

end of parameters

pandas_categorical:null
