{"learner":{"attributes":{"best_iteration":"0","best_score":"0.6556620340933176"},"feature_names":[],"feature_types":[],"gradient_booster":{"model":{"cats":{"enc":[],"feature_segments":[],"sorted_idx":[]},"gbtree_model_param":{"num_parallel_tree":"1","num_trees":"31"},"iteration_indptr":[0,1,2,3,4,5,6,7,8,9,10,11,12,13,14,15,16,17,18,19,20,21,22,23,24,25,26,27,28,29,30,31],"tree_info":[0,0,0,0,0,0,0,0,0,0,0,0,0,0,0,0,0,0,0,0,0,0,0,0,0,0,0,0,0,0,0],"trees":[{"base_weights":[-9.621126E-3,1.9848922E-1,-3.787381E-1,5.5179495E-2,2.3825888E-1,-3.4923947E-1,-7.4966216E-1,7.224277E-2,-2.9797273E-4,2.8450003E-1,8.0258444E-2,-2.3063709E-1,-3.5789165E-1,-6.5712607E-1,-7.159462E-2,5.5389203E-2,5.31832E-3,1.8467619E-1,3.020277E-1,4.4859756E-2,9.518132E-2,-1.2946384E-2,-5.1785107E-3,-4.393069E-1,-3.4299377E-1,-3.5530563E-2,4.799237E-3,4.5848857E-3,9.0142427E-4,1.057166E-2,7.633067E-3,1.5361795E-2,1.219878E-2,4.318646E-3,-4.5140693E-3,8.200827E-3,3.721766E-3,-1.4849235E-2,-2.4942702E-2,-1.2065124E-2,-1.8667687E-2],"categories":[],"categories_nodes":[],"categories_segments":[],"categories_sizes":[],"default_left":[0,0,0,0,0,0,0,0,0,0,0,0,0,0,0,0,0,0,0,0,0,0,0,0,0,0,0,0,0,0,0,0,0,0,0,0,0,0,0,0,0],"id":0,"left_children":[1,3,5,7,9,11,13,15,-1,17,19,21,23,25,-1,27,-1,29,31,33,35,-1,-1,37,39,-1,-1,-1,-1,-1,-1,-1,-1,-1,-1,-1,-1,-1,-1,-1,-1],"loss_changes":[1.2562424E2,5.94722E0,6.1893997E0,2.3878264E-1,5.9558907E0,4.7984314E-1,1.7460899E0,9.6879184E-2,0E0,1.0511665E0,9.43352E-2,1.1724043E-1,4.666443E-1,1.6523228E0,0E0,1.6344267E-1,0E0,5.0872326E-2,8.727646E-2,3.2895896E-1,1.7403412E-1,0E0,0E0,4.888687E-1,1.2522774E0,0E0,0E0,0E0,0E0,0E0,0E0,0E0,0E0,0E0,0E0,0E0,0E0,0E0,0E0,0E0,0E0],"parents":[2147483647,0,0,1,1,2,2,3,3,4,4,5,5,6,6,7,7,9,9,10,10,11,11,12,12,13,13,15,15,17,17,18,18,19,19,20,20,23,23,24,24],"right_children":[2,4,6,8,10,12,14,16,-1,18,20,22,24,26,-1,28,-1,30,32,34,36,-1,-1,38,40,-1,-1,-1,-1,-1,-1,-1,-1,-1,-1,-1,-1,-1,-1,-1,-1],"split_conditions":[2.0641685E-2,-8.6814594E-1,2.5141847E0,-8.928345E-1,-3.2499793E-1,1.1939587E-1,2.983267E0,-9.17523E-1,-2.9797273E-4,-8.1876886E-1,-2.2624376E-1,9.470732E-2,3.4159276E-1,2.9092014E0,-7.159462E-2,-9.4221157E-1,5.31832E-3,-8.434574E-1,-3.990636E-1,-2.509323E-1,-1.7686668E-1,-1.2946384E-2,-5.1785107E-3,1.934615E-1,6.6254383E-1,-3.5530563E-2,4.799237E-3,4.5848857E-3,9.0142427E-4,1.057166E-2,7.633067E-3,1.5361795E-2,1.219878E-2,4.318646E-3,-4.5140693E-3,8.200827E-3,3.721766E-3,-1.4849235E-2,-2.4942702E-2,-1.2065124E-2,-1.8667687E-2],"split_indices":[1,1,1,1,1,1,1,1,0,1,1,1,1,1,0,1,0,1,1,1,1,0,0,1,1,0,0,0,0,0,0,0,0,0,0,0,0,0,0,0,0],"split_type":[0,0,0,0,0,0,0,0,0,0,0,0,0,0,0,0,0,0,0,0,0,0,0,0,0,0,0,0,0,0,0,0,0,0,0,0,0,0,0,0,0],"sum_hessian":[1.6333904E3,1.0447924E3,5.885979E2,2.2747505E2,8.173174E2,5.470352E2,4.156273E1,1.7769933E2,4.9775723E1,6.3165393E2,1.8566345E2,3.9073944E1,5.0796124E2,3.8327305E1,3.235422E0,1.2070613E2,5.6993202E1,9.606715E1,5.355868E2,5.6246567E1,1.2941689E2,3.1109827E1,7.9641156E0,7.4165825E1,4.337954E2,3.583852E1,2.4887862E0,6.0477505E1,6.0228626E1,4.9277966E1,4.678918E1,4.875532E2,4.8033573E1,4.330488E1,1.2941688E1,2.8372162E1,1.01044716E2,2.3643469E1,5.0522358E1,1.0179135E2,3.3200406E2],"tree_param":{"num_deleted":"0","num_feature":"2","num_nodes":"41","size_leaf_vector":"1"}},{"base_weights":[-1.3967078E-2,-1.6558444E-1,3.3760762E-1,2.5245982E-1,-3.4929103E-1,3.7516117E-1,-2.8429252E-1,-4.8377004E-2,3.2750618E-1,-1.7154911E-1,-4.757932E-1,4.4310433E-1,2.0654127E-1,-2.1890299E-1,-2.5500504E-2,5.95363E-1,2.0334083E-1,-2.2874472E-1,-9.32157E-2,-4.085195E-1,-6.606507E-1,3.9428177E-1,5.826509E-1,-2.6121659E-3,2.334595E-1,-1.3975585E-2,-1.5445763E-1,-7.5680898E-3,3.0289818E-2,1.1875396E-2,5.6045796E-3,-5.4936977E-3,-2.6989505E-2,3.2952863E-3,-5.201997E-3,-2.3858365E-2,-1.0086237E-2,-3.4302615E-2,-2.3965721E-3,2.3319045E-2,1.4513816E-2,3.170038E-2,1.7841863E-2,1.3316567E-2,6.6098087E-3,-3.5922893E-3,-1.1069191E-2],"categories":[],"categories_nodes":[],"categories_segments":[],"categories_sizes":[],"default_left":[0,0,0,0,0,0,0,0,0,0,0,0,0,0,0,0,0,0,0,0,0,0,0,0,0,0,0,0,0,0,0,0,0,0,0,0,0,0,0,0,0,0,0,0,0,0,0],"id":1,"left_children":[1,3,5,7,9,11,13,-1,15,17,19,21,23,25,-1,27,29,31,33,35,37,39,41,-1,43,-1,45,-1,-1,-1,-1,-1,-1,-1,-1,-1,-1,-1,-1,-1,-1,-1,-1,-1,-1,-1,-1],"loss_changes":[8.791181E1,8.857696E1,1.17125435E1,3.257615E1,1.7926247E1,5.2824783E0,3.1443715E-1,0E0,1.0943119E1,1.4776535E0,5.5417786E0,2.042282E0,9.637289E-1,5.109954E-2,0E0,9.0855026E-1,6.867857E-1,7.065136E0,2.5295115E-1,4.8049507E0,1.8826027E0,1.740345E0,7.5185776E-1,0E0,3.7724924E-1,0E0,6.112683E-2,0E0,0E0,0E0,0E0,0E0,0E0,0E0,0E0,0E0,0E0,0E0,0E0,0E0,0E0,0E0,0E0,0E0,0E0,0E0,0E0],"parents":[2147483647,0,0,1,1,2,2,3,3,4,4,5,5,6,6,8,8,9,9,10,10,11,11,12,12,13,13,15,15,16,16,17,17,18,18,19,19,20,20,21,21,22,22,24,24,26,26],"right_children":[2,4,6,8,10,12,14,-1,16,18,20,22,24,26,-1,28,30,32,34,36,38,40,42,-1,44,-1,46,-1,-1,-1,-1,-1,-1,-1,-1,-1,-1,-1,-1,-1,-1,-1,-1,-1,-1,-1,-1],"split_conditions":[7.720399E-1,-9.0743506E-1,1.5411487E0,-2.1160326E0,-2.9529133E-1,1.3684937E0,1.588236E0,-4.8377004E-2,-1.4567972E0,-5.1503354E-1,4.424244E-1,1.1958344E0,1.384188E0,1.5568429E0,-2.5500504E-2,-2.053251E0,-1.0643957E0,-6.2490684E-1,-4.9933925E-1,2.2267778E-1,7.5634557E-1,1.0231795E0,1.3371007E0,-2.6121659E-3,1.4940614E0,-1.3975585E-2,1.5725416E0,-7.5680898E-3,3.0289818E-2,1.1875396E-2,5.6045796E-3,-5.4936977E-3,-2.6989505E-2,3.2952863E-3,-5.201997E-3,-2.3858365E-2,-1.0086237E-2,-3.4302615E-2,-2.3965721E-3,2.3319045E-2,1.4513816E-2,3.170038E-2,1.7841863E-2,1.3316567E-2,6.6098087E-3,-3.5922893E-3,-1.1069191E-2],"split_indices":[0,0,0,0,0,0,0,0,0,0,0,0,0,0,0,0,0,0,0,0,0,0,0,0,0,0,0,0,0,0,0,0,0,0,0,0,0,0,0,0,0,0,0,0,0,0,0],"split_type":[0,0,0,0,0,0,0,0,0,0,0,0,0,0,0,0,0,0,0,0,0,0,0,0,0,0,0,0,0,0,0,0,0,0,0,0,0,0,0,0,0,0,0,0,0,0,0],"sum_hessian":[1.6471791E3,1.1512354E3,4.9594373E2,3.5134268E2,7.9989264E2,4.6807568E2,2.7868061E1,1.967072E1,3.3167197E2,3.3356836E2,4.6632425E2,3.3247958E2,1.355961E2,2.313558E1,4.732481E0,1.0384862E2,2.2782335E2,1.916869E2,1.4188147E2,3.4425293E2,1.2207132E2,2.4913963E2,8.333994E1,1.2686903E1,1.22909195E2,1.0202904E1,1.2932677E1,1.2448632E0,1.0260375E2,1.645914E2,6.3231945E1,1.3966501E2,5.2021893E1,8.712648E0,1.3316882E2,2.5747418E2,8.677876E1,1.1709712E2,4.9741983E0,1.4508144E2,1.0405818E2,6.6425224E1,1.6914715E1,9.1557846E1,3.135135E1,6.7160616E0,6.2166157E0],"tree_param":{"num_deleted":"0","num_feature":"2","num_nodes":"47","size_leaf_vector":"1"}},{"base_weights":[1.2256992E-2,-1.4435248E-1,3.6424294E-1,2.5970292E-1,-3.2641357E-1,4.9389055E-1,9.419342E-2,-4.704107E-2,3.389106E-1,-1.7789021E-1,-4.3237033E-1,2.4787737E-1,5.1591694E-1,1.5510164E-1,-4.1425818E-1,6.9159883E-1,2.2383636E-1,-2.2723074E-1,-2.5444692E-2,-4.06499E-1,-7.184971E-1,2.1325707E-2,8.104857E-2,6.4276564E-1,4.9160185E-1,2.1078718E-1,1.5761089E-2,-2.6346413E-2,-1.1811373E-1,2.4719698E-2,3.605285E-2,1.2742075E-2,3.95794E-3,-4.045336E-3,-1.4722297E-2,1.3596455E-3,-2.0666532E-3,-2.4949644E-2,-1.830522E-2,-4.5965433E-2,-9.896846E-3,5.2555413E-3,2.1742869E-3,2.3821821E-2,3.6475215E-2,2.2627713E-2,2.8202577E-2,6.495395E-3,1.1804345E-2,-2.183792E-3,9.013294E-3,-7.064299E-3,-2.6562838E-3],"categories":[],"categories_nodes":[],"categories_segments":[],"categories_sizes":[],"default_left":[0,0,0,0,0,0,0,0,0,0,0,0,0,0,0,0,0,0,0,0,0,0,0,0,0,0,0,0,0,0,0,0,0,0,0,0,0,0,0,0,0,0,0,0,0,0,0,0,0,0,0,0,0],"id":2,"left_children":[1,3,5,7,9,11,13,-1,15,17,19,21,23,25,27,29,31,33,35,37,39,-1,41,43,45,47,49,-1,51,-1,-1,-1,-1,-1,-1,-1,-1,-1,-1,-1,-1,-1,-1,-1,-1,-1,-1,-1,-1,-1,-1,-1,-1],"loss_changes":[9.0260864E1,8.34507E1,1.7605774E1,3.3845375E1,1.2224556E1,1.7167435E0,5.167202E0,0E0,1.3298702E1,2.4550858E0,3.079918E0,8.5645926E-1,6.4482117E-1,1.1440935E0,5.3501415E-1,1.14471436E-1,1.1076174E0,2.4058867E0,6.8970636E-2,1.3867416E0,3.6303673E0,0E0,1.0518737E-2,3.28434E-1,4.9628448E-1,1.8535566E-1,4.3128434E-1,0E0,1.8640682E-3,0E0,0E0,0E0,0E0,0E0,0E0,0E0,0E0,0E0,0E0,0E0,0E0,0E0,0E0,0E0,0E0,0E0,0E0,0E0,0E0,0E0,0E0,0E0,0E0],"parents":[2147483647,0,0,1,1,2,2,3,3,4,4,5,5,6,6,8,8,9,9,10,10,11,11,12,12,13,13,14,14,15,15,16,16,17,17,18,18,19,19,20,20,22,22,23,23,24,24,25,25,26,26,28,28],"right_children":[2,4,6,8,10,12,14,-1,16,18,20,22,24,26,28,30,32,34,36,38,40,-1,42,44,46,48,50,-1,52,-1,-1,-1,-1,-1,-1,-1,-1,-1,-1,-1,-1,-1,-1,-1,-1,-1,-1,-1,-1,-1,-1,-1,-1],"split_conditions":[7.720399E-1,-9.0743506E-1,1.3684937E0,-2.1160326E0,-2.9529133E-1,8.348259E-1,1.5568429E0,-4.704107E-2,-1.5509762E0,-4.0516463E-1,6.6217095E-1,8.034329E-1,9.133062E-1,1.4940614E0,1.588236E0,-1.9276791E0,-1.033007E0,-7.190859E-1,-3.7377164E-1,-4.415175E-2,7.4065125E-1,2.1325707E-2,8.1913155E-1,8.6621886E-1,1.1958344E0,1.3998823E0,1.5411487E0,-2.6346413E-2,1.6039346E0,2.4719698E-2,3.605285E-2,1.2742075E-2,3.95794E-3,-4.045336E-3,-1.4722297E-2,1.3596455E-3,-2.0666532E-3,-2.4949644E-2,-1.830522E-2,-4.5965433E-2,-9.896846E-3,5.2555413E-3,2.1742869E-3,2.3821821E-2,3.6475215E-2,2.2627713E-2,2.8202577E-2,6.495395E-3,1.1804345E-2,-2.183792E-3,9.013294E-3,-7.064299E-3,-2.6562838E-3],"split_indices":[0,0,0,0,0,0,0,0,0,0,0,0,0,0,0,0,0,0,0,0,0,0,0,0,0,0,0,0,0,0,0,0,0,0,0,0,0,0,0,0,0,0,0,0,0,0,0,0,0,0,0,0,0],"split_type":[0,0,0,0,0,0,0,0,0,0,0,0,0,0,0,0,0,0,0,0,0,0,0,0,0,0,0,0,0,0,0,0,0,0,0,0,0,0,0,0,0,0,0,0,0,0,0,0,0,0,0,0,0],"sum_hessian":[1.6354513E3,1.1322625E3,5.031888E2,3.5157397E2,7.806885E2,3.3941214E2,1.6377667E2,2.1087027E1,3.3048694E2,3.2616714E2,4.5452133E2,2.889849E1,3.1051364E2,1.46877E2,1.6899675E1,8.0070564E1,2.5041637E2,2.4604245E2,8.0124695E1,4.1905173E2,3.546959E1,1.3203675E1,1.5694816E1,4.585574E1,2.646579E2,1.0457307E2,4.2303932E1,1.1677574E1,5.222102E0,1.27174835E1,6.735308E1,2.0559488E2,4.48215E1,7.813979E1,1.6790266E2,1.8412676E1,6.1712025E1,1.2392977E2,2.9512195E2,2.5042992E1,1.0426598E1,8.470474E0,7.224342E0,1.7942377E1,2.7913363E1,1.7668042E2,8.7977486E1,2.6378826E1,7.8194244E1,3.1615494E1,1.06884365E1,2.9840677E0,2.2380342E0],"tree_param":{"num_deleted":"0","num_feature":"2","num_nodes":"53","size_leaf_vector":"1"}},{"base_weights":[-9.596915E-3,-1.6240475E-1,3.4179002E-1,2.164562E-1,-3.2685843E-1,4.6984178E-1,9.199453E-2,-5.026129E-2,2.9446384E-1,-1.6696244E-1,-4.4214693E-1,1.8838383E-1,5.0568056E-1,1.810131E-1,-7.282746E-2,6.907392E-1,2.2744271E-1,-2.3706512E-1,-8.37616E-2,-3.7966254E-1,-6.07857E-1,2.022019E-2,1.3012996E-1,6.225775E-1,4.6366644E-1,-3.847052E-2,2.2686815E-1,-4.7788896E-2,-2.3315253E-2,3.9830115E-2,2.430169E-2,1.692495E-2,7.900083E-3,-8.366109E-3,-2.6599681E-2,-2.2185987E-3,-9.5969215E-3,-2.1416454E-2,-7.0481E-3,-3.160639E-2,-1.482965E-2,2.7635812E-3,1.2507372E-2,4.2515397E-2,2.8949756E-2,1.91589E-2,3.0521696E-2,4.1357847E-3,-6.3174823E-3,9.444998E-3,1.56005565E-2,-7.0678703E-3,-9.801465E-4],"categories":[],"categories_nodes":[],"categories_segments":[],"categories_sizes":[],"default_left":[0,0,0,0,0,0,0,0,0,0,0,0,0,0,0,0,0,0,0,0,0,0,0,0,0,0,0,0,0,0,0,0,0,0,0,0,0,0,0,0,0,0,0,0,0,0,0,0,0,0,0,0,0],"id":3,"left_children":[1,3,5,7,9,11,13,-1,15,17,19,21,23,25,27,29,31,33,35,37,39,-1,41,43,45,47,49,51,-1,-1,-1,-1,-1,-1,-1,-1,-1,-1,-1,-1,-1,-1,-1,-1,-1,-1,-1,-1,-1,-1,-1,-1,-1],"loss_changes":[8.799047E1,7.1224686E1,1.5843323E1,3.3296318E1,1.4613579E1,3.2143097E0,2.5010145E0,0E0,8.508146E0,1.9364233E0,4.5564575E0,4.3378043E-1,1.1378098E0,1.1196887E0,5.705748E-1,6.250019E-1,2.1101494E0,3.6439676E0,6.51605E-1,3.870819E0,7.563629E-1,0E0,2.7293116E-1,2.4086761E-1,2.3363152E0,2.2271527E-1,2.367053E-1,1.4937557E-1,0E0,0E0,0E0,0E0,0E0,0E0,0E0,0E0,0E0,0E0,0E0,0E0,0E0,0E0,0E0,0E0,0E0,0E0,0E0,0E0,0E0,0E0,0E0,0E0,0E0],"parents":[2147483647,0,0,1,1,2,2,3,3,4,4,5,5,6,6,8,8,9,9,10,10,11,11,12,12,13,13,14,14,15,15,16,16,17,17,18,18,19,19,20,20,22,22,23,23,24,24,25,25,26,26,27,27],"right_children":[2,4,6,8,10,12,14,-1,16,18,20,22,24,26,28,30,32,34,36,38,40,-1,42,44,46,48,50,52,-1,-1,-1,-1,-1,-1,-1,-1,-1,-1,-1,-1,-1,-1,-1,-1,-1,-1,-1,-1,-1,-1,-1,-1,-1],"split_conditions":[7.720399E-1,-9.2313373E-1,1.352795E0,-2.053251E0,-2.9529133E-1,8.505202E-1,1.4940614E0,-5.026129E-2,-1.7079368E0,-5.4642653E-1,4.424244E-1,7.8773856E-1,9.7609216E-1,1.384188E0,1.6039346E0,-1.81781E0,-1.3626226E0,-6.092125E-1,-3.4237865E-1,2.8546378E-1,7.4065125E-1,2.022019E-2,8.348259E-1,8.6621886E-1,1.1958344E0,1.3684937E0,1.4626683E0,1.5097556E0,-2.3315253E-2,3.9830115E-2,2.430169E-2,1.692495E-2,7.900083E-3,-8.366109E-3,-2.6599681E-2,-2.2185987E-3,-9.5969215E-3,-2.1416454E-2,-7.0481E-3,-3.160639E-2,-1.482965E-2,2.7635812E-3,1.2507372E-2,4.2515397E-2,2.8949756E-2,1.91589E-2,3.0521696E-2,4.1357847E-3,-6.3174823E-3,9.444998E-3,1.56005565E-2,-7.0678703E-3,-9.801465E-4],"split_indices":[0,0,0,0,0,0,0,0,0,0,0,0,0,0,0,0,0,0,0,0,0,0,0,0,0,0,0,0,0,0,0,0,0,0,0,0,0,0,0,0,0,0,0,0,0,0,0,0,0,0,0,0,0],"split_type":[0,0,0,0,0,0,0,0,0,0,0,0,0,0,0,0,0,0,0,0,0,0,0,0,0,0,0,0,0,0,0,0,0,0,0,0,0,0,0,0,0,0,0,0,0,0,0,0,0,0,0,0,0],"sum_hessian":[1.6366849E3,1.1410248E3,4.9566022E2,3.452764E2,7.9574835E2,3.2709952E2,1.685607E2,2.0010143E1,3.2526627E2,3.3440433E2,4.61344E2,3.765267E1,2.8944684E2,1.0938488E2,5.9175827E1,4.5707214E1,2.7955905E2,1.8048418E2,1.5392017E2,3.374084E2,1.2393562E2,6.735109E0,3.091756E1,7.2872765E1,2.1657407E2,1.8931398E1,9.045348E1,5.6689873E1,2.485952E0,2.8221214E1,1.7486002E1,1.060615E2,1.7349754E2,1.4723439E2,3.3249783E1,1.1386832E2,4.0051846E1,2.796073E2,5.7801067E1,1.14014496E2,9.921126E0,1.994058E1,1.097698E1,8.732508E0,6.414026E1,1.422008E2,7.437327E1,7.982376E0,1.0949022E1,6.478308E1,2.5670397E1,1.219411E1,4.4495766E1],"tree_param":{"num_deleted":"0","num_feature":"2","num_nodes":"53","size_leaf_vector":"1"}},{"base_weights":[-4.710943E-3,-1.4627863E-1,3.1167683E-1,1.1528978E-1,-3.3325467E-1,4.300852E-1,7.737565E-2,-4.6203118E-2,1.6333817E-1,-2.8252578E-1,-5.458674E-1,1.377494E-1,4.6989474E-1,1.3004486E-1,-3.2182065E-1,4.1127676E-1,3.3907425E-2,-3.129501E-1,-8.101147E-2,-5.656854E-1,-2.835447E-1,2.6683348E-1,5.6092475E-2,5.889253E-1,4.2614338E-1,1.6348752E-1,4.1741487E-2,-1.8310046E-2,-8.491621E-3,3.226812E-2,1.7663537E-2,6.2864954E-3,-3.4878526E-3,-9.576417E-3,-2.045288E-2,2.9893607E-4,-1.6091755E-2,-2.5283515E-2,-3.73048E-2,-2.3439988E-3,-2.6625633E-2,1.6524399E-2,9.41998E-3,-4.187697E-3,1.1879402E-2,2.5490528E-2,3.498559E-2,1.7014699E-2,2.938958E-2,2.7966031E-3,1.1775407E-2,-1.9307634E-3,3.5060649E-3],"categories":[],"categories_nodes":[],"categories_segments":[],"categories_sizes":[],"default_left":[0,0,0,0,0,0,0,0,0,0,0,0,0,0,0,0,0,0,0,0,0,0,0,0,0,0,0,0,0,0,0,0,0,0,0,0,0,0,0,0,0,0,0,0,0,0,0,0,0,0,0,0,0],"id":4,"left_children":[1,3,5,7,9,11,13,-1,15,17,19,21,23,25,27,29,31,33,35,37,39,41,43,45,47,49,51,-1,-1,-1,-1,-1,-1,-1,-1,-1,-1,-1,-1,-1,-1,-1,-1,-1,-1,-1,-1,-1,-1,-1,-1,-1,-1],"loss_changes":[7.37391E1,5.5663803E1,1.4086113E1,2.386488E1,7.0021744E0,3.8671837E0,3.6597466E0,0E0,1.4578546E1,3.2716827E0,4.9850082E-1,4.2677867E-1,1.2954636E0,4.441979E-1,7.5036526E-2,1.8885002E0,2.8629792E0,5.3699226E0,1.507985E0,8.877449E-1,6.177345E-1,1.7481685E-2,7.035863E-1,3.1987572E-1,2.8634872E0,8.4225965E-1,1.01445004E-1,0E0,0E0,0E0,0E0,0E0,0E0,0E0,0E0,0E0,0E0,0E0,0E0,0E0,0E0,0E0,0E0,0E0,0E0,0E0,0E0,0E0,0E0,0E0,0E0,0E0,0E0],"parents":[2147483647,0,0,1,1,2,2,3,3,4,4,5,5,6,6,8,8,9,9,10,10,11,11,12,12,13,13,14,14,15,15,16,16,17,17,18,18,19,19,20,20,21,21,22,22,23,23,24,24,25,25,26,26],"right_children":[2,4,6,8,10,12,14,-1,16,18,20,22,24,26,28,30,32,34,36,38,40,42,44,46,48,50,52,-1,-1,-1,-1,-1,-1,-1,-1,-1,-1,-1,-1,-1,-1,-1,-1,-1,-1,-1,-1,-1,-1,-1,-1,-1,-1],"split_conditions":[7.720399E-1,-6.562998E-1,1.352795E0,-2.053251E0,4.424244E-1,8.505202E-1,1.5568429E0,-4.6203118E-2,-1.3626226E0,2.540708E-1,7.4065125E-1,8.034329E-1,9.7609216E-1,1.4940614E0,1.588236E0,-1.8335044E0,-9.7022104E-1,-2.9529133E-1,3.9533707E-1,6.6217095E-1,7.5634557E-1,7.8773856E-1,8.348259E-1,9.290005E-1,1.1958344E0,1.415581E0,1.5097556E0,-1.8310046E-2,-8.491621E-3,3.226812E-2,1.7663537E-2,6.2864954E-3,-3.4878526E-3,-9.576417E-3,-2.045288E-2,2.9893607E-4,-1.6091755E-2,-2.5283515E-2,-3.73048E-2,-2.3439988E-3,-2.6625633E-2,1.6524399E-2,9.41998E-3,-4.187697E-3,1.1879402E-2,2.5490528E-2,3.498559E-2,1.7014699E-2,2.938958E-2,2.7966031E-3,1.1775407E-2,-1.9307634E-3,3.5060649E-3],"split_indices":[0,0,0,0,0,0,0,0,0,0,0,0,0,0,0,0,0,0,0,0,0,0,0,0,0,0,0,0,0,0,0,0,0,0,0,0,0,0,0,0,0,0,0,0,0,0,0,0,0,0,0,0,0],"split_type":[0,0,0,0,0,0,0,0,0,0,0,0,0,0,0,0,0,0,0,0,0,0,0,0,0,0,0,0,0,0,0,0,0,0,0,0,0,0,0,0,0,0,0,0,0,0,0,0,0,0,0,0,0],"sum_hessian":[1.644301E3,1.13637E3,5.0793106E2,4.7385635E2,6.625136E2,3.3685806E2,1.71073E2,2.0132435E1,4.5372394E2,5.367703E2,1.257433E2,4.090896E1,2.959491E2,1.5172847E2,1.9344532E1,1.5487209E2,2.9885184E2,4.6587955E2,7.089077E1,1.1583567E2,9.907631E0,1.4972517E1,2.593644E1,7.6193924E1,2.1975519E2,1.0943232E2,4.2296143E1,1.3881699E1,5.4628344E0,2.8744942E1,1.26127144E2,1.583648E2,1.4048703E2,2.0715437E2,2.587252E2,5.279526E1,1.8095505E1,8.977437E1,2.6061302E1,5.688519E0,4.219112E0,6.491021E0,8.481496E0,1.4953198E1,1.0983241E1,4.7718765E1,2.8475157E1,1.4555685E2,7.419833E1,4.4601353E1,6.483097E1,1.0944995E1,3.135115E1],"tree_param":{"num_deleted":"0","num_feature":"2","num_nodes":"53","size_leaf_vector":"1"}},{"base_weights":[-1.1103636E-3,2.0826642E-1,-3.7909764E-1,1.1957375E-1,2.6639378E-1,-3.0200702E-1,-6.0532945E-1,1.0323892E-1,8.634067E-3,3.0624726E-1,1.5951186E-1,-3.385681E-1,-2.1357022E-1,-5.7635605E-1,-7.058009E-2,1.10792145E-1,3.0103792E-3,2.4346614E-1,3.5011664E-1,1.7268464E-1,-1.3963444E-3,-2.8713608E-1,-4.120234E-1,-2.4902438E-1,-1.5995722E-1,-5.791408E-1,-7.0391037E-3,4.481163E-3,7.3246704E-3,1.536367E-2,5.92875E-3,1.9228913E-2,1.6691227E-2,5.621404E-3,1.0861613E-2,-1.5313081E-2,-7.2633172E-3,-2.6067091E-2,-1.9746058E-2,-5.8957115E-3,-1.4791249E-2,-1.9132769E-3,-1.1547559E-2,-3.375252E-2,-2.746204E-2],"categories":[],"categories_nodes":[],"categories_segments":[],"categories_sizes":[],"default_left":[0,0,0,0,0,0,0,0,0,0,0,0,0,0,0,0,0,0,0,0,0,0,0,0,0,0,0,0,0,0,0,0,0,0,0,0,0,0,0,0,0,0,0,0,0],"id":5,"left_children":[1,3,5,7,9,11,13,15,-1,17,19,21,23,25,-1,27,-1,29,31,33,-1,35,37,39,41,43,-1,-1,-1,-1,-1,-1,-1,-1,-1,-1,-1,-1,-1,-1,-1,-1,-1,-1,-1],"loss_changes":[1.3065314E2,5.445286E0,1.0080551E1,3.4862757E-1,2.6814308E0,1.3533173E0,2.6570702E0,9.913993E-2,0E0,1.1976318E0,4.3981314E-1,1.0537643E0,2.104516E-1,9.447861E-2,0E0,1.9526744E-1,0E0,1.5165644E0,2.4284363E-2,4.1780138E-1,0E0,4.5957947E-1,2.8682709E-2,4.404354E-1,4.6814072E-1,4.179001E-2,0E0,0E0,0E0,0E0,0E0,0E0,0E0,0E0,0E0,0E0,0E0,0E0,0E0,0E0,0E0,0E0,0E0,0E0,0E0],"parents":[2147483647,0,0,1,1,2,2,3,3,4,4,5,5,6,6,7,7,9,9,10,10,11,11,12,12,13,13,15,15,17,17,18,18,19,19,21,21,22,22,23,23,24,24,25,25],"right_children":[2,4,6,8,10,12,14,16,-1,18,20,22,24,26,-1,28,-1,30,32,34,-1,36,38,40,42,44,-1,-1,-1,-1,-1,-1,-1,-1,-1,-1,-1,-1,-1,-1,-1,-1,-1,-1,-1],"split_conditions":[2.0641685E-2,-7.693918E-1,1.7488399E0,-8.1876886E-1,-3.003094E-1,1.1069376E0,2.983267E0,-8.434574E-1,8.634067E-3,-6.45949E-1,-4.0468606E-3,5.6378967E-1,1.4772658E0,2.9338899E0,-7.058009E-2,-8.928345E-1,3.0103792E-3,-6.953261E-1,-5.718834E-1,-1.7686668E-1,-1.3963444E-3,4.8972404E-1,6.1316675E-1,1.2056918E0,1.57602E0,1.9216596E0,-7.0391037E-3,4.481163E-3,7.3246704E-3,1.536367E-2,5.92875E-3,1.9228913E-2,1.6691227E-2,5.621404E-3,1.0861613E-2,-1.5313081E-2,-7.2633172E-3,-2.6067091E-2,-1.9746058E-2,-5.8957115E-3,-1.4791249E-2,-1.9132769E-3,-1.1547559E-2,-3.375252E-2,-2.746204E-2],"split_indices":[1,1,1,1,1,1,1,1,0,1,1,1,1,1,0,1,0,1,1,1,0,1,1,1,1,1,0,0,0,0,0,0,0,0,0,0,0,0,0,0,0,0,0,0,0],"split_type":[0,0,0,0,0,0,0,0,0,0,0,0,0,0,0,0,0,0,0,0,0,0,0,0,0,0,0,0,0,0,0,0,0,0,0,0,0,0,0,0,0,0,0,0,0],"sum_hessian":[1.6488771E3,1.0613933E3,5.8748376E2,4.2142548E2,6.3996783E2,4.3991397E2,1.4756982E2,3.245457E2,9.687978E1,4.6479324E2,1.7517458E2,3.0924088E2,1.306731E2,1.4410622E2,3.4636188E0,2.7474536E2,4.980034E1,1.938811E2,2.7091214E2,1.6374562E2,1.1428959E1,1.8477435E2,1.24466515E2,7.6463264E1,5.4209827E1,1.4286325E2,1.2429614E0,1.7468002E2,1.0006532E2,1.2735483E2,6.6526276E1,7.970726E1,1.9120488E2,7.109882E1,9.26468E1,1.6180286E2,2.2971493E1,1.2849295E1,1.1161722E2,2.1039993E1,5.542327E1,2.0540346E1,3.3669483E1,2.8825012E1,1.1403824E2],"tree_param":{"num_deleted":"0","num_feature":"2","num_nodes":"45","size_leaf_vector":"1"}},{"base_weights":[6.0277563E-3,1.7840119E-1,-3.322403E-1,9.202708E-2,2.3343281E-1,-2.4978201E-1,-5.418875E-1,5.7466436E-2,6.674725E-3,3.25356E-1,9.9335514E-2,-2.7930093E-1,-1.8612233E-1,-5.203596E-1,-6.409885E-2,4.3816213E-3,4.5803357E-2,9.237911E-3,3.406716E-1,1.1730786E-1,-4.2050406E-2,-2.4752326E-1,-3.7955946E-1,-1.4433774E-1,-2.5255406E-1,-5.292941E-1,5.1585664E-3,1.181244E-3,2.8891703E-3,1.5941106E-2,1.9302217E-2,6.639765E-3,4.107447E-3,-3.8659785E-4,-2.9420403E-3,-1.5490974E-2,-1.0105191E-2,-2.4578478E-2,-1.49989445E-2,-8.729935E-3,3.984511E-3,-1.6664779E-2,-1.03518125E-2,-3.068246E-2,-2.4970843E-2],"categories":[],"categories_nodes":[],"categories_segments":[],"categories_sizes":[],"default_left":[0,0,0,0,0,0,0,0,0,0,0,0,0,0,0,0,0,0,0,0,0,0,0,0,0,0,0,0,0,0,0,0,0,0,0,0,0,0,0,0,0,0,0,0,0],"id":6,"left_children":[1,3,5,7,9,11,13,15,-1,17,19,21,23,25,-1,-1,27,-1,29,31,33,35,37,39,41,43,-1,-1,-1,-1,-1,-1,-1,-1,-1,-1,-1,-1,-1,-1,-1,-1,-1,-1,-1],"loss_changes":[9.532455E1,5.1261215E0,9.404808E0,5.9870315E-1,8.113663E0,6.958008E-1,1.8013573E0,7.779634E-2,0E0,7.8038406E-1,6.915364E-1,7.658558E-1,3.2180214E-1,9.026985E-1,0E0,0E0,4.3747574E-2,0E0,2.2586441E-1,1.1977434E-1,1.7528806E-2,5.253315E-1,4.1479015E-1,5.6685185E-1,1.092422E-1,7.2200775E-2,0E0,0E0,0E0,0E0,0E0,0E0,0E0,0E0,0E0,0E0,0E0,0E0,0E0,0E0,0E0,0E0,0E0,0E0,0E0],"parents":[2147483647,0,0,1,1,2,2,3,3,4,4,5,5,6,6,7,7,9,9,10,10,11,11,12,12,13,13,16,16,18,18,19,19,20,20,21,21,22,22,23,23,24,24,25,25],"right_children":[2,4,6,8,10,12,14,16,-1,18,20,22,24,26,-1,-1,28,-1,30,32,34,36,38,40,42,44,-1,-1,-1,-1,-1,-1,-1,-1,-1,-1,-1,-1,-1,-1,-1,-1,-1,-1,-1],"split_conditions":[9.470732E-2,-7.693918E-1,1.6994628E0,-8.6814594E-1,-3.990636E-1,1.0328721E0,2.983267E0,-9.4221157E-1,6.674725E-3,-7.4470323E-1,2.0641685E-2,7.61298E-1,1.4525772E0,2.9338899E0,-6.409885E-2,4.3816213E-3,-9.17523E-1,9.237911E-3,-5.4719484E-1,-1.2748958E-1,4.533023E-2,3.4159276E-1,8.600522E-1,1.4032001E0,1.5266429E0,1.9216596E0,5.1585664E-3,1.181244E-3,2.8891703E-3,1.5941106E-2,1.9302217E-2,6.639765E-3,4.107447E-3,-3.8659785E-4,-2.9420403E-3,-1.5490974E-2,-1.0105191E-2,-2.4578478E-2,-1.49989445E-2,-8.729935E-3,3.984511E-3,-1.6664779E-2,-1.03518125E-2,-3.068246E-2,-2.4970843E-2],"split_indices":[1,1,1,1,1,1,1,1,0,1,1,1,1,1,0,0,1,0,1,1,1,1,1,1,1,1,0,0,0,0,0,0,0,0,0,0,0,0,0,0,0,0,0,0,0],"split_type":[0,0,0,0,0,0,0,0,0,0,0,0,0,0,0,0,0,0,0,0,0,0,0,0,0,0,0,0,0,0,0,0,0,0,0,0,0,0,0,0,0,0,0,0,0],"sum_hessian":[1.6328164E3,1.0819519E3,5.5086456E2,4.2210895E2,6.5984296E2,3.969341E2,1.5393047E2,2.31529E2,1.9057993E2,3.906367E2,2.6920624E2,2.6887137E2,1.2806273E2,1.512344E2,2.696049E0,6.2740368E1,1.6878864E2,3.965601E1,3.5098068E2,2.389964E2,3.0209845E1,2.0679503E2,6.2076347E1,8.05627E1,4.7500034E1,1.49247E2,1.9874103E0,6.0239754E1,1.0854889E2,2.4231789E2,1.08662796E2,1.6398448E2,7.501192E1,1.0404416E1,1.9805428E1,8.474269E1,1.2205233E2,2.363415E1,3.84422E1,7.116994E1,9.392758E0,1.4845007E1,3.2655025E1,3.3924847E1,1.1532215E2],"tree_param":{"num_deleted":"0","num_feature":"2","num_nodes":"45","size_leaf_vector":"1"}},{"base_weights":[1.3720473E-2,-1.2308348E-1,3.2081E-1,2.0794484E-1,-2.6727206E-1,4.0069124E-1,1.6452087E-1,-8.3180386E-1,2.728888E-1,-2.3025626E-1,-4.851368E-1,2.16007E-1,4.2532337E-1,1.876931E-1,-1.6509372E-1,-4.2859796E-2,-1.51412515E-2,4.2432606E-1,1.3773894E-1,-1.6657265E-1,-2.9083827E-1,-5.083862E-1,-1.1501058E-2,1.4982489E-2,1.6954893E-1,2.825296E-2,3.7317672E-1,-4.4204865E-2,2.2188841E-1,-1.213618E-2,-4.7560506E-2,3.420694E-2,1.8659476E-2,-1.3064692E-2,7.770856E-3,-2.1222375E-2,-6.944988E-3,-1.8426461E-2,-6.1298097E-3,-2.3151575E-2,-3.0846288E-2,6.1868303E-3,1.0810719E-2,1.4515638E-2,2.601415E-2,6.6692987E-3,-8.718705E-3,1.4504189E-2,6.4145043E-3,-3.1622516E-3,-1.0605536E-3],"categories":[],"categories_nodes":[],"categories_segments":[],"categories_sizes":[],"default_left":[0,0,0,0,0,0,0,0,0,0,0,0,0,0,0,0,0,0,0,0,0,0,0,0,0,0,0,0,0,0,0,0,0,0,0,0,0,0,0,0,0,0,0,0,0,0,0,0,0,0,0],"id":7,"left_children":[1,3,5,7,9,11,13,15,17,19,21,23,25,27,29,-1,-1,31,33,35,37,39,-1,-1,41,-1,43,45,47,-1,49,-1,-1,-1,-1,-1,-1,-1,-1,-1,-1,-1,-1,-1,-1,-1,-1,-1,-1,-1,-1],"loss_changes":[6.902044E1,5.430861E1,6.2552414E0,2.3553074E1,6.2770348E0,1.4292145E0,1.351974E0,1.6514778E-2,6.6113815E0,2.5714417E0,5.6010056E-1,1.0999191E-1,1.9313431E0,1.2949104E0,9.696019E-2,0E0,0E0,1.780117E0,1.2658074E0,2.320218E0,4.486046E0,2.2527122E-1,0E0,0E0,3.5044372E-2,0E0,2.4945927E0,5.2396834E-1,8.6533403E-1,0E0,1.1274265E-3,0E0,0E0,0E0,0E0,0E0,0E0,0E0,0E0,0E0,0E0,0E0,0E0,0E0,0E0,0E0,0E0,0E0,0E0,0E0,0E0],"parents":[2147483647,0,0,1,1,2,2,3,3,4,4,5,5,6,6,7,7,8,8,9,9,10,10,11,11,12,12,13,13,14,14,17,17,18,18,19,19,20,20,21,21,24,24,26,26,27,27,28,28,30,30],"right_children":[2,4,6,8,10,12,14,16,18,20,22,24,26,28,30,-1,-1,32,34,36,38,40,-1,-1,42,-1,44,46,48,-1,50,-1,-1,-1,-1,-1,-1,-1,-1,-1,-1,-1,-1,-1,-1,-1,-1,-1,-1,-1,-1],"split_conditions":[7.720399E-1,-9.2313373E-1,1.352795E0,-2.0375524E0,4.7381738E-1,8.505202E-1,1.5725416E0,-2.1160326E0,-1.3469282E0,-2.9529133E-1,7.4065125E-1,8.034329E-1,9.7609216E-1,1.384188E0,1.588236E0,-4.2859796E-2,-1.51412515E-2,-1.8335044E0,-1.3155353E0,-8.1326044E-1,1.9128916E-1,6.6217095E-1,-1.1501058E-2,1.4982489E-2,8.348259E-1,2.825296E-2,1.1958344E0,1.3684937E0,1.4783627E0,-1.213618E-2,1.6039346E0,3.420694E-2,1.8659476E-2,-1.3064692E-2,7.770856E-3,-2.1222375E-2,-6.944988E-3,-1.8426461E-2,-6.1298097E-3,-2.3151575E-2,-3.0846288E-2,6.1868303E-3,1.0810719E-2,1.4515638E-2,2.601415E-2,6.6692987E-3,-8.718705E-3,1.4504189E-2,6.4145043E-3,-3.1622516E-3,-1.0605536E-3],"split_indices":[0,0,0,0,0,0,0,0,0,0,0,0,0,0,0,0,0,0,0,0,0,0,0,0,0,0,0,0,0,0,0,0,0,0,0,0,0,0,0,0,0,0,0,0,0,0,0,0,0,0,0],"split_type":[0,0,0,0,0,0,0,0,0,0,0,0,0,0,0,0,0,0,0,0,0,0,0,0,0,0,0,0,0,0,0,0,0,0,0,0,0,0,0,0,0,0,0,0,0,0,0,0,0,0,0],"sum_hessian":[1.6409712E3,1.1356533E3,5.0531796E2,3.4444162E2,7.912117E2,3.3336652E2,1.7195143E2,1.955525E1,3.2488635E2,6.780637E2,1.1314795E2,4.0379833E1,2.929867E2,1.6105937E2,1.0892066E1,1.80675E1,1.4877508E0,1.5220212E2,1.7268423E2,3.3239777E2,3.4566595E2,1.0278786E2,1.0360093E1,1.2473226E1,2.7906607E1,7.695003E1,2.1603667E2,2.0659916E1,1.4039946E2,5.9180717E0,4.9739943E0,2.2994383E1,1.2920773E2,6.741183E0,1.6594305E2,3.0823673E1,3.0157407E2,2.3565471E2,1.1001125E2,7.6208954E1,2.6578901E1,1.5924655E1,1.1981953E1,1.4009537E2,7.594129E1,8.7278E0,1.1932115E1,8.0007256E1,6.03922E1,2.2402444E0,2.7337503E0],"tree_param":{"num_deleted":"0","num_feature":"2","num_nodes":"51","size_leaf_vector":"1"}},{"base_weights":[-7.1323887E-3,1.7709054E-1,-3.2513943E-1,1.6054394E-2,2.1077666E-1,-2.483431E-1,-5.415717E-1,4.4354774E-2,-2.3387854E-3,2.240839E-1,1.2854415E-1,-2.4079038E-1,-3.6421132E-1,-5.210551E-1,-6.278392E-2,3.6326465E-3,7.094218E-4,1.9867447E-1,2.9317084E-1,6.665828E-2,1.8413535E-1,-2.4889284E-1,-3.988452E-3,-2.4530768E-2,-1.3494258E-2,-5.297923E-1,-1.3300068E-3,8.228151E-3,1.1289636E-2,1.8279439E-2,1.1403731E-2,6.440285E-3,1.383486E-4,1.7281009E-2,6.7165024E-3,-1.1141422E-2,-1.4058977E-2,-2.4009598E-2,-3.089625E-2],"categories":[],"categories_nodes":[],"categories_segments":[],"categories_sizes":[],"default_left":[0,0,0,0,0,0,0,0,0,0,0,0,0,0,0,0,0,0,0,0,0,0,0,0,0,0,0,0,0,0,0,0,0,0,0,0,0,0,0],"id":8,"left_children":[1,3,5,7,9,11,13,15,-1,17,19,21,23,25,-1,-1,-1,27,29,31,33,35,-1,-1,-1,37,-1,-1,-1,-1,-1,-1,-1,-1,-1,-1,-1,-1,-1],"loss_changes":[9.6307045E1,5.643341E0,9.8880005E0,3.2419676E-1,9.131317E-1,3.0340576E-1,1.6470566E0,1.06028944E-1,0E0,1.2399788E0,4.0826297E-1,5.3139496E-1,1.7041612E-1,6.52935E-1,0E0,0E0,0E0,4.6586227E-1,8.44141E-1,2.355479E-1,4.6691656E-1,2.7548027E-1,0E0,0E0,0E0,3.6627197E-1,0E0,0E0,0E0,0E0,0E0,0E0,0E0,0E0,0E0,0E0,0E0,0E0,0E0],"parents":[2147483647,0,0,1,1,2,2,3,3,4,4,5,5,6,6,7,7,9,9,10,10,11,11,12,12,13,13,17,17,18,18,19,19,20,20,21,21,25,25],"right_children":[2,4,6,8,10,12,14,16,-1,18,20,22,24,26,-1,-1,-1,28,30,32,34,36,-1,-1,-1,38,-1,-1,-1,-1,-1,-1,-1,-1,-1,-1,-1,-1,-1],"split_conditions":[-4.0468606E-3,-8.928345E-1,1.6747742E0,-9.17523E-1,-2.2624376E-1,1.5513315E0,2.983267E0,-9.4221157E-1,-2.3387854E-3,-5.225063E-1,-1.2748958E-1,1.4525772E0,1.6007086E0,2.9092014E0,-6.278392E-2,3.6326465E-3,7.094218E-4,-7.693918E-1,-3.990636E-1,-1.7686668E-1,-1.0280104E-1,6.378553E-1,-3.988452E-3,-2.4530768E-2,-1.3494258E-2,2.3660533E0,-1.3300068E-3,8.228151E-3,1.1289636E-2,1.8279439E-2,1.1403731E-2,6.440285E-3,1.383486E-4,1.7281009E-2,6.7165024E-3,-1.1141422E-2,-1.4058977E-2,-2.4009598E-2,-3.089625E-2],"split_indices":[1,1,1,1,1,1,1,1,0,1,1,1,1,1,0,0,0,1,1,1,1,1,0,0,0,1,0,0,0,0,0,0,0,0,0,0,0,0,0],"split_type":[0,0,0,0,0,0,0,0,0,0,0,0,0,0,0,0,0,0,0,0,0,0,0,0,0,0,0,0,0,0,0,0,0,0,0,0,0,0,0],"sum_hessian":[1.6419258E3,1.0399318E3,6.01994E2,1.801592E2,8.597725E2,4.4591724E2,1.5607677E2,1.2441388E2,5.5745323E1,7.385344E2,1.2123809E2,4.2151926E2,2.4398006E1,1.533992E2,2.6775625E0,6.3468E1,6.094588E1,5.4278107E2,1.9575336E2,5.8411564E1,6.2826523E1,4.0080533E2,2.0713924E1,8.630813E0,1.5767194E1,1.5066542E2,2.7337806E0,2.4352486E2,2.9925623E2,9.048021E1,1.0527314E2,2.9094841E1,2.9316723E1,1.3409423E1,4.94171E1,2.2614467E2,1.7466066E2,1.00534134E2,5.013129E1],"tree_param":{"num_deleted":"0","num_feature":"2","num_nodes":"39","size_leaf_vector":"1"}},{"base_weights":[4.8460355E-3,-1.2312268E-1,2.9850098E-1,1.7054056E-1,-2.5353464E-1,3.5818067E-1,5.083862E-2,-8.012866E-1,2.3672679E-1,-1.2980035E-1,-3.4303957E-1,1.0341487E-1,3.7735304E-1,1.0644978E-1,-9.152007E-2,-4.5859132E-2,-2.8197119E-2,5.762E-1,1.1699227E-1,-1.8822642E-1,-1.623279E-3,-2.8895405E-1,-4.835685E-1,1.3895734E-1,6.893824E-4,5.0110596E-1,3.388428E-1,1.4662632E-1,5.198704E-2,-5.30747E-2,-1.1204438E-2,3.901003E-2,2.3328912E-2,7.7992897E-3,1.9697401E-4,-4.901012E-3,-1.52637055E-2,1.5451074E-2,-1.464466E-3,-1.7983852E-2,-6.0034874E-3,-2.4824211E-2,-6.929955E-3,9.754763E-3,5.1702787E-3,2.2323022E-2,4.2638622E-2,1.5933573E-2,2.5895447E-2,2.489007E-3,9.614261E-3,8.4854674E-4,6.0596336E-3,-6.558293E-3,1.1093199E-3],"categories":[],"categories_nodes":[],"categories_segments":[],"categories_sizes":[],"default_left":[0,0,0,0,0,0,0,0,0,0,0,0,0,0,0,0,0,0,0,0,0,0,0,0,0,0,0,0,0,0,0,0,0,0,0,0,0,0,0,0,0,0,0,0,0,0,0,0,0,0,0,0,0,0,0],"id":9,"left_children":[1,3,5,7,9,11,13,15,17,19,21,23,25,27,29,-1,-1,31,33,35,37,39,41,43,-1,45,47,49,51,53,-1,-1,-1,-1,-1,-1,-1,-1,-1,-1,-1,-1,-1,-1,-1,-1,-1,-1,-1,-1,-1,-1,-1,-1,-1],"loss_changes":[6.1527634E1,4.3716805E1,7.326763E0,2.2785229E1,8.705643E0,1.9161224E0,7.8289986E-1,1.0517311E-1,1.3332289E1,2.4953117E0,3.3402138E0,9.171507E-2,1.6025238E0,1.4705533E-1,1.3066731E-1,0E0,0E0,1.5525246E0,1.0792532E0,2.3868446E0,9.1444594E-1,3.935299E0,4.9150658E-1,2.161014E-2,0E0,1.2752457E0,8.705673E-1,1.6788292E-1,7.44199E-2,1.3804859E-1,0E0,0E0,0E0,0E0,0E0,0E0,0E0,0E0,0E0,0E0,0E0,0E0,0E0,0E0,0E0,0E0,0E0,0E0,0E0,0E0,0E0,0E0,0E0,0E0,0E0],"parents":[2147483647,0,0,1,1,2,2,3,3,4,4,5,5,6,6,7,7,8,8,9,9,10,10,11,11,12,12,13,13,14,14,17,17,18,18,19,19,20,20,21,21,22,22,23,23,25,25,26,26,27,27,28,28,29,29],"right_children":[2,4,6,8,10,12,14,16,18,20,22,24,26,28,30,-1,-1,32,34,36,38,40,42,44,-1,46,48,50,52,54,-1,-1,-1,-1,-1,-1,-1,-1,-1,-1,-1,-1,-1,-1,-1,-1,-1,-1,-1,-1,-1,-1,-1,-1,-1],"split_conditions":[7.720399E-1,-9.0743506E-1,1.446974E0,-2.0375524E0,-2.9529133E-1,8.348259E-1,1.5411487E0,-2.16312E0,-1.5352775E0,-4.5225194E-1,4.424244E-1,8.1913155E-1,9.7609216E-1,1.4940614E0,1.588236E0,-4.5859132E-2,-2.8197119E-2,-1.81781E0,-1.0643957E0,-6.4060557E-1,-4.3655327E-1,1.9128916E-1,7.5634557E-1,7.8773856E-1,6.893824E-4,9.603935E-1,1.415581E0,1.4626683E0,1.5254543E0,1.5568429E0,-1.1204438E-2,3.901003E-2,2.3328912E-2,7.7992897E-3,1.9697401E-4,-4.901012E-3,-1.52637055E-2,1.5451074E-2,-1.464466E-3,-1.7983852E-2,-6.0034874E-3,-2.4824211E-2,-6.929955E-3,9.754763E-3,5.1702787E-3,2.2323022E-2,4.2638622E-2,1.5933573E-2,2.5895447E-2,2.489007E-3,9.614261E-3,8.4854674E-4,6.0596336E-3,-6.558293E-3,1.1093199E-3],"split_indices":[0,0,0,0,0,0,0,0,0,0,0,0,0,0,0,0,0,0,0,0,0,0,0,0,0,0,0,0,0,0,0,0,0,0,0,0,0,0,0,0,0,0,0,0,0,0,0,0,0,0,0,0,0,0,0],"split_type":[0,0,0,0,0,0,0,0,0,0,0,0,0,0,0,0,0,0,0,0,0,0,0,0,0,0,0,0,0,0,0,0,0,0,0,0,0,0,0,0,0,0,0,0,0,0,0,0,0,0,0,0,0,0,0],"sum_hessian":[1.6353252E3,1.1393854E3,4.9593973E2,3.5029016E2,7.890953E2,3.9927853E2,9.66612E1,2.1627167E1,3.28663E2,3.322429E2,4.568524E2,2.8392181E1,3.7088635E2,6.968976E1,2.6971443E1,1.2606844E1,9.020323E0,8.470206E1,2.4396094E2,2.278947E2,1.04348175E2,3.3209485E2,1.2475753E2,1.9935993E1,8.456187E0,8.51723E1,2.8571405E2,3.913102E1,3.0558737E1,2.1993584E1,4.977859E0,2.7468117E1,5.7233936E1,1.811128E2,6.284814E1,1.2974242E2,9.815229E1,7.7016325E0,9.6646545E1,2.3327675E2,9.881811E1,1.1983179E2,4.9257436E0,5.9899473E0,1.3946046E1,7.568166E1,9.490639E0,2.592858E2,2.6428253E1,1.32073765E1,2.5923643E1,2.1118563E1,9.440175E0,1.0429298E1,1.1564286E1],"tree_param":{"num_deleted":"0","num_feature":"2","num_nodes":"55","size_leaf_vector":"1"}},{"base_weights":[-3.0865488E-3,1.4917381E-1,-2.9031387E-1,6.7797415E-2,1.7093414E-1,-2.3217008E-1,-4.491112E-1,1.5372059E-3,8.1177846E-2,1.9997542E-1,8.2506016E-2,-3.8579043E-2,-2.1909872E-1,-4.2679074E-1,-6.1251592E-2,6.1213872E-3,5.833584E-2,1.7631781E-1,2.5923336E-1,-2.0006092E-2,1.0057515E-1,-2.5117463E-1,-1.3320534E-1,-5.2316964E-1,-3.1682712E-1,8.856218E-4,5.1556625E-3,9.240038E-3,8.262223E-4,1.7420156E-2,1.1531546E-2,-6.428705E-4,-1.3025914E-3,5.7494114E-3,-6.511293E-5,-1.031736E-2,-1.4772492E-2,-4.943609E-4,-9.346936E-3,-2.2002267E-2,-2.8675405E-2,-9.74049E-5,-1.7273312E-2],"categories":[],"categories_nodes":[],"categories_segments":[],"categories_sizes":[],"default_left":[0,0,0,0,0,0,0,0,0,0,0,0,0,0,0,0,0,0,0,0,0,0,0,0,0,0,0,0,0,0,0,0,0,0,0,0,0,0,0,0,0,0,0],"id":10,"left_children":[1,3,5,7,9,11,13,-1,15,17,19,-1,21,23,-1,-1,25,27,29,31,33,35,37,39,41,-1,-1,-1,-1,-1,-1,-1,-1,-1,-1,-1,-1,-1,-1,-1,-1,-1,-1],"loss_changes":[7.102628E1,1.8679638E0,5.09079E0,1.0935581E-1,2.1325264E0,2.7494698E0,2.070341E0,0E0,1.4845753E-1,8.364258E-1,3.8837695E-1,0E0,1.0838165E0,1.3930149E0,0E0,0E0,1.9498128E-1,6.107664E-1,3.7212563E-1,1.0519745E-3,2.6077807E-1,5.2282333E-1,7.4289966E-1,6.9179535E-2,6.416998E-1,0E0,0E0,0E0,0E0,0E0,0E0,0E0,0E0,0E0,0E0,0E0,0E0,0E0,0E0,0E0,0E0,0E0,0E0],"parents":[2147483647,0,0,1,1,2,2,3,3,4,4,5,5,6,6,8,8,9,9,10,10,12,12,13,13,16,16,17,17,18,18,19,19,20,20,21,21,22,22,23,23,24,24],"right_children":[2,4,6,8,10,12,14,-1,16,18,20,-1,22,24,-1,-1,26,28,30,32,34,36,38,40,42,-1,-1,-1,-1,-1,-1,-1,-1,-1,-1,-1,-1,-1,-1,-1,-1,-1,-1],"split_conditions":[7.0018776E-2,-8.6814594E-1,1.7241513E0,-9.4221157E-1,-3.2499793E-1,9.470732E-2,2.983267E0,1.5372059E-3,-9.17523E-1,-5.718834E-1,-2.7562085E-1,-3.8579043E-2,1.1563147E0,2.2426107E0,-6.1251592E-2,6.1213872E-3,-8.928345E-1,-5.965719E-1,-5.225063E-1,-3.003094E-1,2.0641685E-2,5.391011E-1,1.3291346E0,1.9216596E0,2.291988E0,8.856218E-4,5.1556625E-3,9.240038E-3,8.262223E-4,1.7420156E-2,1.1531546E-2,-6.428705E-4,-1.3025914E-3,5.7494114E-3,-6.511293E-5,-1.031736E-2,-1.4772492E-2,-4.943609E-4,-9.346936E-3,-2.2002267E-2,-2.8675405E-2,-9.74049E-5,-1.7273312E-2],"split_indices":[1,1,1,1,1,1,1,0,1,1,1,0,1,1,0,0,1,1,1,1,1,1,1,1,1,0,0,0,0,0,0,0,0,0,0,0,0,0,0,0,0,0,0],"split_type":[0,0,0,0,0,0,0,0,0,0,0,0,0,0,0,0,0,0,0,0,0,0,0,0,0,0,0,0,0,0,0,0,0,0,0,0,0,0,0,0,0,0,0],"sum_hessian":[1.6220862E3,1.0604291E3,5.616571E2,2.2460326E2,8.3582587E2,4.1292593E2,1.4873117E2,6.0463757E1,1.641395E2,6.2823987E2,2.0758598E2,8.396642E0,4.045293E2,1.4607906E2,2.6521223E0,5.6944614E1,1.07194885E2,4.518305E2,1.764094E2,3.1090754E1,1.7649522E2,2.9313654E2,1.11392746E2,7.584563E1,7.023343E1,5.6936214E1,5.025867E1,4.2890472E2,2.2925768E1,4.012779E1,1.362816E2,1.567857E1,1.5412184E1,1.5450761E2,2.1987606E1,1.484727E2,1.4466383E2,3.4165928E1,7.722682E1,3.228117E1,4.3564457E1,5.9444027E0,6.4289024E1],"tree_param":{"num_deleted":"0","num_feature":"2","num_nodes":"43","size_leaf_vector":"1"}},{"base_weights":[-4.9503706E-3,-1.3178821E-1,2.8461868E-1,1.4608105E-1,-2.377613E-1,3.4239483E-1,-1.418611E-1,-4.1590136E-2,2.0623912E-1,-2.0381951E-1,-4.3167326E-1,1.3221978E-1,3.6255816E-1,-8.8037476E-2,-2.6244023E-1,6.133028E-1,1.624654E-1,-1.490811E-1,-2.6365605E-1,-4.4355053E-1,-3.9590597E-3,2.0426206E-2,7.376906E-2,5.226937E-1,3.2527494E-1,-9.285088E-3,2.944225E-2,-1.6929295E-2,-5.2625056E-2,-3.7138057E-3,3.3038855E-2,1.0619813E-2,4.5138015E-3,-9.634271E-3,-3.0798505E-3,-1.746994E-2,-9.301585E-3,-2.0505812E-2,-2.60959E-2,1.0342429E-3,8.356853E-3,2.3485413E-2,3.21907E-2,1.7929094E-2,1.3220529E-2,5.5002286E-3,-2.8968516E-3,4.6864483E-3,-9.1990605E-3],"categories":[],"categories_nodes":[],"categories_segments":[],"categories_sizes":[],"default_left":[0,0,0,0,0,0,0,0,0,0,0,0,0,0,0,0,0,0,0,0,0,0,0,0,0,0,0,0,0,0,0,0,0,0,0,0,0,0,0,0,0,0,0,0,0,0,0,0,0],"id":11,"left_children":[1,3,5,7,9,11,13,-1,15,17,19,21,23,25,27,29,31,33,35,37,-1,-1,39,41,43,-1,45,-1,47,-1,-1,-1,-1,-1,-1,-1,-1,-1,-1,-1,-1,-1,-1,-1,-1,-1,-1,-1,-1],"loss_changes":[5.9870213E1,3.3413475E1,1.2283253E1,1.8618153E1,5.315357E0,1.8064613E0,3.659556E-1,0E0,5.1782475E0,2.2552872E0,4.7313118E-1,6.1391765E-1,2.2103844E0,4.9827534E-1,2.69696E-1,9.760847E-1,9.4971085E-1,1.39258E0,2.1539803E0,9.309578E-2,0E0,0E0,1.6573447E-1,1.7024422E-1,5.661659E-1,0E0,1.4970374E-1,0E0,1.3213031E-1,0E0,0E0,0E0,0E0,0E0,0E0,0E0,0E0,0E0,0E0,0E0,0E0,0E0,0E0,0E0,0E0,0E0,0E0,0E0,0E0],"parents":[2147483647,0,0,1,1,2,2,3,3,4,4,5,5,6,6,8,8,9,9,10,10,11,11,12,12,13,13,14,14,15,15,16,16,17,17,18,18,19,19,22,22,23,23,24,24,26,26,28,28],"right_children":[2,4,6,8,10,12,14,-1,16,18,20,22,24,26,28,30,32,34,36,38,-1,-1,40,42,44,-1,46,-1,48,-1,-1,-1,-1,-1,-1,-1,-1,-1,-1,-1,-1,-1,-1,-1,-1,-1,-1,-1,-1],"split_conditions":[7.720399E-1,-1.0173084E0,1.4940614E0,-2.1160326E0,4.424244E-1,8.505202E-1,1.5568429E0,-4.1590136E-2,-1.8335044E0,-2.9529133E-1,7.5634557E-1,7.8773856E-1,9.7609216E-1,1.5254543E0,1.588236E0,-2.0375524E0,-1.2527493E0,-4.8364493E-1,1.8629873E-2,6.6217095E-1,-3.9590597E-3,2.0426206E-2,8.348259E-1,9.4469917E-1,1.3371007E0,-9.285088E-3,1.5411487E0,-1.6929295E-2,1.6039346E0,-3.7138057E-3,3.3038855E-2,1.0619813E-2,4.5138015E-3,-9.634271E-3,-3.0798505E-3,-1.746994E-2,-9.301585E-3,-2.0505812E-2,-2.60959E-2,1.0342429E-3,8.356853E-3,2.3485413E-2,3.21907E-2,1.7929094E-2,1.3220529E-2,5.5002286E-3,-2.8968516E-3,4.6864483E-3,-9.1990605E-3],"split_indices":[0,0,0,0,0,0,0,0,0,0,0,0,0,0,0,0,0,0,0,0,0,0,0,0,0,0,0,0,0,0,0,0,0,0,0,0,0,0,0,0,0,0,0,0,0,0,0,0,0],"split_type":[0,0,0,0,0,0,0,0,0,0,0,0,0,0,0,0,0,0,0,0,0,0,0,0,0,0,0,0,0,0,0,0,0,0,0,0,0,0,0,0,0,0,0,0,0,0,0,0,0],"sum_hessian":[1.628062E3,1.1325321E3,4.9552997E2,3.125706E2,8.199615E2,4.3658237E2,5.89476E1,1.7371166E1,2.951994E2,6.9956305E2,1.20398445E2,3.8879044E1,3.977033E2,4.1951557E1,1.6996044E1,2.7398897E1,2.678005E2,3.671688E2,3.3239426E2,1.1622394E2,4.174503E0,5.7428083E0,3.3136234E1,7.2648834E1,3.2505447E2,2.2590614E1,1.936094E1,1.2020027E1,4.9760165E0,1.7331275E0,2.566577E1,1.5715776E2,1.10642746E2,2.4423383E2,1.22934975E2,1.562745E2,1.7611975E2,8.583639E1,3.0387558E1,2.1904192E1,1.1232044E1,5.393318E1,1.8715656E1,2.0692635E2,1.1812814E2,9.938692E0,9.422249E0,2.4891331E0,2.4868834E0],"tree_param":{"num_deleted":"0","num_feature":"2","num_nodes":"49","size_leaf_vector":"1"}},{"base_weights":[1.7144512E-3,-1.2590215E-1,2.9020646E-1,1.2365796E-1,-2.3640487E-1,3.5007575E-1,6.938383E-2,-4.0113606E-2,1.8128255E-1,-1.3842192E-1,-3.1071773E-1,9.562854E-2,3.8157025E-1,1.5883508E-1,-1.0140902E-1,4.8878366E-1,6.531969E-2,-3.1313932E-1,-1.1996361E-1,-2.9097223E-1,-5.519189E-1,2.3839304E-1,4.4010248E-2,2.6125005E-2,3.5422346E-1,5.384827E-2,2.1567072E-1,-1.7265485E-1,4.2318568E-2,3.363497E-2,2.0991815E-2,2.6373116E-3,1.6490778E-2,-1.05778575E-2,-6.144149E-2,-7.147537E-4,-8.4211035E-3,-1.8033504E-2,-1.0819119E-2,-3.290963E-2,-3.7674203E-3,5.324844E-3,1.4887552E-2,4.869011E-3,-4.052762E-4,1.396324E-2,2.2046665E-2,5.344569E-3,-4.7601594E-4,1.6169373E-2,8.580853E-3,-1.0966608E-2,-6.507917E-3,8.498352E-4,5.453414E-3],"categories":[],"categories_nodes":[],"categories_segments":[],"categories_sizes":[],"default_left":[0,0,0,0,0,0,0,0,0,0,0,0,0,0,0,0,0,0,0,0,0,0,0,0,0,0,0,0,0,0,0,0,0,0,0,0,0,0,0,0,0,0,0,0,0,0,0,0,0,0,0,0,0,0,0],"id":12,"left_children":[1,3,5,7,9,11,13,-1,15,17,19,21,23,25,27,29,31,33,35,37,39,41,43,-1,45,47,49,51,53,-1,-1,-1,-1,-1,-1,-1,-1,-1,-1,-1,-1,-1,-1,-1,-1,-1,-1,-1,-1,-1,-1,-1,-1,-1,-1],"loss_changes":[6.025869E1,3.1322971E1,6.6119957E0,1.876237E1,5.686409E0,3.126171E0,1.6708771E0,0E0,1.17101345E1,1.0627456E0,1.9667549E0,3.196742E-1,1.1671028E0,4.14868E-1,3.9478585E-1,8.5907364E-1,7.8165376E-1,2.7147102E0,1.585998E0,2.0793877E0,1.6057606E0,5.966413E-2,9.572492E-2,0E0,1.8068733E0,8.987548E-2,1.629641E-1,2.20263E-2,2.070042E-2,0E0,0E0,0E0,0E0,0E0,0E0,0E0,0E0,0E0,0E0,0E0,0E0,0E0,0E0,0E0,0E0,0E0,0E0,0E0,0E0,0E0,0E0,0E0,0E0,0E0,0E0],"parents":[2147483647,0,0,1,1,2,2,3,3,4,4,5,5,6,6,8,8,9,9,10,10,11,11,12,12,13,13,14,14,15,15,16,16,17,17,18,18,19,19,20,20,21,21,22,22,24,24,25,25,26,26,27,27,28,28],"right_children":[2,4,6,8,10,12,14,-1,16,18,20,22,24,26,28,30,32,34,36,38,40,42,44,-1,46,48,50,52,54,-1,-1,-1,-1,-1,-1,-1,-1,-1,-1,-1,-1,-1,-1,-1,-1,-1,-1,-1,-1,-1,-1,-1,-1,-1,-1],"split_conditions":[7.5634557E-1,-9.2313373E-1,1.4312754E0,-2.1160326E0,-2.7959266E-1,8.505202E-1,1.5254543E0,-4.0113606E-2,-1.5195832E0,-8.1326044E-1,6.6217095E-1,7.8773856E-1,9.4469917E-1,1.4626683E0,1.5725416E0,-1.8648974E0,-9.545267E-1,-8.2895476E-1,-6.562998E-1,1.5989617E-1,7.4065125E-1,7.720399E-1,8.1913155E-1,2.6125005E-2,1.1958344E0,1.446974E0,1.4783627E0,1.5411487E0,1.6039346E0,3.363497E-2,2.0991815E-2,2.6373116E-3,1.6490778E-2,-1.05778575E-2,-6.144149E-2,-7.147537E-4,-8.4211035E-3,-1.8033504E-2,-1.0819119E-2,-3.290963E-2,-3.7674203E-3,5.324844E-3,1.4887552E-2,4.869011E-3,-4.052762E-4,1.396324E-2,2.2046665E-2,5.344569E-3,-4.7601594E-4,1.6169373E-2,8.580853E-3,-1.0966608E-2,-6.507917E-3,8.498352E-4,5.453414E-3],"split_indices":[0,0,0,0,0,0,0,0,0,0,0,0,0,0,0,0,0,0,0,0,0,0,0,0,0,0,0,0,0,0,0,0,0,0,0,0,0,0,0,0,0,0,0,0,0,0,0,0,0,0,0,0,0,0,0],"split_type":[0,0,0,0,0,0,0,0,0,0,0,0,0,0,0,0,0,0,0,0,0,0,0,0,0,0,0,0,0,0,0,0,0,0,0,0,0,0,0,0,0,0,0,0,0,0,0,0,0,0,0,0,0,0,0],"sum_hessian":[1.6347439E3,1.133774E3,5.0096985E2,3.4791693E2,7.858571E2,3.9365662E2,1.0731323E2,1.9626692E1,3.2829022E2,3.401826E2,4.456745E2,4.3803143E1,3.4985345E2,7.047342E1,3.6839817E1,8.9019745E1,2.392705E2,3.097966E1,3.092029E2,4.139903E2,3.168422E1,1.0671049E1,3.313209E1,5.391254E1,2.9594092E2,2.5435814E1,4.50376E1,2.4495916E1,1.2343901E1,2.188506E1,6.713468E1,2.2955734E2,9.713149E0,2.899422E1,1.98544E0,9.762244E1,2.1158047E2,2.1203049E2,2.0195981E2,2.559542E1,6.0887976E0,4.179083E0,6.4919667E0,1.5939975E1,1.7192118E1,1.609897E2,1.3495122E2,1.3472089E1,1.1963724E1,1.12323475E1,3.3805256E1,9.690683E0,1.4805233E1,9.858615E0,2.485286E0],"tree_param":{"num_deleted":"0","num_feature":"2","num_nodes":"55","size_leaf_vector":"1"}},{"base_weights":[-2.342792E-3,1.4769582E-1,-2.8153986E-1,6.1707303E-2,1.7792194E-1,-1.9145627E-1,-5.339353E-1,4.49641E-2,9.087975E-2,2.1086048E-1,9.5408335E-2,-2.4518356E-1,-1.6552785E-1,-5.124762E-1,-6.0686428E-2,2.5181388E-3,2.0918148E-3,3.8290606E-3,5.2230363E-3,1.8420912E-1,2.7144226E-1,3.751599E-2,1.1688288E-1,-1.6881974E-2,-2.3525862E-1,-4.588513E-2,-2.159641E-1,-2.6570013E-2,3.4032416E-2,1.0136713E-2,7.795678E-3,1.6907834E-2,1.0362723E-2,3.4773387E-3,1.3599945E-4,1.050987E-2,3.4279514E-3,-4.2548603E-3,-1.2344192E-2,-6.9022067E-3,7.93695E-4,-1.3679005E-2,-9.603004E-3],"categories":[],"categories_nodes":[],"categories_segments":[],"categories_sizes":[],"default_left":[0,0,0,0,0,0,0,0,0,0,0,0,0,0,0,0,0,0,0,0,0,0,0,0,0,0,0,0,0,0,0,0,0,0,0,0,0,0,0,0,0,0,0],"id":13,"left_children":[1,3,5,7,9,11,13,15,17,19,21,23,25,27,-1,-1,-1,-1,-1,29,31,33,35,-1,37,39,41,-1,-1,-1,-1,-1,-1,-1,-1,-1,-1,-1,-1,-1,-1,-1,-1],"loss_changes":[6.845857E1,2.7518635E0,1.2885895E1,1.3170254E-1,2.1161194E0,5.48049E-1,1.5617256E0,9.0903044E-4,1.1496007E-2,8.5565567E-1,2.7666903E-1,4.4870377E-2,1.728467E0,3.6772995E0,0E0,0E0,0E0,0E0,0E0,1.7421722E-1,6.547346E-1,6.962738E-2,7.270539E-1,0E0,1.9829512E-1,4.9565268E-1,2.261877E-1,0E0,0E0,0E0,0E0,0E0,0E0,0E0,0E0,0E0,0E0,0E0,0E0,0E0,0E0,0E0,0E0],"parents":[2147483647,0,0,1,1,2,2,3,3,4,4,5,5,6,6,7,7,8,8,9,9,10,10,11,11,12,12,13,13,19,19,20,20,21,21,22,22,24,24,25,25,26,26],"right_children":[2,4,6,8,10,12,14,16,18,20,22,24,26,28,-1,-1,-1,-1,-1,30,32,34,36,-1,38,40,42,-1,-1,-1,-1,-1,-1,-1,-1,-1,-1,-1,-1,-1,-1,-1,-1],"split_conditions":[4.533023E-2,-8.434574E-1,1.7241513E0,-8.928345E-1,-3.7437505E-1,4.4034696E-1,2.983267E0,-9.4221157E-1,-8.6814594E-1,-5.965719E-1,-2.7562085E-1,7.0018776E-2,7.3660946E-1,2.9092014E0,-6.0686428E-2,2.5181388E-3,2.0918148E-3,3.8290606E-3,5.2230363E-3,-7.2001463E-1,-4.9781775E-1,-3.2499793E-1,-1.7686668E-1,-1.6881974E-2,9.470732E-2,5.391011E-1,9.8349494E-1,-2.6570013E-2,3.4032416E-2,1.0136713E-2,7.795678E-3,1.6907834E-2,1.0362723E-2,3.4773387E-3,1.3599945E-4,1.050987E-2,3.4279514E-3,-4.2548603E-3,-1.2344192E-2,-6.9022067E-3,7.93695E-4,-1.3679005E-2,-9.603004E-3],"split_indices":[1,1,1,1,1,1,1,1,1,1,1,1,1,1,0,0,0,0,0,1,1,1,1,0,1,1,1,0,0,0,0,0,0,0,0,0,0,0,0,0,0,0,0],"split_type":[0,0,0,0,0,0,0,0,0,0,0,0,0,0,0,0,0,0,0,0,0,0,0,0,0,0,0,0,0,0,0,0,0,0,0,0,0,0,0,0,0,0,0],"sum_hessian":[1.6322404E3,1.0619999E3,5.7024054E2,2.7700528E2,7.8499457E2,4.2154395E2,1.4869658E2,1.7760957E2,9.9395706E1,5.5992365E2,2.2507092E2,1.344626E2,2.8708133E2,1.4584651E2,2.850073E0,5.961352E1,1.17996056E2,5.1652714E1,4.774299E1,3.9166278E2,1.682609E2,6.1641403E1,1.6342952E2,9.834044E0,1.24628555E2,8.569917E1,2.0138217E2,1.4411533E2,1.7311815E0,2.3297137E2,1.5869139E2,8.041369E1,8.7847206E1,3.1576017E1,3.0065388E1,5.4615646E1,1.08813866E2,9.553055E0,1.150755E2,3.3890846E1,5.1808323E1,5.5988297E1,1.4539388E2],"tree_param":{"num_deleted":"0","num_feature":"2","num_nodes":"43","size_leaf_vector":"1"}},{"base_weights":[1.5320821E-2,-9.325336E-2,2.589704E-1,1.1116151E-1,-2.3352581E-1,3.0527824E-1,-8.448032E-2,-3.0771468E-2,1.439663E-1,-2.064077E-1,-3.6106443E-1,3.435052E-1,1.9173668E-1,2.0732502E-2,-2.1510947E-1,3.4689835E-1,3.4398556E-2,-3.3374253E-1,-1.866364E-1,-5.690908E-1,-3.0179584E-1,2.877089E-1,5.3836894E-1,3.5530422E-3,2.3856257E-1,-4.662747E-3,4.210732E-3,-1.7658544E-1,-1.6476184E-2,2.1096395E-2,1.1737808E-2,-1.8129526E-2,2.3288976E-3,-1.18790725E-2,-1.795592E-2,-3.506757E-4,-1.1579431E-2,-1.3996069E-2,-3.362016E-2,-1.1206458E-2,-2.0801855E-2,5.3970437E-3,1.5467986E-2,3.326699E-2,2.0068763E-2,9.577802E-3,-7.539E-3,1.3915057E-2,9.988787E-3,-9.817674E-3,-5.2877064E-3],"categories":[],"categories_nodes":[],"categories_segments":[],"categories_sizes":[],"default_left":[0,0,0,0,0,0,0,0,0,0,0,0,0,0,0,0,0,0,0,0,0,0,0,0,0,0,0,0,0,0,0,0,0,0,0,0,0,0,0,0,0,0,0,0,0,0,0,0,0,0,0],"id":14,"left_children":[1,3,5,7,9,11,13,-1,15,17,19,21,23,25,27,29,31,33,35,37,39,41,43,45,47,-1,-1,49,-1,-1,-1,-1,-1,-1,-1,-1,-1,-1,-1,-1,-1,-1,-1,-1,-1,-1,-1,-1,-1,-1,-1],"loss_changes":[4.3542633E1,3.267676E1,8.095074E0,1.1150198E1,2.2621841E0,1.8755608E0,8.437079E-1,0E0,9.87901E0,1.3462677E0,1.2724161E0,3.4697266E0,1.0118723E0,2.5919583E-1,6.2270164E-2,1.2123413E0,1.4189765E0,9.507656E-2,3.9270973E0,5.5395985E-1,7.3447704E-1,9.8365974E-1,1.0037613E0,7.227616E-1,8.622408E-2,0E0,0E0,1.087904E-2,0E0,0E0,0E0,0E0,0E0,0E0,0E0,0E0,0E0,0E0,0E0,0E0,0E0,0E0,0E0,0E0,0E0,0E0,0E0,0E0,0E0,0E0,0E0],"parents":[2147483647,0,0,1,1,2,2,3,3,4,4,5,5,6,6,8,8,9,9,10,10,11,11,12,12,13,13,14,14,15,15,16,16,17,17,18,18,19,19,20,20,21,21,22,22,23,23,24,24,27,27],"right_children":[2,4,6,8,10,12,14,-1,16,18,20,22,24,26,28,30,32,34,36,38,40,42,44,46,48,-1,-1,50,-1,-1,-1,-1,-1,-1,-1,-1,-1,-1,-1,-1,-1,-1,-1,-1,-1,-1,-1,-1,-1,-1,-1],"split_conditions":[7.720399E-1,-6.876928E-1,1.4940614E0,-2.1160326E0,4.581187E-1,1.352795E0,1.5411487E0,-3.0771468E-2,-1.3469282E0,-5.307323E-1,5.2090466E-1,1.1958344E0,1.384188E0,1.5097556E0,1.588236E0,-1.5038888E0,-1.3155353E0,-6.562998E-1,-3.5807297E-1,4.7381738E-1,6.6217095E-1,8.348259E-1,1.2743148E0,1.3684937E0,1.4312754E0,-4.662747E-3,4.210732E-3,1.5725416E0,-1.6476184E-2,2.1096395E-2,1.1737808E-2,-1.8129526E-2,2.3288976E-3,-1.18790725E-2,-1.795592E-2,-3.506757E-4,-1.1579431E-2,-1.3996069E-2,-3.362016E-2,-1.1206458E-2,-2.0801855E-2,5.3970437E-3,1.5467986E-2,3.326699E-2,2.0068763E-2,9.577802E-3,-7.539E-3,1.3915057E-2,9.988787E-3,-9.817674E-3,-5.2877064E-3],"split_indices":[0,0,0,0,0,0,0,0,0,0,0,0,0,0,0,0,0,0,0,0,0,0,0,0,0,0,0,0,0,0,0,0,0,0,0,0,0,0,0,0,0,0,0,0,0,0,0,0,0,0,0],"split_type":[0,0,0,0,0,0,0,0,0,0,0,0,0,0,0,0,0,0,0,0,0,0,0,0,0,0,0,0,0,0,0,0,0,0,0,0,0,0,0,0,0,0,0,0,0,0,0,0,0,0,0],"sum_hessian":[1.644059E3,1.1376992E3,5.0635983E2,4.6307755E2,6.7462164E2,4.4629636E2,6.006349E1,1.923706E1,4.4384048E2,5.584902E2,1.1613146E2,3.3236945E2,1.1392691E2,3.3734196E1,2.6329296E1,1.5485857E2,2.889819E2,7.292764E1,4.8556253E2,2.384305E1,9.2288414E1,2.6031003E2,7.205942E1,2.2914423E1,9.101249E1,1.18991995E1,2.1834995E1,2.1599865E1,4.729431E0,9.112697E1,6.3731598E1,7.7454996E0,2.8123642E2,1.7390266E1,5.5537376E1,9.742429E1,3.8813824E2,7.2526083E0,1.6590443E1,5.6701736E1,3.558668E1,2.8624516E1,2.316855E2,3.5396183E1,3.666323E1,1.02216215E1,1.2692801E1,4.1904545E1,4.9107944E1,1.5501487E1,6.0983777E0],"tree_param":{"num_deleted":"0","num_feature":"2","num_nodes":"51","size_leaf_vector":"1"}},{"base_weights":[-8.828966E-4,1.4516306E-1,-2.6435924E-1,5.9158046E-2,1.6880926E-1,-1.8402147E-1,-4.758753E-1,-7.0761E-4,8.6520076E-2,1.9201604E-1,4.3278772E-2,-8.263509E-2,-1.9623466E-1,-4.5159602E-1,-6.2046923E-2,5.505917E-3,1.6893389E-3,7.593639E-3,2.1210419E-1,-5.2045718E-2,8.756643E-2,-1.1962197E-1,4.2436663E-3,-2.3840015E-1,-1.4834727E-1,-4.6155426E-1,1.35169625E-2,1.2762046E-2,9.291628E-3,1.3603828E-3,-1.1725599E-2,1.0835647E-2,1.3480299E-3,-7.4882023E-3,-3.286312E-3,-1.0623963E-2,-2.1081727E-2,-6.4213234E-3,-1.2399206E-2,-2.2061024E-2,-3.6428478E-2],"categories":[],"categories_nodes":[],"categories_segments":[],"categories_sizes":[],"default_left":[0,0,0,0,0,0,0,0,0,0,0,0,0,0,0,0,0,0,0,0,0,0,0,0,0,0,0,0,0,0,0,0,0,0,0,0,0,0,0,0,0],"id":15,"left_children":[1,3,5,7,9,11,13,-1,15,17,19,21,23,25,-1,-1,-1,-1,27,29,31,33,-1,35,37,39,-1,-1,-1,-1,-1,-1,-1,-1,-1,-1,-1,-1,-1,-1,-1],"loss_changes":[6.2287388E1,2.1079826E0,9.721848E0,4.5481324E-1,2.3697453E0,5.038471E-1,2.379547E0,0E0,2.0136714E-1,5.231266E-1,5.477077E-1,3.0061406E-1,7.200489E-1,1.2389374E0,0E0,0E0,0E0,0E0,4.6986008E-1,6.056417E-1,6.846361E-1,5.3216457E-2,0E0,8.474903E-1,3.2109785E-1,5.105362E-1,0E0,0E0,0E0,0E0,0E0,0E0,0E0,0E0,0E0,0E0,0E0,0E0,0E0,0E0,0E0],"parents":[2147483647,0,0,1,1,2,2,3,3,4,4,5,5,6,6,8,8,9,9,10,10,11,11,12,12,13,13,18,18,19,19,20,20,21,21,23,23,24,24,25,25],"right_children":[2,4,6,8,10,12,14,-1,16,18,20,22,24,26,-1,-1,-1,-1,28,30,32,34,-1,36,38,40,-1,-1,-1,-1,-1,-1,-1,-1,-1,-1,-1,-1,-1,-1,-1],"split_conditions":[2.0641685E-2,-8.6814594E-1,1.6994628E0,-9.4221157E-1,-2.2624376E-1,1.4408441E-1,2.983267E0,-7.0761E-4,-8.928345E-1,-7.4470323E-1,-1.5217812E-1,1.1939587E-1,8.1067514E-1,2.9338899E0,-6.2046923E-2,5.505917E-3,1.6893389E-3,7.593639E-3,-6.2126046E-1,-1.7686668E-1,-1.0280104E-1,7.0018776E-2,4.2436663E-3,7.119209E-1,1.5513315E0,2.7857587E0,1.35169625E-2,1.2762046E-2,9.291628E-3,1.3603828E-3,-1.1725599E-2,1.0835647E-2,1.3480299E-3,-7.4882023E-3,-3.286312E-3,-1.0623963E-2,-2.1081727E-2,-6.4213234E-3,-1.2399206E-2,-2.2061024E-2,-3.6428478E-2],"split_indices":[1,1,1,1,1,1,1,0,1,1,1,1,1,1,0,0,0,0,1,1,1,1,0,1,1,1,0,0,0,0,0,0,0,0,0,0,0,0,0,0,0],"split_type":[0,0,0,0,0,0,0,0,0,0,0,0,0,0,0,0,0,0,0,0,0,0,0,0,0,0,0,0,0,0,0,0,0,0,0,0,0,0,0,0,0],"sum_hessian":[1.6167125E3,1.040441E3,5.762715E2,2.2512541E2,8.153156E2,4.1899817E2,1.5727332E2,6.1318745E1,1.6380667E2,6.8765875E2,1.2765684E2,4.588178E1,3.731164E2,1.5397713E2,3.2961867E0,1.1241328E2,5.1393387E1,2.3220044E2,4.554583E2,4.043963E1,8.721721E1,3.7817352E1,8.064426E0,1.962964E2,1.7681998E2,1.5223787E2,1.7392664E0,1.6909583E2,2.863625E2,2.8787012E1,1.16526165E1,2.7033995E1,6.0183212E1,2.3112518E1,1.4704832E1,1.7386108E2,2.2435318E1,1.4926562E2,2.7554354E1,1.4392972E2,8.308139E0],"tree_param":{"num_deleted":"0","num_feature":"2","num_nodes":"41","size_leaf_vector":"1"}},{"base_weights":[-1.8753238E-2,-1.3111596E-1,2.428334E-1,5.1205043E-2,-2.5107396E-1,2.804037E-1,1.9772336E-2,-3.593653E-2,8.962229E-2,-1.5944466E-1,-2.9534438E-1,1.6789827E-1,2.944921E-1,1.0394925E-1,-2.586582E-2,3.567696E-1,-1.1200246E-2,-3.221083E-1,-8.320243E-2,-3.621142E-1,-2.5487474E-1,1.2907402E-1,2.1143095E-1,4.248759E-1,2.6699543E-1,2.5027692E-3,7.814724E-3,-4.3034203E-2,5.6274366E-3,2.338431E-2,1.4031555E-2,2.27785E-3,-3.1164791E-3,-6.775148E-3,-1.9680813E-2,3.1272997E-3,-5.3420607E-3,-1.3146805E-2,-2.0261511E-2,-7.91382E-3,-1.853987E-2,9.593572E-3,2.9754832E-3,1.3052577E-2,6.40509E-3,1.75037E-2,3.8289994E-2,4.6981187E-3,1.3980195E-2,-1.024424E-3,-4.470611E-3],"categories":[],"categories_nodes":[],"categories_segments":[],"categories_sizes":[],"default_left":[0,0,0,0,0,0,0,0,0,0,0,0,0,0,0,0,0,0,0,0,0,0,0,0,0,0,0,0,0,0,0,0,0,0,0,0,0,0,0,0,0,0,0,0,0,0,0,0,0,0,0],"id":16,"left_children":[1,3,5,7,9,11,13,-1,15,17,19,21,23,25,27,29,31,33,35,37,39,41,43,45,47,-1,-1,49,-1,-1,-1,-1,-1,-1,-1,-1,-1,-1,-1,-1,-1,-1,-1,-1,-1,-1,-1,-1,-1,-1,-1],"loss_changes":[4.775674E1,2.4868454E1,4.086094E0,1.3429115E1,2.7341728E0,6.127434E-1,2.7719757E-1,0E0,1.1619467E1,2.770125E0,1.153698E0,5.5222034E-2,1.2129097E0,6.3607484E-2,1.1685318E-1,8.668804E-1,9.142232E-1,9.023948E-1,5.403662E-1,6.2739754E-1,3.1940403E0,1.125277E-1,5.5239975E-2,1.3319292E0,6.461582E-1,0E0,0E0,4.2771563E-2,0E0,0E0,0E0,0E0,0E0,0E0,0E0,0E0,0E0,0E0,0E0,0E0,0E0,0E0,0E0,0E0,0E0,0E0,0E0,0E0,0E0,0E0,0E0],"parents":[2147483647,0,0,1,1,2,2,3,3,4,4,5,5,6,6,8,8,9,9,10,10,11,11,12,12,13,13,14,14,15,15,16,16,17,17,18,18,19,19,20,20,21,21,22,22,23,23,24,24,27,27],"right_children":[2,4,6,8,10,12,14,-1,16,18,20,22,24,26,28,30,32,34,36,38,40,42,44,46,48,-1,-1,50,-1,-1,-1,-1,-1,-1,-1,-1,-1,-1,-1,-1,-1,-1,-1,-1,-1,-1,-1,-1,-1,-1,-1],"split_conditions":[7.720399E-1,-6.876928E-1,1.4783627E0,-2.0689454E0,-2.9529133E-1,8.6621886E-1,1.5097556E0,-3.593653E-2,-1.4254086E0,-5.4642653E-1,5.0022867E-2,8.348259E-1,9.7609216E-1,1.4940614E0,1.588236E0,-1.7079368E0,-1.0643957E0,-6.562998E-1,-4.9933925E-1,-1.8541804E-1,4.2673007E-1,8.034329E-1,8.505202E-1,9.603935E-1,1.0074809E0,2.5027692E-3,7.814724E-3,1.5568429E0,5.6274366E-3,2.338431E-2,1.4031555E-2,2.27785E-3,-3.1164791E-3,-6.775148E-3,-1.9680813E-2,3.1272997E-3,-5.3420607E-3,-1.3146805E-2,-2.0261511E-2,-7.91382E-3,-1.853987E-2,9.593572E-3,2.9754832E-3,1.3052577E-2,6.40509E-3,1.75037E-2,3.8289994E-2,4.6981187E-3,1.3980195E-2,-1.024424E-3,-4.470611E-3],"split_indices":[0,0,0,0,0,0,0,0,0,0,0,0,0,0,0,0,0,0,0,0,0,0,0,0,0,0,0,0,0,0,0,0,0,0,0,0,0,0,0,0,0,0,0,0,0,0,0,0,0,0,0],"split_type":[0,0,0,0,0,0,0,0,0,0,0,0,0,0,0,0,0,0,0,0,0,0,0,0,0,0,0,0,0,0,0,0,0,0,0,0,0,0,0,0,0,0,0,0,0,0,0,0,0,0,0],"sum_hessian":[1.6227056E3,1.1354708E3,4.8723477E2,4.508337E2,6.846371E2,4.1677933E2,7.0455444E1,2.058442E1,4.302493E2,2.2452502E2,4.6011203E2,4.782017E1,3.6895914E2,2.432033E1,4.6135113E1,1.1719133E2,3.1305795E2,7.0623726E1,1.5390129E2,1.7063615E2,2.894759E2,2.7372887E1,2.0447283E1,6.1741447E1,3.0721768E2,1.2946778E1,1.1373551E1,4.165721E1,4.477901E0,4.560809E1,7.1583244E1,1.4841528E2,1.6464267E2,2.036768E1,5.0256042E1,2.1247957E1,1.3265334E2,5.385468E1,1.1678147E2,1.5918906E2,1.3028683E2,1.3462122E1,1.3910766E1,1.147902E1,8.968263E0,5.229441E1,9.44704E0,2.1439772E1,2.8577792E2,2.9000824E1,1.2656386E1],"tree_param":{"num_deleted":"0","num_feature":"2","num_nodes":"51","size_leaf_vector":"1"}},{"base_weights":[-5.8032395E-3,-1.0934498E-1,2.5043774E-1,1.3637604E-1,-1.9901457E-1,3.4267738E-1,9.04298E-2,-3.153419E-2,1.8905297E-1,-1.232515E-1,-2.5890148E-1,3.2502595E-1,2.6215399E-2,1.1330444E-1,-3.108315E-2,3.907172E-1,1.00714296E-1,-1.6196959E-1,-6.952053E-2,-2.8472632E-1,3.9163046E-2,3.8883772E-1,2.965167E-1,1.5787636E-1,-1.917555E-2,2.7415529E-2,1.710113E-2,1.5627993E-3,8.383978E-3,-5.4592513E-3,-1.6843935E-2,2.6596484E-3,-4.956085E-3,-1.1292334E-2,-2.3077695E-2,4.363069E-3,-1.6084434E-3,1.709377E-2,2.6822796E-2,1.3222383E-2,1.891995E-2,-5.1281037E-4,9.739416E-3,-3.7840658E-3,1.5259547E-3],"categories":[],"categories_nodes":[],"categories_segments":[],"categories_sizes":[],"default_left":[0,0,0,0,0,0,0,0,0,0,0,0,0,0,0,0,0,0,0,0,0,0,0,0,0,0,0,0,0,0,0,0,0,0,0,0,0,0,0,0,0,0,0,0,0],"id":17,"left_children":[1,3,5,7,9,11,13,-1,15,17,19,21,-1,23,-1,25,27,29,31,33,35,37,39,41,43,-1,-1,-1,-1,-1,-1,-1,-1,-1,-1,-1,-1,-1,-1,-1,-1,-1,-1,-1,-1],"loss_changes":[4.279418E1,2.53377E1,6.8201313E0,1.2552824E1,3.788456E0,7.7246857E-1,2.8574948E0,0E0,5.1039305E0,7.6604223E-1,3.6240978E0,3.771248E-1,0E0,9.869144E-1,0E0,4.8468208E-1,9.348409E-1,1.9611764E0,5.8004963E-1,4.3942223E0,1.3422425E-1,3.737955E-1,4.0226936E-1,7.76423E-1,1.2260045E-1,0E0,0E0,0E0,0E0,0E0,0E0,0E0,0E0,0E0,0E0,0E0,0E0,0E0,0E0,0E0,0E0,0E0,0E0,0E0,0E0],"parents":[2147483647,0,0,1,1,2,2,3,3,4,4,5,5,6,6,8,8,9,9,10,10,11,11,13,13,15,15,16,16,17,17,18,18,19,19,20,20,21,21,22,22,23,23,24,24],"right_children":[2,4,6,8,10,12,14,-1,16,18,20,22,-1,24,-1,26,28,30,32,34,36,38,40,42,44,-1,-1,-1,-1,-1,-1,-1,-1,-1,-1,-1,-1,-1,-1,-1,-1,-1,-1,-1,-1],"split_conditions":[8.348259E-1,-1.033007E0,1.352795E0,-2.0375524E0,-2.7959266E-1,1.3057077E0,1.588236E0,-3.153419E-2,-1.5038888E0,-5.4642653E-1,7.4065125E-1,9.7609216E-1,2.6215399E-2,1.5097556E0,-3.108315E-2,-1.8805918E0,-1.237055E0,-6.562998E-1,-4.8364493E-1,4.581187E-1,8.034329E-1,9.4469917E-1,1.1958344E0,1.384188E0,1.5411487E0,2.7415529E-2,1.710113E-2,1.5627993E-3,8.383978E-3,-5.4592513E-3,-1.6843935E-2,2.6596484E-3,-4.956085E-3,-1.1292334E-2,-2.3077695E-2,4.363069E-3,-1.6084434E-3,1.709377E-2,2.6822796E-2,1.3222383E-2,1.891995E-2,-5.1281037E-4,9.739416E-3,-3.7840658E-3,1.5259547E-3],"split_indices":[0,0,0,0,0,0,0,0,0,0,0,0,0,0,0,0,0,0,0,0,0,0,0,0,0,0,0,0,0,0,0,0,0,0,0,0,0,0,0,0,0,0,0,0,0],"split_type":[0,0,0,0,0,0,0,0,0,0,0,0,0,0,0,0,0,0,0,0,0,0,0,0,0,0,0,0,0,0,0,0,0,0,0,0,0,0,0,0,0,0,0,0,0],"sum_hessian":[1.6109172E3,1.1477202E3,4.6319702E2,3.0671375E2,8.410065E2,2.9309506E2,1.7010196E2,1.900455E1,2.8770917E2,3.7263846E2,4.68368E2,2.696765E2,2.3418533E1,1.6562253E2,4.4794283E0,8.659729E1,2.011119E2,2.1540497E2,1.572335E2,4.310645E2,3.730347E1,7.937469E1,1.9030185E2,1.2378446E2,4.183806E1,1.80195E1,6.857779E1,9.943833E1,1.0167356E2,1.667169E2,4.868806E1,3.0402205E1,1.2683129E2,3.2509302E2,1.05971504E2,2.2146807E1,1.5156665E1,6.273311E1,1.6641577E1,1.3978497E2,5.0516876E1,2.2413586E1,1.0137088E2,1.9332703E1,2.2505358E1],"tree_param":{"num_deleted":"0","num_feature":"2","num_nodes":"45","size_leaf_vector":"1"}},{"base_weights":[1.2042904E-2,-8.166246E-2,2.2571185E-1,8.686488E-2,-1.984084E-1,3.0411643E-1,6.3729115E-2,-2.8338674E-2,1.149545E-1,-1.6904661E-1,-3.2882518E-1,2.4939476E-1,4.6088257E-1,-5.661456E-3,7.902642E-2,3.5017467E-1,5.8803994E-2,-1.944032E-1,-2.2790954E-2,-2.7847323E-1,-4.4558555E-1,3.4371158E-1,1.463705E-1,3.4378882E-2,1.8740084E-2,1.1657101E-1,1.5774937E-2,1.1065732E-2,2.8662516E-2,-9.105864E-3,3.2897901E-3,-1.5512343E-2,-8.558377E-3,2.6413302E-3,-3.8001582E-3,-1.8569468E-2,-1.2711525E-2,-2.5505258E-2,-8.48158E-4,7.661883E-3,1.7543815E-2,8.93798E-3,-1.4081271E-4,1.9958122E-3,7.381864E-3,1.986333E-5,1.3683221E-2],"categories":[],"categories_nodes":[],"categories_segments":[],"categories_sizes":[],"default_left":[0,0,0,0,0,0,0,0,0,0,0,0,0,0,0,0,0,0,0,0,0,0,0,0,0,0,0,0,0,0,0,0,0,0,0,0,0,0,0,0,0,0,0,0,0,0,0],"id":18,"left_children":[1,3,5,7,9,11,13,-1,15,17,19,21,23,-1,25,27,29,31,33,35,37,39,41,-1,-1,43,45,-1,-1,-1,-1,-1,-1,-1,-1,-1,-1,-1,-1,-1,-1,-1,-1,-1,-1,-1,-1],"loss_changes":[3.269742E1,2.235448E1,6.3033047E0,8.608562E0,2.5138626E0,2.7605839E0,4.5192134E-1,0E0,5.8829274E0,2.0343552E0,5.946312E-1,2.3852196E0,1.4117813E0,0E0,3.5724562E-1,2.3433895E0,6.2182856E-1,1.2076683E0,3.3542E-1,1.03987694E-1,9.63902E-1,1.2379551E-1,5.8776903E-1,0E0,0E0,2.1969545E-1,2.2783828E-1,0E0,0E0,0E0,0E0,0E0,0E0,0E0,0E0,0E0,0E0,0E0,0E0,0E0,0E0,0E0,0E0,0E0,0E0,0E0,0E0],"parents":[2147483647,0,0,1,1,2,2,3,3,4,4,5,5,6,6,8,8,9,9,10,10,11,11,12,12,14,14,15,15,16,16,17,17,18,18,19,19,20,20,21,21,22,22,25,25,26,26],"right_children":[2,4,6,8,10,12,14,-1,16,18,20,22,24,-1,26,28,30,32,34,36,38,40,42,-1,-1,44,46,-1,-1,-1,-1,-1,-1,-1,-1,-1,-1,-1,-1,-1,-1,-1,-1,-1,-1,-1,-1],"split_conditions":[7.720399E-1,-6.7199415E-1,1.3684937E0,-2.1160326E0,4.424244E-1,1.1958344E0,1.384188E0,-2.8338674E-2,-1.5352775E0,2.2267778E-1,6.6217095E-1,1.0074809E0,1.2429217E0,-5.661456E-3,1.4940614E0,-1.6608495E0,-1.4881902E0,-5.1503354E-1,3.1685677E-1,4.7381738E-1,7.5634557E-1,7.8773856E-1,1.1644415E0,3.4378882E-2,1.8740084E-2,1.415581E0,1.6039346E0,1.1065732E-2,2.8662516E-2,-9.105864E-3,3.2897901E-3,-1.5512343E-2,-8.558377E-3,2.6413302E-3,-3.8001582E-3,-1.8569468E-2,-1.2711525E-2,-2.5505258E-2,-8.48158E-4,7.661883E-3,1.7543815E-2,8.93798E-3,-1.4081271E-4,1.9958122E-3,7.381864E-3,1.986333E-5,1.3683221E-2],"split_indices":[0,0,0,0,0,0,0,0,0,0,0,0,0,0,0,0,0,0,0,0,0,0,0,0,0,0,0,0,0,0,0,0,0,0,0,0,0,0,0,0,0,0,0,0,0,0,0],"split_type":[0,0,0,0,0,0,0,0,0,0,0,0,0,0,0,0,0,0,0,0,0,0,0,0,0,0,0,0,0,0,0,0,0,0,0,0,0,0,0,0,0,0,0,0,0,0,0],"sum_hessian":[1.6311599E3,1.1343181E3,4.968419E2,4.6431583E2,6.700022E2,3.3420096E2,1.6264091E2,1.8341291E1,4.4597455E2,5.4875323E2,1.21249016E2,2.4964821E2,8.455274E1,1.2431558E1,1.5020937E2,8.4935356E1,3.6103918E2,4.6739154E2,8.1361664E1,8.708103E1,3.4167988E1,1.2911217E2,1.2053604E2,2.1347168E1,6.3205578E1,9.373029E1,5.6479073E1,5.5099274E1,2.983608E1,9.4758625E0,3.5156332E2,7.602242E1,3.913691E2,3.3608845E1,4.775282E1,1.5055938E1,7.202509E1,2.953243E1,4.6355553E0,5.4921246E0,1.2362005E2,9.8872215E1,2.1663826E1,2.769034E1,6.603995E1,5.4245983E1,2.233089E0],"tree_param":{"num_deleted":"0","num_feature":"2","num_nodes":"47","size_leaf_vector":"1"}},{"base_weights":[-1.0657582E-3,1.1205147E-1,-2.0993544E-1,1.2175576E-3,1.4208275E-1,-1.388018E-1,-3.9111668E-1,-1.762602E-2,1.1236625E-3,1.6795838E-1,6.719587E-2,-1.2541206E-1,-1.9456153E-1,-3.7045407E-1,-5.7426948E-2,1.076118E-3,-2.8317596E-3,1.4442475E-1,2.4618392E-1,4.0249683E-2,1.2054293E-1,-1.7239037E-1,-9.263923E-2,-2.2687532E-1,-2.6161015E-2,-3.792122E-1,6.2208083E-3,5.4303627E-3,7.979427E-3,1.6233832E-2,7.513769E-3,3.7780178E-3,-1.2941435E-2,1.0544997E-2,3.27909E-3,-6.2731677E-3,-1.2572949E-2,-4.9368255E-3,6.692156E-3,-9.627057E-3,-1.8885812E-2,1.2041268E-2,-7.847666E-3,-1.792754E-2,-3.6649887E-2],"categories":[],"categories_nodes":[],"categories_segments":[],"categories_sizes":[],"default_left":[0,0,0,0,0,0,0,0,0,0,0,0,0,0,0,0,0,0,0,0,0,0,0,0,0,0,0,0,0,0,0,0,0,0,0,0,0,0,0,0,0,0,0,0,0],"id":19,"left_children":[1,3,5,7,9,11,13,15,-1,17,19,21,23,25,-1,-1,-1,27,29,31,33,35,37,39,41,43,-1,-1,-1,-1,-1,-1,-1,-1,-1,-1,-1,-1,-1,-1,-1,-1,-1,-1,-1],"loss_changes":[3.817201E1,3.4882317E0,7.2607784E0,9.029314E-2,1.5865841E0,2.8105116E-1,2.0702019E0,1.837627E-1,0E0,1.091423E0,3.019445E-1,4.962783E-1,4.152813E-1,7.2636986E-1,0E0,0E0,0E0,2.3958015E-1,1.0063372E0,1.5329041E0,3.393743E-1,4.714508E-1,2.868452E-1,2.6294398E-1,5.1243556E-1,8.6454964E-1,0E0,0E0,0E0,0E0,0E0,0E0,0E0,0E0,0E0,0E0,0E0,0E0,0E0,0E0,0E0,0E0,0E0,0E0,0E0],"parents":[2147483647,0,0,1,1,2,2,3,3,4,4,5,5,6,6,7,7,9,9,10,10,11,11,12,12,13,13,17,17,18,18,19,19,20,20,21,21,22,22,23,23,24,24,25,25],"right_children":[2,4,6,8,10,12,14,16,-1,18,20,22,24,26,-1,-1,-1,28,30,32,34,36,38,40,42,44,-1,-1,-1,-1,-1,-1,-1,-1,-1,-1,-1,-1,-1,-1,-1,-1,-1,-1,-1],"split_conditions":[4.533023E-2,-8.6814594E-1,1.6500857E0,-9.17523E-1,-3.4968647E-1,1.2550689E0,2.983267E0,-9.4221157E-1,1.1236625E-3,-5.4719484E-1,-1.0280104E-1,4.4034696E-1,1.57602E0,2.9092014E0,-5.7426948E-2,1.076118E-3,-2.8317596E-3,-7.940803E-1,-4.4844067E-1,-1.2748958E-1,-5.342395E-2,2.9221568E-1,1.2303804E0,1.5266429E0,1.6007086E0,2.7857587E0,6.2208083E-3,5.4303627E-3,7.979427E-3,1.6233832E-2,7.513769E-3,3.7780178E-3,-1.2941435E-2,1.0544997E-2,3.27909E-3,-6.2731677E-3,-1.2572949E-2,-4.9368255E-3,6.692156E-3,-9.627057E-3,-1.8885812E-2,1.2041268E-2,-7.847666E-3,-1.792754E-2,-3.6649887E-2],"split_indices":[1,1,1,1,1,1,1,1,0,1,1,1,1,1,0,0,0,1,1,1,1,1,1,1,1,1,0,0,0,0,0,0,0,0,0,0,0,0,0,0,0,0,0,0,0],"split_type":[0,0,0,0,0,0,0,0,0,0,0,0,0,0,0,0,0,0,0,0,0,0,0,0,0,0,0,0,0,0,0,0,0,0,0,0,0,0,0,0,0,0,0,0,0],"sum_hessian":[1.6136302E3,1.0470464E3,5.665838E2,2.2344334E2,8.236031E2,4.0811835E2,1.5846544E2,1.1853265E2,1.0491069E2,6.111796E2,2.1242346E2,3.3171246E2,7.640588E1,1.5570683E2,2.758609E0,5.9384502E1,5.9148148E1,4.720214E2,1.3915825E2,1.4230045E2,7.012302E1,1.3456282E2,1.9714964E2,6.3813663E1,1.2592223E1,1.5322873E2,2.4781024E0,1.428251E2,3.291963E2,7.521561E1,6.3942654E1,1.279423E2,1.4358143E1,2.5448315E1,4.4674706E1,8.606828E1,4.849454E1,1.9253044E2,4.619194E0,5.3836037E1,9.977625E0,3.8637888E0,8.728435E0,1.4667618E2,6.552559E0],"tree_param":{"num_deleted":"0","num_feature":"2","num_nodes":"45","size_leaf_vector":"1"}},{"base_weights":[1.6294155E-2,-8.907283E-2,2.5486496E-1,1.1570251E-1,-1.7416742E-1,3.1904024E-1,1.3237824E-1,-3.126342E-2,1.6462238E-1,-1.446381E-1,-3.5771585E-1,2.729442E-1,4.339975E-1,-6.648017E-2,1.610773E-1,3.521189E-1,5.879228E-2,-1.0415637E-1,-1.8779615E-1,-2.9395828E-2,-2.9947844E-1,3.4900752E-1,1.4160249E-1,3.861991E-1,5.204652E-1,2.2179303E-4,-6.1883694E-3,1.9066754E-1,-7.6334804E-2,1.5326898E-2,2.097815E-2,-1.7657502E-3,8.022508E-3,-6.385606E-3,-3.4623354E-4,-1.1309756E-2,-9.316506E-4,-5.0316597E-3,-1.6532443E-2,8.912437E-3,1.9407248E-2,3.6779926E-3,9.971524E-3,2.1740023E-2,1.0814706E-2,4.3496665E-2,2.0016383E-2,7.6818145E-3,1.12250205E-2,-5.429653E-3,9.79598E-4],"categories":[],"categories_nodes":[],"categories_segments":[],"categories_sizes":[],"default_left":[0,0,0,0,0,0,0,0,0,0,0,0,0,0,0,0,0,0,0,0,0,0,0,0,0,0,0,0,0,0,0,0,0,0,0,0,0,0,0,0,0,0,0,0,0,0,0,0,0,0,0],"id":20,"left_children":[1,3,5,7,9,11,13,-1,15,17,19,21,23,25,27,29,31,33,35,-1,37,39,41,43,45,-1,-1,47,49,-1,-1,-1,-1,-1,-1,-1,-1,-1,-1,-1,-1,-1,-1,-1,-1,-1,-1,-1,-1,-1,-1],"loss_changes":[4.065357E1,1.9569767E1,3.852188E0,1.2063049E1,4.2461567E0,1.6005211E0,9.925604E-1,0E0,6.1366625E0,1.1767702E0,1.2880783E0,2.2907143E0,1.7572975E-1,9.157281E-2,1.0727868E0,2.1494484E-1,1.9147227E0,8.135104E-1,2.1404867E0,0E0,5.195999E-1,9.175854E-1,3.2996738E-1,4.2270184E-1,8.9335823E-1,0E0,0E0,1.3367987E-1,5.599603E-2,0E0,0E0,0E0,0E0,0E0,0E0,0E0,0E0,0E0,0E0,0E0,0E0,0E0,0E0,0E0,0E0,0E0,0E0,0E0,0E0,0E0,0E0],"parents":[2147483647,0,0,1,1,2,2,3,3,4,4,5,5,6,6,8,8,9,9,10,10,11,11,12,12,13,13,14,14,15,15,16,16,17,17,18,18,20,20,21,21,22,22,23,23,24,24,27,27,28,28],"right_children":[2,4,6,8,10,12,14,-1,16,18,20,22,24,26,28,30,32,34,36,-1,38,40,42,44,46,-1,-1,48,50,-1,-1,-1,-1,-1,-1,-1,-1,-1,-1,-1,-1,-1,-1,-1,-1,-1,-1,-1,-1,-1,-1],"split_conditions":[7.720399E-1,-9.545267E-1,1.352795E0,-2.053251E0,4.581187E-1,1.1644415E0,1.384188E0,-3.126342E-2,-1.4254086E0,-2.7959266E-1,5.2090466E-1,1.0231795E0,1.2900134E0,1.3684937E0,1.5568429E0,-1.5980635E0,-1.142876E0,-3.7377164E-1,2.8546378E-1,-2.9395828E-2,5.5229765E-1,8.348259E-1,1.0859611E0,1.2586204E0,1.3057077E0,2.2179303E-4,-6.1883694E-3,1.4626683E0,1.588236E0,1.5326898E-2,2.097815E-2,-1.7657502E-3,8.022508E-3,-6.385606E-3,-3.4623354E-4,-1.1309756E-2,-9.316506E-4,-5.0316597E-3,-1.6532443E-2,8.912437E-3,1.9407248E-2,3.6779926E-3,9.971524E-3,2.1740023E-2,1.0814706E-2,4.3496665E-2,2.0016383E-2,7.6818145E-3,1.12250205E-2,-5.429653E-3,9.79598E-4],"split_indices":[0,0,0,0,0,0,0,0,0,0,0,0,0,0,0,0,0,0,0,0,0,0,0,0,0,0,0,0,0,0,0,0,0,0,0,0,0,0,0,0,0,0,0,0,0,0,0,0,0,0,0],"split_type":[0,0,0,0,0,0,0,0,0,0,0,0,0,0,0,0,0,0,0,0,0,0,0,0,0,0,0,0,0,0,0,0,0,0,0,0,0,0,0,0,0,0,0,0,0,0,0,0,0,0,0],"sum_hessian":[1.6153457E3,1.1209115E3,4.944342E2,3.2895065E2,7.919608E2,3.2339236E2,1.7104182E2,1.9643064E1,3.093076E2,6.837474E2,1.0821345E2,2.332408E2,9.015157E1,2.1405409E1,1.4963641E2,1.1075628E2,1.985513E2,3.5457425E2,3.2917313E2,2.001258E1,8.820087E1,1.4665305E2,8.6587746E1,6.1578186E1,2.8573387E1,9.977186E0,1.1428222E1,1.3322821E2,1.6408213E1,6.939914E1,4.1357136E1,1.03443565E2,9.510774E1,2.851735E2,6.9400764E1,2.6800137E2,6.1171764E1,1.2525495E1,7.567537E1,2.8380732E1,1.18272316E2,4.0824318E1,4.5763428E1,4.6669327E1,1.4908859E1,5.7131777E0,2.2860209E1,6.6253006E1,6.69752E1,1.2180211E1,4.2280025E0],"tree_param":{"num_deleted":"0","num_feature":"2","num_nodes":"51","size_leaf_vector":"1"}},{"base_weights":[1.3535366E-2,1.3597216E-1,-2.1084242E-1,6.772059E-2,1.5023686E-1,-1.3711634E-1,-4.24464E-1,7.7075446E-3,1.7780052E-2,1.7095077E-1,8.7613106E-2,-9.564394E-2,-1.8254346E-1,-3.9890143E-1,-5.9531074E-2,-1.1099402E-3,2.8815463E-3,1.4099443E-1,2.2982243E-1,1.0847322E-1,3.0591808E-2,-1.4397362E-1,5.5185426E-2,-3.029649E-1,-1.4707918E-1,-3.618455E-1,-5.7027656E-1,7.518594E-3,7.4165926E-4,1.3022537E-2,8.991582E-3,4.710712E-3,1.1886907E-2,-6.3028256E-3,3.6620926E-3,-8.713051E-3,-5.786029E-3,1.03321355E-2,-1.060687E-4,-2.632171E-2,-1.3102755E-2,-3.235743E-3,-8.175295E-3,-2.5773069E-2,-1.5705226E-2,-3.0858994E-2,3.7765373E-3],"categories":[],"categories_nodes":[],"categories_segments":[],"categories_sizes":[],"default_left":[0,0,0,0,0,0,0,0,0,0,0,0,0,0,0,0,0,0,0,0,0,0,0,0,0,0,0,0,0,0,0,0,0,0,0,0,0,0,0,0,0,0,0,0,0,0,0],"id":21,"left_children":[1,3,5,7,9,11,13,-1,15,17,19,21,23,25,-1,-1,-1,27,29,31,33,35,37,39,41,43,45,-1,-1,-1,-1,-1,-1,-1,-1,-1,-1,-1,-1,-1,-1,-1,-1,-1,-1,-1,-1],"loss_changes":[4.4437363E1,1.0086174E0,8.93585E0,7.859422E-1,1.1067142E0,7.8516006E-1,2.385334E0,0E0,1.8758008E-1,1.1116905E0,2.5477207E-1,1.6466839E0,8.1904316E-1,7.007046E-1,0E0,0E0,0E0,5.0949764E-1,2.857132E-1,2.69691E-1,4.0681925E-1,1.2575936E-1,4.8021305E-1,2.7400064E-1,2.0340061E-1,7.1943283E-1,7.63216E-1,0E0,0E0,0E0,0E0,0E0,0E0,0E0,0E0,0E0,0E0,0E0,0E0,0E0,0E0,0E0,0E0,0E0,0E0,0E0,0E0],"parents":[2147483647,0,0,1,1,2,2,3,3,4,4,5,5,6,6,8,8,9,9,10,10,11,11,12,12,13,13,17,17,18,18,19,19,20,20,21,21,22,22,23,23,24,24,25,25,26,26],"right_children":[2,4,6,8,10,12,14,-1,16,18,20,22,24,26,-1,-1,-1,28,30,32,34,36,38,40,42,44,46,-1,-1,-1,-1,-1,-1,-1,-1,-1,-1,-1,-1,-1,-1,-1,-1,-1,-1,-1,-1],"split_conditions":[2.0641685E-2,-8.928345E-1,1.7241513E0,-9.4221157E-1,-3.7437505E-1,7.3660946E-1,2.983267E0,7.7075446E-3,-9.17523E-1,-6.45949E-1,-1.0280104E-1,5.144126E-1,9.3411785E-1,2.6376274E0,-5.9531074E-2,-1.1099402E-3,2.8815463E-3,-6.7063755E-1,-4.9781775E-1,-1.2748958E-1,-7.81125E-2,2.4283859E-1,5.6378967E-1,7.61298E-1,1.0575606E0,1.8969711E0,2.9338899E0,7.518594E-3,7.4165926E-4,1.3022537E-2,8.991582E-3,4.710712E-3,1.1886907E-2,-6.3028256E-3,3.6620926E-3,-8.713051E-3,-5.786029E-3,1.03321355E-2,-1.060687E-4,-2.632171E-2,-1.3102755E-2,-3.235743E-3,-8.175295E-3,-2.5773069E-2,-1.5705226E-2,-3.0858994E-2,3.7765373E-3],"split_indices":[1,1,1,1,1,1,1,0,1,1,1,1,1,1,0,0,0,1,1,1,1,1,1,1,1,1,1,0,0,0,0,0,0,0,0,0,0,0,0,0,0,0,0,0,0,0,0],"split_type":[0,0,0,0,0,0,0,0,0,0,0,0,0,0,0,0,0,0,0,0,0,0,0,0,0,0,0,0,0,0,0,0,0,0,0,0,0,0,0,0,0,0,0,0,0,0,0],"sum_hessian":[1.6155018E3,1.0454321E3,5.7006964E2,1.8171883E2,8.637134E2,4.250249E2,1.4504471E2,6.5783325E1,1.159355E2,6.477341E2,2.1597931E2,2.2380705E2,2.0121785E2,1.4183316E2,3.2115548E0,5.809594E1,5.7839565E1,4.315423E2,2.1619174E2,1.5746977E2,5.850953E1,1.695305E2,5.4276554E1,4.406142E1,1.5715643E2,1.1917558E2,2.2657576E1,4.0150677E2,3.003553E1,1.3144696E2,8.474478E1,1.4338237E2,1.4087401E1,1.2102596E1,4.6406933E1,7.9325386E1,9.020512E1,1.4183856E1,4.0092697E1,4.981556E0,3.9079865E1,2.6952898E1,1.3020354E2,2.5933247E1,9.324234E1,2.1164762E1,1.4928132E0],"tree_param":{"num_deleted":"0","num_feature":"2","num_nodes":"47","size_leaf_vector":"1"}},{"base_weights":[-1.3029835E-2,-9.5869884E-2,1.9144022E-1,4.2002115E-2,-1.8573646E-1,2.8818265E-1,8.962282E-3,-3.249615E-2,7.616579E-2,-3.6311775E-1,-1.6590695E-1,4.8530075E-1,2.4984457E-1,4.9906716E-2,-3.0567595E-1,3.1146857E-1,4.742653E-2,-1.09140486E-1,-4.580293E-1,-5.9233118E-2,-2.0132422E-1,4.1563264E-1,5.813238E-1,2.0538461E-1,3.4092557E-1,-4.731911E-2,8.706554E-2,-1.0297136E-2,-2.4876073E-2,1.3567115E-2,2.2869425E-2,3.9589624E-3,2.3772E-4,-9.727922E-3,-9.726894E-4,-2.4571462E-2,-1.2950017E-2,-7.4547986E-3,-8.8736677E-4,-1.3300321E-2,-7.655311E-3,2.4275543E-2,1.1355707E-2,3.6637787E-2,1.7919982E-2,1.2232648E-2,1.1448584E-3,2.5273085E-2,1.5744211E-2,-6.7973332E-3,-2.2871108E-4,1.2352601E-2,1.4320286E-3],"categories":[],"categories_nodes":[],"categories_segments":[],"categories_sizes":[],"default_left":[0,0,0,0,0,0,0,0,0,0,0,0,0,0,0,0,0,0,0,0,0,0,0,0,0,0,0,0,0,0,0,0,0,0,0,0,0,0,0,0,0,0,0,0,0,0,0,0,0,0,0,0,0],"id":22,"left_children":[1,3,5,7,9,11,13,-1,15,17,19,21,23,25,27,29,31,33,35,37,39,41,43,45,47,49,51,-1,-1,-1,-1,-1,-1,-1,-1,-1,-1,-1,-1,-1,-1,-1,-1,-1,-1,-1,-1,-1,-1,-1,-1,-1,-1],"loss_changes":[2.730944E1,1.4223105E1,8.204327E0,1.0770836E1,2.3835049E0,2.174511E0,2.1036003E0,0E0,2.914068E0,1.6136923E0,2.3559818E0,8.21867E-2,9.6819496E-1,5.2544117E-1,2.5736713E-1,1.5085793E-1,5.2418643E-1,1.5010777E-1,2.0462513E-1,5.850333E-1,1.4254665E0,3.0547762E-1,3.3973837E-1,1.2470164E0,1.9468784E-1,1.5298918E-1,9.7204864E-1,0E0,0E0,0E0,0E0,0E0,0E0,0E0,0E0,0E0,0E0,0E0,0E0,0E0,0E0,0E0,0E0,0E0,0E0,0E0,0E0,0E0,0E0,0E0,0E0,0E0,0E0],"parents":[2147483647,0,0,1,1,2,2,3,3,4,4,5,5,6,6,8,8,9,9,10,10,11,11,12,12,13,13,14,14,15,15,16,16,17,17,18,18,19,19,20,20,21,21,22,22,23,23,24,24,25,25,26,26],"right_children":[2,4,6,8,10,12,14,-1,16,18,20,22,24,26,28,30,32,34,36,38,40,42,44,46,48,50,52,-1,-1,-1,-1,-1,-1,-1,-1,-1,-1,-1,-1,-1,-1,-1,-1,-1,-1,-1,-1,-1,-1,-1,-1,-1,-1],"split_conditions":[8.348259E-1,-6.876928E-1,1.3684937E0,-2.053251E0,-5.4642653E-1,9.133062E-1,1.5568429E0,-3.249615E-2,-1.6922381E0,-6.562998E-1,-2.9529133E-1,8.819132E-1,1.1958344E0,1.415581E0,1.588236E0,-1.7550241E0,-1.0643957E0,-6.7199415E-1,-5.6212527E-1,-4.5225194E-1,1.1280885E-1,8.6621886E-1,8.9761186E-1,1.1487471E0,1.2115331E0,1.384188E0,1.446974E0,-1.0297136E-2,-2.4876073E-2,1.3567115E-2,2.2869425E-2,3.9589624E-3,2.3772E-4,-9.727922E-3,-9.726894E-4,-2.4571462E-2,-1.2950017E-2,-7.4547986E-3,-8.8736677E-4,-1.3300321E-2,-7.655311E-3,2.4275543E-2,1.1355707E-2,3.6637787E-2,1.7919982E-2,1.2232648E-2,1.1448584E-3,2.5273085E-2,1.5744211E-2,-6.7973332E-3,-2.2871108E-4,1.2352601E-2,1.4320286E-3],"split_indices":[0,0,0,0,0,0,0,0,0,0,0,0,0,0,0,0,0,0,0,0,0,0,0,0,0,0,0,0,0,0,0,0,0,0,0,0,0,0,0,0,0,0,0,0,0,0,0,0,0,0,0,0,0],"split_type":[0,0,0,0,0,0,0,0,0,0,0,0,0,0,0,0,0,0,0,0,0,0,0,0,0,0,0,0,0,0,0,0,0,0,0,0,0,0,0,0,0,0,0,0,0,0,0,0,0,0,0,0,0],"sum_hessian":[1.610205E3,1.146313E3,4.63892E2,4.5254996E2,6.93763E2,3.0278717E2,1.6110481E2,2.0445173E1,4.3210477E2,6.801703E1,6.25746E2,4.7402966E1,2.5538422E2,1.4329851E2,1.7806305E1,4.5961025E1,3.8614374E2,1.9088184E1,4.8928844E1,1.5663803E2,4.6910794E2,3.0559458E1,1.6843506E1,1.7380074E2,8.158348E1,3.9548E1,1.037505E2,1.3079993E1,4.7263117E0,3.829099E1,7.670039E0,2.2090831E2,1.6523543E2,9.177852E0,9.910333E0,4.0639763E1,8.28908E0,4.8654037E1,1.0798399E2,1.984201E2,2.7068784E2,2.1145897E1,9.413561E0,8.6682E0,8.175305E0,1.4274391E2,3.1056831E1,8.632312E0,7.2951164E1,1.2158357E1,2.7389643E1,2.6889585E1,7.6860916E1],"tree_param":{"num_deleted":"0","num_feature":"2","num_nodes":"53","size_leaf_vector":"1"}},{"base_weights":[-6.897892E-4,8.237691E-2,-2.9031435E-1,1.1473976E-1,-6.279521E-2,-2.4340416E-1,-6.154348E-1,7.7400915E-2,1.5612112E-1,-1.3237412E-1,8.138051E-2,-1.4823921E-1,-3.282922E-1,-5.535088E-1,-5.6369513E-2,3.0572258E-2,1.0064107E-1,1.7389396E-1,9.738951E-2,-1.8799931E-1,-6.209432E-2,1.15606606E-1,-1.4169243E-2,-2.6372856E-1,-1.1038807E-1,-3.6830124E-1,-5.6018524E-2,-5.9823155E-1,-9.395326E-3,2.2038901E-3,1.1391089E-3,7.6106987E-3,4.599295E-3,8.038311E-3,1.3452105E-2,5.8474806E-3,2.4722968E-3,-2.4984297E-3,-1.3644553E-2,8.648845E-3,-4.7294805E-3,3.831651E-3,1.0080804E-2,-1.8751884E-3,1.6453976E-3,-9.748216E-3,-1.4681167E-2,-1.574154E-3,-7.489707E-3,-1.5953928E-2,-2.1902358E-2,-5.8432003E-3,9.390405E-3,-2.5833873E-2,-3.9714303E-2,-5.86187E-3,3.713899E-3],"categories":[],"categories_nodes":[],"categories_segments":[],"categories_sizes":[],"default_left":[0,0,0,0,0,0,0,0,0,0,0,0,0,0,0,0,0,0,0,0,0,0,0,0,0,0,0,0,0,0,0,0,0,0,0,0,0,0,0,0,0,0,0,0,0,0,0,0,0,0,0,0,0,0,0,0,0],"id":23,"left_children":[1,3,5,7,9,11,13,15,17,19,21,23,25,27,-1,29,31,33,35,37,39,41,43,45,47,49,51,53,55,-1,-1,-1,-1,-1,-1,-1,-1,-1,-1,-1,-1,-1,-1,-1,-1,-1,-1,-1,-1,-1,-1,-1,-1,-1,-1,-1,-1],"loss_changes":[3.9181698E1,5.9534025E0,5.3863716E0,1.5875578E0,2.3316748E0,2.5273342E0,8.063183E-1,5.9136057E-1,4.946165E-1,5.998647E-1,2.4994731E-1,6.360464E-1,1.8063602E0,1.0215893E0,0E0,1.8206954E-2,1.4874816E-1,4.2508984E-1,1.0311496E-1,1.0037625E0,5.556906E-1,1.7231065E-1,2.421054E-2,1.8485785E-2,3.5696518E-1,3.6162567E-1,3.5822603E-1,2.13027E-1,4.6805706E-2,0E0,0E0,0E0,0E0,0E0,0E0,0E0,0E0,0E0,0E0,0E0,0E0,0E0,0E0,0E0,0E0,0E0,0E0,0E0,0E0,0E0,0E0,0E0,0E0,0E0,0E0,0E0,0E0],"parents":[2147483647,0,0,1,1,2,2,3,3,4,4,5,5,6,6,7,7,8,8,9,9,10,10,11,11,12,12,13,13,15,15,16,16,17,17,18,18,19,19,20,20,21,21,22,22,23,23,24,24,25,25,26,26,27,27,28,28],"right_children":[2,4,6,8,10,12,14,16,18,20,22,24,26,28,-1,30,32,34,36,38,40,42,44,46,48,50,52,54,56,-1,-1,-1,-1,-1,-1,-1,-1,-1,-1,-1,-1,-1,-1,-1,-1,-1,-1,-1,-1,-1,-1,-1,-1,-1,-1,-1,-1],"split_conditions":[6.6254383E-1,-4.0468606E-3,2.4648075E0,-6.953261E-1,4.156584E-1,1.3785117E0,2.983267E0,-8.928345E-1,-2.2624376E-1,2.1815005E-1,5.884782E-1,8.1067514E-1,2.2672992E0,2.9092014E0,-5.6369513E-2,-9.4221157E-1,-8.6814594E-1,-3.003094E-1,-7.81125E-2,7.0018776E-2,2.4283859E-1,5.391011E-1,6.378553E-1,7.119209E-1,9.8349494E-1,1.8722825E0,2.4154305E0,2.7610703E0,2.9338899E0,2.2038901E-3,1.1391089E-3,7.6106987E-3,4.599295E-3,8.038311E-3,1.3452105E-2,5.8474806E-3,2.4722968E-3,-2.4984297E-3,-1.3644553E-2,8.648845E-3,-4.7294805E-3,3.831651E-3,1.0080804E-2,-1.8751884E-3,1.6453976E-3,-9.748216E-3,-1.4681167E-2,-1.574154E-3,-7.489707E-3,-1.5953928E-2,-2.1902358E-2,-5.8432003E-3,9.390405E-3,-2.5833873E-2,-3.9714303E-2,-5.86187E-3,3.713899E-3],"split_indices":[1,1,1,1,1,1,1,1,1,1,1,1,1,1,0,1,1,1,1,1,1,1,1,1,1,1,1,1,1,0,0,0,0,0,0,0,0,0,0,0,0,0,0,0,0,0,0,0,0,0,0,0,0,0,0,0,0],"split_type":[0,0,0,0,0,0,0,0,0,0,0,0,0,0,0,0,0,0,0,0,0,0,0,0,0,0,0,0,0,0,0,0,0,0,0,0,0,0,0,0,0,0,0,0,0,0,0,0,0,0,0,0,0,0,0,0,0],"sum_hessian":[1.6266304E3,1.2646376E3,3.6199286E2,1.0342782E3,2.3035938E2,3.1787653E2,4.4116318E1,5.452046E2,4.8907355E2,1.554307E2,7.492869E1,1.5116129E2,1.6671526E2,4.121244E1,2.903877E0,1.8159933E2,3.6360526E2,3.73951E2,1.1512257E2,8.582597E1,6.960472E1,5.5013012E1,1.9915674E1,3.584017E1,1.15321106E2,1.4504852E2,2.1666735E1,3.7990402E1,3.2220354E0,6.4726234E1,1.1687311E2,4.986885E1,3.137364E2,3.309755E2,4.297551E1,8.074198E1,3.4380577E1,3.32886E1,5.2537373E1,7.9282866E0,6.1676437E1,3.9159565E1,1.5853444E1,1.345156E1,6.4641137E0,1.3139119E1,2.2701054E1,3.9009377E1,7.631173E1,8.830369E1,5.674483E1,1.7756432E1,3.910303E0,2.9397217E1,8.593188E0,1.2324561E0,1.9895794E0],"tree_param":{"num_deleted":"0","num_feature":"2","num_nodes":"57","size_leaf_vector":"1"}},{"base_weights":[-9.154945E-3,1.0088643E-1,-2.1075122E-1,4.5427762E-2,1.204353E-1,-1.513274E-1,-4.0435088E-1,7.0059896E-2,1.1272093E-3,1.3726307E-1,7.706991E-2,-1.6379665E-1,-1.17749974E-1,-3.7658224E-1,-5.7362743E-2,1.1852579E-3,9.453413E-2,-1.1037678E-3,1.3176749E-3,1.11169666E-1,2.3414752E-1,-1.143317E-3,8.542028E-2,-1.4567265E-1,-2.8571108E-1,3.579718E-2,-1.6748711E-1,-2.3600975E-2,-3.1084222E-1,6.8108463E-3,2.487839E-3,7.494211E-3,4.1757966E-3,1.2867431E-2,7.955822E-3,5.8014E-3,3.3872859E-3,-7.5268745E-3,3.6144543E-3,-1.8102212E-2,-1.14053385E-2,-8.9208384E-5,1.0278079E-2,-9.083844E-3,-3.3617602E-3,-9.379617E-3,-1.8854063E-2],"categories":[],"categories_nodes":[],"categories_segments":[],"categories_sizes":[],"default_left":[0,0,0,0,0,0,0,0,0,0,0,0,0,0,0,0,0,0,0,0,0,0,0,0,0,0,0,0,0,0,0,0,0,0,0,0,0,0,0,0,0,0,0,0,0,0,0],"id":24,"left_children":[1,3,5,7,9,11,13,15,17,19,21,23,25,27,-1,-1,29,-1,-1,31,33,-1,35,37,39,41,43,-1,45,-1,-1,-1,-1,-1,-1,-1,-1,-1,-1,-1,-1,-1,-1,-1,-1,-1,-1],"loss_changes":[3.574107E1,1.1245232E0,6.4835014E0,2.9809672E-1,5.513458E-1,1.6362572E-1,2.3118286E0,1.9696772E-1,5.8328122E-2,1.373189E0,1.8350184E-1,6.56641E-1,9.366524E-1,6.670399E-1,0E0,0E0,2.0708585E-1,0E0,0E0,4.5634747E-1,1.6191244E-1,0E0,1.0086942E-1,3.0476427E-1,9.267998E-2,1.9584616E-1,1.189754E-1,0E0,5.801687E-1,0E0,0E0,0E0,0E0,0E0,0E0,0E0,0E0,0E0,0E0,0E0,0E0,0E0,0E0,0E0,0E0,0E0,0E0],"parents":[2147483647,0,0,1,1,2,2,3,3,4,4,5,5,6,6,7,7,8,8,9,9,10,10,11,11,12,12,13,13,16,16,19,19,20,20,22,22,23,23,24,24,25,25,26,26,28,28],"right_children":[2,4,6,8,10,12,14,16,18,20,22,24,26,28,-1,-1,30,-1,-1,32,34,-1,36,38,40,42,44,-1,46,-1,-1,-1,-1,-1,-1,-1,-1,-1,-1,-1,-1,-1,-1,-1,-1,-1,-1],"split_conditions":[4.533023E-2,-8.434574E-1,1.8229054E0,-8.928345E-1,-3.4968647E-1,1.1810033E0,2.983267E0,-9.4221157E-1,-8.6814594E-1,-5.225063E-1,-3.2499793E-1,9.8349494E-1,1.3291346E0,2.168545E0,-5.7362743E-2,1.1852579E-3,-9.17523E-1,-1.1037678E-3,1.3176749E-3,-7.4470323E-1,-3.990636E-1,-1.143317E-3,-2.0155522E-1,9.588064E-1,1.0575606E0,1.304446E0,1.7488399E0,-2.3600975E-2,2.390742E0,6.8108463E-3,2.487839E-3,7.494211E-3,4.1757966E-3,1.2867431E-2,7.955822E-3,5.8014E-3,3.3872859E-3,-7.5268745E-3,3.6144543E-3,-1.8102212E-2,-1.14053385E-2,-8.9208384E-5,1.0278079E-2,-9.083844E-3,-3.3617602E-3,-9.379617E-3,-1.8854063E-2],"split_indices":[1,1,1,1,1,1,1,1,1,1,1,1,1,1,0,0,1,0,0,1,1,0,1,1,1,1,1,0,1,0,0,0,0,0,0,0,0,0,0,0,0,0,0,0,0,0,0],"split_type":[0,0,0,0,0,0,0,0,0,0,0,0,0,0,0,0,0,0,0,0,0,0,0,0,0,0,0,0,0,0,0,0,0,0,0,0,0,0,0,0,0,0,0,0,0,0,0],"sum_hessian":[1.6091659E3,1.0412816E3,5.678843E2,2.722507E2,7.6903094E2,4.3587704E2,1.320072E2,1.7459204E2,9.7658676E1,5.524784E2,2.1655255E2,3.1501544E2,1.2086162E2,1.2870337E2,3.3038359E0,6.100874E1,1.135833E2,5.093486E1,4.6723816E1,4.3694543E2,1.1553293E2,1.6565094E1,1.9998746E2,2.7615643E2,3.8858994E1,2.963953E1,9.122209E1,4.9974033E1,7.872933E1,5.7766727E1,5.581657E1,1.8022075E2,2.567247E2,8.638963E1,2.9143297E1,7.117181E1,1.2881566E2,2.7042987E2,5.7265687E0,1.4439613E1,2.441938E1,2.507752E1,4.5620103E0,7.919986E1,1.2022229E1,2.886071E1,4.986862E1],"tree_param":{"num_deleted":"0","num_feature":"2","num_nodes":"47","size_leaf_vector":"1"}},{"base_weights":[-5.9765587E-3,-1.0839559E-1,2.2482993E-1,4.5094736E-2,-2.0953763E-1,3.3505058E-1,1.9221708E-1,-6.083641E-1,7.5213134E-2,-1.855249E-1,-5.729078E-1,1.5600866E-1,3.756329E-1,2.1435596E-1,1.0797705E-1,-1.2794261E-2,-3.3272468E-2,3.0970833E-1,2.1262493E-2,-1.2876634E-1,-2.1704525E-1,-2.979644E-2,-1.3067628E-2,5.731871E-3,1.0266386E-2,3.4646577E-1,2.9266914E-2,1.636074E-1,2.5650203E-1,-3.4277362E-3,1.5286101E-1,1.0814133E-2,2.2512678E-2,3.37707E-3,-2.0588257E-3,-1.0111097E-2,-3.171496E-3,-1.5374631E-2,-8.264044E-3,1.81731E-2,9.511496E-3,9.161941E-3,2.4188366E-3,1.7546972E-2,8.700473E-3,6.378794E-5,-3.8021037E-4,8.104063E-3,-2.7410856E-3],"categories":[],"categories_nodes":[],"categories_segments":[],"categories_sizes":[],"default_left":[0,0,0,0,0,0,0,0,0,0,0,0,0,0,0,0,0,0,0,0,0,0,0,0,0,0,0,0,0,0,0,0,0,0,0,0,0,0,0,0,0,0,0,0,0,0,0,0,0],"id":25,"left_children":[1,3,5,7,9,11,13,15,17,19,21,23,25,27,29,-1,-1,31,33,35,37,-1,-1,-1,-1,39,-1,41,43,45,47,-1,-1,-1,-1,-1,-1,-1,-1,-1,-1,-1,-1,-1,-1,-1,-1,-1,-1],"loss_changes":[3.8152416E1,1.7363487E1,1.7187748E0,8.8008375E0,5.7748356E0,7.546072E-1,6.951523E-1,2.2631216E-1,5.3845387E0,1.1057987E0,1.4047813E-1,2.214843E-2,3.509245E-1,6.08202E-1,4.1139668E-1,0E0,0E0,9.4820833E-1,1.0069375E0,1.0849164E0,1.8499775E0,0E0,0E0,0E0,0E0,1.4840794E-1,0E0,3.0936456E-1,1.2189217E0,4.924742E-4,1.21085405E-1,0E0,0E0,0E0,0E0,0E0,0E0,0E0,0E0,0E0,0E0,0E0,0E0,0E0,0E0,0E0,0E0,0E0,0E0],"parents":[2147483647,0,0,1,1,2,2,3,3,4,4,5,5,6,6,7,7,8,8,9,9,10,10,11,11,12,12,13,13,14,14,17,17,18,18,19,19,20,20,25,25,27,27,28,28,29,29,30,30],"right_children":[2,4,6,8,10,12,14,16,18,20,22,24,26,28,30,-1,-1,32,34,36,38,-1,-1,-1,-1,40,-1,42,44,46,48,-1,-1,-1,-1,-1,-1,-1,-1,-1,-1,-1,-1,-1,-1,-1,-1,-1,-1],"split_conditions":[7.720399E-1,-7.0338714E-1,9.7609216E-1,-2.053251E0,6.464723E-1,8.1913155E-1,1.4626683E0,-2.2102115E0,-1.5509762E0,-2.9529133E-1,7.5634557E-1,8.034329E-1,9.603935E-1,1.1958344E0,1.4940614E0,-1.2794261E-2,-3.3272468E-2,-1.6765438E0,-1.0487014E0,-4.8364493E-1,2.9355583E-3,-2.979644E-2,-1.3067628E-2,5.731871E-3,1.0266386E-2,9.4469917E-1,2.9266914E-2,1.1644415E0,1.352795E0,1.4783627E0,1.6039346E0,1.0814133E-2,2.2512678E-2,3.37707E-3,-2.0588257E-3,-1.0111097E-2,-3.171496E-3,-1.5374631E-2,-8.264044E-3,1.81731E-2,9.511496E-3,9.161941E-3,2.4188366E-3,1.7546972E-2,8.700473E-3,6.378794E-5,-3.8021037E-4,8.104063E-3,-2.7410856E-3],"split_indices":[0,0,0,0,0,0,0,0,0,0,0,0,0,0,0,0,0,0,0,0,0,0,0,0,0,0,0,0,0,0,0,0,0,0,0,0,0,0,0,0,0,0,0,0,0,0,0,0,0],"split_type":[0,0,0,0,0,0,0,0,0,0,0,0,0,0,0,0,0,0,0,0,0,0,0,0,0,0,0,0,0,0,0,0,0,0,0,0,0,0,0,0,0,0,0,0,0,0,0,0,0],"sum_hessian":[1.6119314E3,1.1168612E3,4.9507028E2,4.438464E2,6.730148E2,1.109208E2,3.8414948E2,1.8709951E1,4.2513644E2,6.327135E2,4.0301277E1,2.1391146E1,8.9529655E1,3.029797E2,8.116977E1,3.3719556E0,1.5337996E1,7.863045E1,3.46506E2,2.2772867E2,4.049848E2,3.667834E1,3.6229365E0,1.3440774E1,7.950372E0,8.09261E1,8.603556E0,1.3967612E2,1.6330359E2,2.3576088E1,5.7593678E1,4.8758034E1,2.9872414E1,1.9895883E2,1.4754718E2,1.06217125E2,1.2151154E2,1.4561426E2,2.5937054E2,7.179001E1,9.136087E0,1.18839676E2,2.083644E1,7.462211E1,8.868149E1,1.1415084E1,1.2161003E1,5.5355694E1,2.2379827E0],"tree_param":{"num_deleted":"0","num_feature":"2","num_nodes":"49","size_leaf_vector":"1"}},{"base_weights":[-2.332032E-3,9.781343E-2,-1.7391726E-1,4.510386E-2,1.3424587E-1,-9.9593356E-2,-3.7064782E-1,2.0943103E-2,6.259119E-2,9.136861E-3,1.2630284E-1,-1.8067782E-1,-5.946319E-2,-3.5434183E-1,-5.168135E-2,3.5769552E-2,-5.393172E-4,7.0601255E-3,4.0918108E-2,7.195307E-2,1.3983245E-1,-9.467309E-2,-2.301716E-1,-2.0401742E-2,-1.8035844E-1,-3.6276495E-1,1.3096297E-2,2.1743844E-3,1.3646396E-3,2.4950595E-3,1.540533E-3,2.8136182E-3,3.978379E-3,8.750501E-3,5.4959264E-3,-7.799895E-3,-3.7536148E-3,-1.3725576E-2,-9.897209E-3,1.175361E-2,-1.5768886E-3,-1.2117073E-2,-3.8922846E-3,-1.9495776E-2,-1.1780403E-2],"categories":[],"categories_nodes":[],"categories_segments":[],"categories_sizes":[],"default_left":[0,0,0,0,0,0,0,0,0,0,0,0,0,0,0,0,0,0,0,0,0,0,0,0,0,0,0,0,0,0,0,0,0,0,0,0,0,0,0,0,0,0,0,0,0],"id":26,"left_children":[1,3,5,7,9,11,13,15,17,-1,19,21,23,25,-1,27,-1,-1,29,31,33,35,37,39,41,43,-1,-1,-1,-1,-1,-1,-1,-1,-1,-1,-1,-1,-1,-1,-1,-1,-1,-1,-1],"loss_changes":[2.7686014E1,1.9477196E0,8.64546E0,1.7501128E-1,2.0844078E-1,1.3960738E0,1.3899536E0,8.352574E-2,4.0583694E-1,0E0,3.7210846E-1,5.854025E-1,1.3691032E0,9.259529E-1,0E0,6.7085177E-3,0E0,0E0,1.5785396E-2,8.137286E-3,4.1754532E-1,5.2960426E-2,7.404232E-2,6.356908E-1,4.3139148E-1,4.5477104E-1,0E0,0E0,0E0,0E0,0E0,0E0,0E0,0E0,0E0,0E0,0E0,0E0,0E0,0E0,0E0,0E0,0E0,0E0,0E0],"parents":[2147483647,0,0,1,1,2,2,3,3,4,4,5,5,6,6,7,7,8,8,10,10,11,11,12,12,13,13,15,15,18,18,19,19,20,20,21,21,22,22,23,23,24,24,25,25],"right_children":[2,4,6,8,10,12,14,16,18,-1,20,22,24,26,-1,28,-1,-1,30,32,34,36,38,40,42,44,-1,-1,-1,-1,-1,-1,-1,-1,-1,-1,-1,-1,-1,-1,-1,-1,-1,-1,-1],"split_conditions":[-2.8735405E-2,-7.693918E-1,1.6500857E0,-8.928345E-1,-7.2001463E-1,3.662813E-1,2.983267E0,-9.17523E-1,-8.6814594E-1,9.136861E-3,-6.45949E-1,9.470732E-2,1.2797575E0,2.9338899E0,-5.168135E-2,-9.4221157E-1,-5.393172E-4,7.0601255E-3,-8.1876886E-1,-6.953261E-1,-4.2375213E-1,-4.0468606E-3,1.934615E-1,3.9096984E-1,1.5019543E0,2.563562E0,1.3096297E-2,2.1743844E-3,1.3646396E-3,2.4950595E-3,1.540533E-3,2.8136182E-3,3.978379E-3,8.750501E-3,5.4959264E-3,-7.799895E-3,-3.7536148E-3,-1.3725576E-2,-9.897209E-3,1.175361E-2,-1.5768886E-3,-1.2117073E-2,-3.8922846E-3,-1.9495776E-2,-1.1780403E-2],"split_indices":[1,1,1,1,1,1,1,1,1,0,1,1,1,1,0,1,0,0,1,1,1,1,1,1,1,1,0,0,0,0,0,0,0,0,0,0,0,0,0,0,0,0,0,0,0],"split_type":[0,0,0,0,0,0,0,0,0,0,0,0,0,0,0,0,0,0,0,0,0,0,0,0,0,0,0,0,0,0,0,0,0,0,0,0,0,0,0,0,0,0,0,0,0],"sum_hessian":[1.6092092E3,1.01641187E3,5.927973E2,4.163234E2,6.000885E2,4.3134378E2,1.6145349E2,1.757299E2,2.4059348E2,8.136404E1,5.187245E2,1.4164423E2,2.896996E2,1.5907549E2,2.3779988E0,1.1967921E2,5.6050694E1,5.0804237E1,1.8978925E2,1.0465073E2,4.1407373E2,5.280262E1,8.88416E1,2.1983824E2,6.9861336E1,1.5733638E2,1.7391156E0,6.048083E1,5.919837E1,9.839913E1,9.1390114E1,3.6949665E1,6.7701065E1,1.8806569E2,2.2600806E2,1.1103732E1,4.1698887E1,3.422938E1,5.461222E1,8.342482E0,2.1149576E2,4.2687103E1,2.7174229E1,1.2795007E2,2.9386305E1],"tree_param":{"num_deleted":"0","num_feature":"2","num_nodes":"45","size_leaf_vector":"1"}},{"base_weights":[-4.633208E-3,-9.420382E-2,1.9682984E-1,6.801149E-2,-1.6773725E-1,2.4646387E-1,9.8046415E-2,-5.5929E-1,1.05014764E-1,-1.4999413E-1,-3.3030754E-1,1.9897825E-1,3.8644955E-1,1.1190975E-1,-1.5927693E-2,-4.0724274E-2,-2.2129167E-2,2.5387523E-1,3.7360005E-2,-1.7545933E-1,-3.564604E-2,-3.1058043E-2,-2.9724866E-1,2.3494096E-1,9.981116E-2,2.5139896E-2,3.1601992E-1,-6.2900246E-3,1.3245617E-1,9.390977E-3,2.0376638E-2,2.8227454E-3,-6.6836824E-4,-5.9713423E-3,-1.3199764E-2,6.52961E-3,-7.4033714E-3,-1.0313567E-2,-1.9094821E-2,6.3557066E-3,1.2427833E-2,-4.249704E-3,7.902679E-3,3.309124E-3,2.0910412E-2,7.640255E-3,1.3168639E-3],"categories":[],"categories_nodes":[],"categories_segments":[],"categories_sizes":[],"default_left":[0,0,0,0,0,0,0,0,0,0,0,0,0,0,0,0,0,0,0,0,0,0,0,0,0,0,0,0,0,0,0,0,0,0,0,0,0,0,0,0,0,0,0,0,0,0,0],"id":27,"left_children":[1,3,5,7,9,11,13,15,17,19,21,23,25,27,-1,-1,-1,29,31,33,35,-1,37,39,41,-1,43,-1,45,-1,-1,-1,-1,-1,-1,-1,-1,-1,-1,-1,-1,-1,-1,-1,-1,-1,-1],"loss_changes":[2.9454716E1,1.3488905E1,2.4389572E0,8.255834E0,2.193859E0,2.141344E0,1.0155363E0,2.3007917E-1,3.3573794E0,2.0409365E0,5.43231E-1,8.725548E-1,5.250454E-1,8.2224417E-1,0E0,0E0,0E0,9.819894E-1,2.2452807E-1,2.819687E0,2.4358892E0,0E0,4.594574E-1,2.380104E-1,7.5183606E-1,0E0,1.3684297E0,0E0,3.2486224E-1,0E0,0E0,0E0,0E0,0E0,0E0,0E0,0E0,0E0,0E0,0E0,0E0,0E0,0E0,0E0,0E0,0E0,0E0],"parents":[2147483647,0,0,1,1,2,2,3,3,4,4,5,5,6,6,7,7,8,8,9,9,10,10,11,11,12,12,13,13,17,17,18,18,19,19,20,20,22,22,23,23,24,24,26,26,28,28],"right_children":[2,4,6,8,10,12,14,16,18,20,22,24,26,28,-1,-1,-1,30,32,34,36,-1,38,40,42,-1,44,-1,46,-1,-1,-1,-1,-1,-1,-1,-1,-1,-1,-1,-1,-1,-1,-1,-1,-1,-1],"split_conditions":[7.720399E-1,-9.0743506E-1,1.3684937E0,-2.0375524E0,5.5229765E-1,1.1958344E0,1.588236E0,-2.2102115E0,-1.4567972E0,2.2267778E-1,5.67992E-1,1.0859611E0,1.2586204E0,1.384188E0,-1.5927693E-2,-4.0724274E-2,-2.2129167E-2,-1.5980635E0,-1.0643957E0,-2.4820402E-1,3.6394408E-1,-3.1058043E-2,6.6217095E-1,8.1913155E-1,1.1173542E0,2.5139896E-2,1.2900134E0,-6.2900246E-3,1.5411487E0,9.390977E-3,2.0376638E-2,2.8227454E-3,-6.6836824E-4,-5.9713423E-3,-1.3199764E-2,6.52961E-3,-7.4033714E-3,-1.0313567E-2,-1.9094821E-2,6.3557066E-3,1.2427833E-2,-4.249704E-3,7.902679E-3,3.309124E-3,2.0910412E-2,7.640255E-3,1.3168639E-3],"split_indices":[0,0,0,0,0,0,0,0,0,0,0,0,0,0,0,0,0,0,0,0,0,0,0,0,0,0,0,0,0,0,0,0,0,0,0,0,0,0,0,0,0,0,0,0,0,0,0],"split_type":[0,0,0,0,0,0,0,0,0,0,0,0,0,0,0,0,0,0,0,0,0,0,0,0,0,0,0,0,0,0,0,0,0,0,0,0,0,0,0,0,0,0,0,0,0,0,0],"sum_hessian":[1.6302495E3,1.1288807E3,5.0136877E2,3.5213754E2,7.7674316E2,3.327051E2,1.6866367E2,1.8828638E1,3.333089E2,7.0204395E2,7.469922E1,2.5024052E2,8.246459E1,1.6393958E2,4.7240925E0,4.0323734E0,1.4796264E1,1.0328934E2,2.3001956E2,5.737386E2,1.2830533E2,5.8082795E0,6.889094E1,1.8263809E2,6.760243E1,2.8780594E1,5.3683994E1,1.2635177E1,1.513044E2,7.379011E1,2.9499224E1,1.6703209E2,6.2987465E1,3.52805E2,2.2093362E2,5.1697807E1,7.660751E1,3.4860527E1,3.403041E1,2.163553E1,1.6100256E2,1.6089758E1,5.151268E1,1.6062029E1,3.7621967E1,1.26590065E2,2.4714338E1],"tree_param":{"num_deleted":"0","num_feature":"2","num_nodes":"47","size_leaf_vector":"1"}},{"base_weights":[1.8718263E-2,1.0770223E-1,-1.6171192E-1,3.577874E-2,1.2649132E-1,-9.0227224E-2,-3.5084015E-1,2.6042243E-2,3.4692101E-3,1.4923498E-1,7.786525E-2,-2.43031E-1,-7.976019E-2,-3.312138E-1,-5.2059032E-2,4.8778452E-2,-1.0234987E-3,1.345148E-1,1.2620782E-2,4.755249E-2,1.12954795E-1,-1.4295389E-1,-2.2003027E-2,-7.0085086E-2,-1.8936004E-1,-2.941919E-1,-4.1222736E-1,8.424598E-4,4.117347E-3,5.879899E-3,8.052944E-3,4.6742903E-3,1.6570311E-3,8.270375E-3,1.4610009E-3,-5.0453427E-3,-8.625749E-3,-3.6809624E-3,7.6567265E-3,-2.5113089E-2,-5.6995293E-3,-2.0540621E-2,-1.10347E-2,-3.0238861E-2,-1.634117E-2],"categories":[],"categories_nodes":[],"categories_segments":[],"categories_sizes":[],"default_left":[0,0,0,0,0,0,0,0,0,0,0,0,0,0,0,0,0,0,0,0,0,0,0,0,0,0,0,0,0,0,0,0,0,0,0,0,0,0,0,0,0,0,0,0,0],"id":28,"left_children":[1,3,5,7,9,11,13,15,-1,17,19,21,23,25,-1,27,-1,29,-1,31,33,35,-1,37,39,41,43,-1,-1,-1,-1,-1,-1,-1,-1,-1,-1,-1,-1,-1,-1,-1,-1,-1,-1],"loss_changes":[2.5838964E1,1.4518328E0,7.155364E0,7.16863E-2,9.329281E-1,5.9978724E-1,1.6260548E0,1.8686235E-1,0E0,8.482046E-1,2.8635E-1,4.168254E-1,3.724947E-1,3.0735874E-1,0E0,1.2545758E-1,0E0,2.1026707E-1,0E0,9.545374E-2,5.502778E-1,4.487455E-3,0E0,2.7624333E-1,6.248237E-1,7.8001404E-1,4.9847603E-1,0E0,0E0,0E0,0E0,0E0,0E0,0E0,0E0,0E0,0E0,0E0,0E0,0E0,0E0,0E0,0E0,0E0,0E0],"parents":[2147483647,0,0,1,1,2,2,3,3,4,4,5,5,6,6,7,7,9,9,10,10,11,11,12,12,13,13,15,15,17,17,19,19,20,20,21,21,23,23,24,24,25,25,26,26],"right_children":[2,4,6,8,10,12,14,16,-1,18,20,22,24,26,-1,28,-1,30,-1,32,34,36,-1,38,40,42,44,-1,-1,-1,-1,-1,-1,-1,-1,-1,-1,-1,-1,-1,-1,-1,-1,-1,-1],"split_conditions":[1.1939587E-1,-8.6814594E-1,1.7241513E0,-8.928345E-1,-3.990636E-1,1.934615E-1,2.983267E0,-9.17523E-1,3.4692101E-3,-4.9781775E-1,-1.5217812E-1,1.6877295E-1,1.57602E0,2.4648075E0,-5.2059032E-2,-9.4221157E-1,-1.0234987E-3,-6.953261E-1,1.2620782E-2,-3.4968647E-1,-4.0468606E-3,1.4408441E-1,-2.2003027E-2,1.5513315E0,1.6007086E0,1.9710367E0,2.563562E0,8.424598E-4,4.117347E-3,5.879899E-3,8.052944E-3,4.6742903E-3,1.6570311E-3,8.270375E-3,1.4610009E-3,-5.0453427E-3,-8.625749E-3,-3.6809624E-3,7.6567265E-3,-2.5113089E-2,-5.6995293E-3,-2.0540621E-2,-1.10347E-2,-3.0238861E-2,-1.634117E-2],"split_indices":[1,1,1,1,1,1,1,1,0,1,1,1,1,1,0,1,0,1,0,1,1,1,0,1,1,1,1,0,0,0,0,0,0,0,0,0,0,0,0,0,0,0,0,0,0],"split_type":[0,0,0,0,0,0,0,0,0,0,0,0,0,0,0,0,0,0,0,0,0,0,0,0,0,0,0,0,0,0,0,0,0,0,0,0,0,0,0,0,0,0,0,0,0],"sum_hessian":[1.6072786E3,1.0766854E3,5.3059314E2,2.2361287E2,8.530726E2,3.8612628E2,1.4446687E2,1.7475587E2,4.8857E1,5.7981104E2,2.732615E2,2.3329563E1,3.6279672E2,1.419121E2,2.5547678E0,1.1734587E2,5.7410004E1,5.094364E2,7.037464E1,1.4787343E2,1.2538807E2,1.661557E1,6.713993E0,3.348746E2,2.7922112E1,1.0058002E2,4.1332085E1,6.091112E1,5.6434753E1,3.1445883E2,1.9497755E2,3.400534E1,1.13868095E2,7.6495056E1,4.8893017E1,8.681168E0,7.934403E0,3.3031503E2,4.5595756E0,4.320645E0,2.3601465E1,3.7109013E1,6.3471004E1,1.0831118E1,3.0500967E1],"tree_param":{"num_deleted":"0","num_feature":"2","num_nodes":"45","size_leaf_vector":"1"}},{"base_weights":[6.7982613E-3,-7.410405E-2,1.8888572E-1,8.026246E-2,-1.3094799E-1,3.25621E-1,1.4857443E-1,-2.6862204E-2,1.1930629E-1,-1.13943316E-1,-2.2422995E-1,2.3505852E-1,4.0433255E-1,1.6706523E-1,-9.067423E-2,3.4512278E-1,5.0867464E-2,-1.350991E-1,8.6399645E-2,-2.6555657E-1,4.516214E-2,2.8758168E-1,1.3977313E-1,4.3677592E-1,1.1024444E-2,3.6441308E-2,1.9512528E-1,-1.1833547E-2,-1.905368E-2,2.5636394E-2,1.3099785E-2,6.3064473E-4,6.718715E-3,-4.376955E-3,-1.0170611E-2,1.7824896E-3,8.566602E-3,-1.0586115E-2,-2.4027076E-2,7.3068286E-3,-7.687489E-4,1.0332338E-2,1.716855E-2,-5.6224573E-5,1.3714901E-2,1.8639227E-2,3.1521764E-2,2.6580933E-3,-2.8843821E-3,1.3310778E-2,6.074588E-3,-1.0416782E-3,6.6266296E-4],"categories":[],"categories_nodes":[],"categories_segments":[],"categories_sizes":[],"default_left":[0,0,0,0,0,0,0,0,0,0,0,0,0,0,0,0,0,0,0,0,0,0,0,0,0,0,0,0,0,0,0,0,0,0,0,0,0,0,0,0,0,0,0,0,0,0,0,0,0,0,0,0,0],"id":29,"left_children":[1,3,5,7,9,11,13,-1,15,17,19,21,23,25,27,29,31,33,35,37,39,41,43,45,-1,47,49,51,-1,-1,-1,-1,-1,-1,-1,-1,-1,-1,-1,-1,-1,-1,-1,-1,-1,-1,-1,-1,-1,-1,-1,-1,-1],"loss_changes":[2.3629211E1,9.756149E0,2.6713676E0,7.285733E0,1.262639E0,6.9981766E-1,1.7091379E0,0E0,4.3489404E0,2.9316235E0,1.3945274E0,2.3125339E-1,2.5123787E-1,1.2969999E0,6.3929534E-1,7.7881E-1,6.9469815E-1,2.0079775E0,2.80142E-1,1.1460195E0,1.084328E-1,8.2653046E-2,4.0250316E-1,3.6612988E-1,0E0,1.0402436E-1,1.4995842E0,5.5023865E-3,0E0,0E0,0E0,0E0,0E0,0E0,0E0,0E0,0E0,0E0,0E0,0E0,0E0,0E0,0E0,0E0,0E0,0E0,0E0,0E0,0E0,0E0,0E0,0E0,0E0],"parents":[2147483647,0,0,1,1,2,2,3,3,4,4,5,5,6,6,8,8,9,9,10,10,11,11,12,12,13,13,14,14,15,15,16,16,17,17,18,18,19,19,20,20,21,21,22,22,23,23,25,25,26,26,27,27],"right_children":[2,4,6,8,10,12,14,-1,16,18,20,22,24,26,28,30,32,34,36,38,40,42,44,46,-1,48,50,52,-1,-1,-1,-1,-1,-1,-1,-1,-1,-1,-1,-1,-1,-1,-1,-1,-1,-1,-1,-1,-1,-1,-1,-1,-1],"split_conditions":[7.8773856E-1,-1.033007E0,9.7609216E-1,-2.1160326E0,4.424244E-1,8.819132E-1,1.5411487E0,-2.6862204E-2,-1.6294565E0,2.540708E-1,7.4065125E-1,8.505202E-1,9.603935E-1,1.0702668E0,1.588236E0,-1.8648974E0,-1.1585747E0,-2.9529133E-1,3.796384E-1,6.7786527E-1,7.5634557E-1,8.1913155E-1,8.6621886E-1,9.4469917E-1,1.1024444E-2,1.0545725E0,1.352795E0,1.5725416E0,-1.905368E-2,2.5636394E-2,1.3099785E-2,6.3064473E-4,6.718715E-3,-4.376955E-3,-1.0170611E-2,1.7824896E-3,8.566602E-3,-1.0586115E-2,-2.4027076E-2,7.3068286E-3,-7.687489E-4,1.0332338E-2,1.716855E-2,-5.6224573E-5,1.3714901E-2,1.8639227E-2,3.1521764E-2,2.6580933E-3,-2.8843821E-3,1.3310778E-2,6.074588E-3,-1.0416782E-3,6.6266296E-4],"split_indices":[0,0,0,0,0,0,0,0,0,0,0,0,0,0,0,0,0,0,0,0,0,0,0,0,0,0,0,0,0,0,0,0,0,0,0,0,0,0,0,0,0,0,0,0,0,0,0,0,0,0,0,0,0],"split_type":[0,0,0,0,0,0,0,0,0,0,0,0,0,0,0,0,0,0,0,0,0,0,0,0,0,0,0,0,0,0,0,0,0,0,0,0,0,0,0,0,0,0,0,0,0,0,0,0,0,0,0,0,0],"sum_hessian":[1.6020642E3,1.1096393E3,4.9242493E2,2.9853094E2,8.1110834E2,1.10507484E2,3.8191745E2,1.6994265E1,2.8153665E2,6.8792566E2,1.2318273E2,5.323902E1,5.7268467E1,3.5479788E2,2.711954E1,6.454039E1,2.1699628E2,6.225151E2,6.5410576E1,1.0681136E2,1.6371367E1,3.3019768E1,2.0219254E1,4.7508686E1,9.759782E0,6.3145313E1,2.916526E2,2.2147463E1,4.972078E0,1.9684168E1,4.4856224E1,1.4961057E2,6.738572E1,3.683494E2,2.5416565E2,4.1833466E1,2.3577108E1,8.7008446E1,1.9802921E1,5.606261E0,1.0765105E1,1.5392923E1,1.7626842E1,1.0360059E1,9.859196E0,3.7907696E1,9.600988E0,5.3990036E1,9.155276E0,1.4705824E2,1.4459435E2,1.6424597E1,5.722866E0],"tree_param":{"num_deleted":"0","num_feature":"2","num_nodes":"53","size_leaf_vector":"1"}},{"base_weights":[-9.279813E-3,-7.986214E-2,1.6339305E-1,-3.355236E-2,-7.003151E-2,2.4098632E-1,2.911923E-2,1.7856218E-1,-1.1061676E-1,1.9750501E-1,3.7199807E-1,5.3535163E-2,-1.747344E-1,2.4675262E-1,9.718496E-2,-7.3551856E-2,-1.5054856E-1,2.8677952E-1,1.14864774E-1,2.3719281E-2,3.2032382E-1,-8.820314E-3,7.214607E-2,-1.3171293E-1,-1.7075127E-2,9.93012E-3,2.7415553E-2,-1.0103811E-2,7.382974E-3,-5.003724E-3,2.0712407E-3,-1.36583345E-2,-4.400042E-3,9.912477E-3,1.5339916E-2,5.07605E-4,7.8417845E-3,1.0593685E-2,2.28974E-2,5.6966366E-3,-3.1787578E-3,2.9807582E-3,5.431367E-3,-7.678844E-3,-7.598521E-4],"categories":[],"categories_nodes":[],"categories_segments":[],"categories_sizes":[],"default_left":[0,0,0,0,0,0,0,0,0,0,0,0,0,0,0,0,0,0,0,0,0,0,0,0,0,0,0,0,0,0,0,0,0,0,0,0,0,0,0,0,0,0,0,0,0],"id":30,"left_children":[1,3,5,-1,7,9,11,13,15,17,19,21,23,25,27,29,31,33,35,-1,37,39,41,43,-1,-1,-1,-1,-1,-1,-1,-1,-1,-1,-1,-1,-1,-1,-1,-1,-1,-1,-1,-1,-1],"loss_changes":[1.9797977E1,6.653924E0,4.903942E0,0E0,1.1473637E1,1.6274796E0,8.7423354E-1,8.6228466E-1,1.4342804E0,1.6367655E0,2.3571777E-1,1.8160915E-1,9.005064E-2,1.1434169E0,1.1546392E0,1.5545294E0,3.5740032E0,1.3080215E-1,5.2225494E-1,0E0,6.7574406E-1,2.541612E-1,4.8476636E-2,3.992638E-2,0E0,0E0,0E0,0E0,0E0,0E0,0E0,0E0,0E0,0E0,0E0,0E0,0E0,0E0,0E0,0E0,0E0,0E0,0E0,0E0,0E0],"parents":[2147483647,0,0,1,1,2,2,4,4,5,5,6,6,7,7,8,8,9,9,10,10,11,11,12,12,13,13,14,14,15,15,16,16,17,17,18,18,20,20,21,21,22,22,23,23],"right_children":[2,4,6,-1,8,10,12,14,16,18,20,22,24,26,28,30,32,34,36,-1,38,40,42,44,-1,-1,-1,-1,-1,-1,-1,-1,-1,-1,-1,-1,-1,-1,-1,-1,-1,-1,-1,-1,-1],"split_conditions":[8.348259E-1,-2.1160326E0,1.352795E0,-3.355236E-2,-1.3469282E0,1.1958344E0,