tree
version=v4
num_class=1
num_tree_per_iteration=1
label_index=0
max_feature_idx=1
objective=binary sigmoid:1
feature_names=hours_to_expiry hour_index
feature_infos=[-2.241600220157133:1.603934602234184] [-0.96690010963949313:3.2795296045935718]
tree_sizes=3363 3419 3430 3418 3417 3432 3434 3417 3426 3414 3413 3412 3393 3419 3416 3437 3431 3431 3442 3421 3416 3425 3418 3437 3424 3417

Tree=0
num_leaves=31
num_cat=0
split_feature=1 0 1 0 0 0 1 0 0 0 1 1 0 1 0 1 0 0 0 0 0 0 1 0 1 0 1 0 1 0
split_gain=138.231 96.9307 35.8324 39.3328 35.1941 41.3133 27.3952 13.0456 11.5275 14.8236 66.6618 19.425 10.1647 12.0741 9.30523 9.21695 9.08116 7.73123 6.61155 7.86422 6.38547 15.7669 40.9562 14.6905 9.12213 6.27968 18.1952 5.88837 5.35221 4.98527
threshold=0.057674501643484796 0.71710543825720874 -0.65829329901209011 0.983939339625855 -1.0251577136319436 -2.1238819486007605 -0.60891620931170554 0.88976254018992817 -0.72693300057841947 0.79558574075491595 1.7118070066063649 1.0452162956511746 -1.5274303403035232 -0.90517874751401239 -0.72693300057841947 2.9709227939661695 1.5489957718573797 -0.38161879671206583 -0.66414701282782806 -0.52288290476971822 1.1879872532434528 1.0781139568706783 -0.80642456811324348 1.3449478582393246 -0.85580165781362794 0.63862513575904412 1.1686590199021356 -1.2919894328099439 1.514298647804827 0.57584133019909889
decision_type=2 2 2 2 2 2 2 2 2 2 2 2 2 2 2 2 2 2 2 2 2 2 2 2 2 2 2 2 2 2
left_child=1 4 3 -3 5 -1 18 -4 -2 10 17 -11 -7 27 -8 -13 20 -10 -6 -20 21 22 -5 -22 -23 -19 -27 -14 -28 -21
right_child=8 2 7 16 6 12 14 -9 9 11 -12 15 13 -15 -16 -17 -18 25 19 29 23 24 -24 -25 -26 26 28 -29 -30 -31
leaf_value=-0.19038898457408321 -0.12743976993511213 -0.084670597246752327 -0.14092215367657571 -0.20537931005780724 -0.12026287029696835 -0.10212758462480544 -0.1838573308303878 -0.07951468293071165 -0.17649012031020472 -0.20588613816626219 -0.22269175011972528 -0.13754712366771915 -0.17312477960102066 -0.11683354024712608 -0.1525929229758744 -0.22483537838579382 -0.21130733927468592 -0.14963414522366883 -0.1643018808328994 -0.13495429012650081 -0.045980664840531621 -0.095656271968287743 -0.072733519805560143 -0.12843010844919581 -0.20368858531688891 -0.21915274085423106 -0.10768562413969816 -0.13210298447984381 -0.16715941279748903 -0.0853055994486841
leaf_weight=20.159167662262917 36.336277514696121 64.210682183504105 9.208508685231207 9.208508685231207 83.62321400642395 85.863121524453163 27.376647442579269 137.1321158260107 36.087398901581764 11.697294816374777 40.318335324525833 150.57156093418598 14.683838173747061 158.03791932761669 180.68587312102318 2.986543357372283 3.484300583600997 267.79338771104813 23.643468245863914 99.551445245742798 5.72420810163021 2.2399075180292121 15.430474013090135 74.912462547421455 12.692809268832205 12.443930655717852 7.4663583934307081 21.403560727834702 7.4663583934307098 5.226450875401496
leaf_count=81 146 258 37 37 336 345 110 551 145 47 162 605 59 635 726 12 14 1076 95 400 23 9 62 301 51 50 30 86 30 21
internal_value=-0.134917 -0.124174 -0.101926 -0.116388 -0.134502 -0.121428 -0.143843 -0.0833807 -0.154679 -0.156523 -0.162064 -0.144056 -0.116445 -0.122791 -0.156729 -0.139303 -0.132879 -0.15466 -0.131195 -0.13832 -0.130544 -0.146974 -0.122396 -0.122475 -0.187335 -0.151977 -0.174759 -0.148856 -0.137444 -0.132434
internal_weight=1627.67 1054.5 334.244 187.903 720.255 300.148 420.107 146.341 573.167 536.831 371.576 165.255 279.988 194.125 208.063 153.558 123.693 331.257 212.045 128.421 120.208 39.5717 24.639 80.6367 14.9327 295.17 27.3766 36.0874 14.9327 104.778
internal_count=6540 4237 1343 755 2894 1206 1688 588 2303 2157 1493 664 1125 780 836 617 497 1331 852 516 483 159 99 324 60 1186 110 145 60 421
is_linear=0
shrinkage=1


Tree=1
num_leaves=31
num_cat=0
split_feature=1 0 1 0 0 0 1 0 0 0 1 1 0 1 0 0 1 0 0 0 0 1 1 0 0 1 0 0 1 0
split_gain=124.915 87.2932 32.1528 35.45 31.7593 37.3894 24.7835 11.7117 10.4384 13.443 61.0662 17.6803 9.14202 10.8921 8.46712 8.45948 8.42313 7.20199 5.96235 7.11936 5.93403 19.0621 5.88283 5.33965 4.50104 4.84591 4.24565 16.3764 41.0599 13.2188
threshold=0.057674501643484796 0.71710543825720874 -0.65829329901209011 0.9682428426880928 -1.0251577136319436 -2.1238819486007605 -0.60891620931170554 0.88976254018992817 -0.72693300057841947 0.79558574075491595 1.6871184617561725 1.0452162956511746 -1.5274303403035232 -0.90517874751401239 -0.72693300057841947 1.5489957718573797 2.9709227939661695 -0.38161879671206583 -0.66414701282782806 -0.52288290476971822 0.60723214188397712 1.1192819302017514 1.4402330132542505 -1.2919894328099439 0.62292863882128191 -0.80642456811324348 1.1879872532434528 1.0781139568706783 -0.8311131129634356 1.3449478582393246
decision_type=2 2 2 2 2 2 2 2 2 2 2 2 2 2 2 2 2 2 2 2 2 2 2 2 2 2 2 2 2 2
left_child=1 4 3 -3 5 -1 18 -4 -2 10 17 -11 -7 23 -8 26 -13 -10 -6 -20 -19 -22 -23 -14 -21 -26 27 28 -5 -28
right_child=8 2 7 15 6 12 14 -9 9 11 -12 16 13 -15 -16 -17 -18 20 19 24 21 22 -24 -25 25 -27 29 -29 -30 -31
leaf_value=-0.053690643275322442 0.0063717238265025185 0.04877415553209509 -0.0064412832697941626 -0.074104933925820335 0.01318061671846966 0.03036316580172832 -0.047422647066749077 0.051749180272081891 -0.040365201144160555 -0.068603351109717922 -0.082921765519684748 -0.0032291997500639457 -0.037153149175204257 0.01643181906226247 -0.017546071742497549 -0.073895530152445973 -0.086995720336058277 -0.014033636794057803 -0.028717464521473238 -0.00045515368453538646 -0.075184373836548329 0.031055069534230484 -0.025679831359946233 0.0019438128194226665 0.099999959728507948 -0.0094975565823904508 0.083499284092508952 -0.050779646634456513 0.052694612658665957 0.0054311327766705586
leaf_weight=20.067597851157188 36.35220268368721 59.393485128879547 9.2042275071144086 9.1618202626705152 83.697004079818726 86.0254917293787 27.26890429854393 137.53249458968639 35.969173610210419 11.626356601715086 42.486687958240509 150.53687043488026 14.640027448534964 158.20948861539364 180.44754722714424 3.4612194895744315 2.9624040126800528 257.55561155080795 23.590435236692429 100.79379163682461 16.331966310739517 7.9663058668375042 10.438534691929815 21.40647229552269 2.2459116429090504 1.7468201667070378 5.7469617277383795 14.863523975014685 20.46188655495644 74.940553665161133
leaf_count=81 146 238 37 37 336 345 110 551 145 47 172 605 59 635 726 14 12 1036 95 405 66 32 42 86 9 7 23 60 82 301
internal_value=-0.00073281 0.00947038 0.0305618 0.016859 -0.00033711 0.0120743 -0.00921791 0.0480972 -0.0195409 -0.0212996 -0.0265842 -0.00942541 0.0168004 0.0107817 -0.0214892 0.00209674 -0.00490141 -0.0192694 0.0028057 -0.00396336 -0.0166605 -0.0360411 -0.00108772 -0.013994 0.00163156 0.0530332 0.00425532 -0.00813436 0.0133615 0.011088
internal_weight=1627.13 1054.91 334.766 188.029 720.139 300.349 419.79 146.737 572.226 535.874 370.748 165.126 280.281 194.256 207.716 128.636 153.499 328.262 212.074 128.377 292.292 34.7368 18.4048 36.0465 104.787 3.99273 125.175 44.4872 29.6237 80.6875
internal_count=6540 4237 1343 755 2894 1206 1688 588 2303 2157 1493 664 1125 780 836 517 617 1321 852 516 1176 140 74 145 421 16 503 179 119 324
is_linear=0
shrinkage=0.05


Tree=2
num_leaves=31
num_cat=0
split_feature=1 0 1 0 0 0 1 0 0 0 1 1 0 1 1 0 0 0 0 0 0 1 0 1 1 0 1 0 0 0
split_gain=112.942 78.7264 28.9192 31.9244 28.6666 33.8698 22.4283 10.5425 9.45868 12.2059 56.2065 16.1353 8.23154 9.828 7.72774 7.72208 7.72108 6.4005 5.37651 6.44823 5.25773 15.5665 4.94623 4.45775 4.2595 4.18426 4.01259 4.87831 3.90316 3.84118
threshold=0.057674501643484796 0.71710543825720874 -0.65829329901209011 0.9682428426880928 -1.0251577136319436 -2.1238819486007605 -0.60891620931170554 0.88976254018992817 -0.72693300057841947 0.79558574075491595 1.7118070066063649 1.0452162956511746 -1.5274303403035232 -0.90517874751401239 2.9709227939661695 1.5489957718573797 -0.72693300057841947 -0.38161879671206583 -0.66414701282782806 -0.52288290476971822 0.63862513575904412 1.1686590199021356 -1.4175592261209375 1.514298647804827 -0.92986729236420473 0.62292863882128191 -0.58422766446151331 -1.4489500378053586 -0.31883499115212061 1.1879872532434528
decision_type=2 2 2 2 2 2 2 2 2 2 2 2 2 2 2 2 2 2 2 2 2 2 2 2 2 2 2 2 2 2
left_child=1 4 3 -3 5 -1 18 -4 -2 10 17 -11 -7 22 -13 29 -8 -10 -6 -20 -19 -22 -14 -23 25 -21 27 -15 -18 -5
right_child=8 2 7 15 6 12 16 -9 9 11 -12 14 13 26 -16 -17 28 20 19 24 21 23 -24 -25 -26 -27 -28 -29 -30 -31
leaf_value=-0.051322621932293068 0.0060515624465395691 0.046269577946152628 -0.0061255595114750108 -0.0077641123389294193 0.012512766810999464 0.028807734086229504 -0.045286472847048023 0.049093400168219115 -0.038508012626791328 -0.065747945977385702 -0.081572928351637208 -0.0030685568464319103 -0.049408068477407051 0.038162535377929685 -0.083745339219234619 -0.07094635456387359 -0.0080080200658571177 -0.013988788411142053 -0.027359045638873841 0.014855840915339508 -0.078607758612409206 0.024410337688304626 -0.0038121111056221937 -0.029913264278161919 -0.0033730568920735064 0.093904400529959409 0.027198197359250595 0.0060829421388522327 -0.022936584485302135 0.010535488137649179
leaf_weight=19.951371565461159 36.366576671600342 59.480838388204575 9.1999628692865354 44.360094144940376 83.759659051895142 86.139043942093849 27.135507166385651 137.72345532476902 35.82714207470417 11.53142563998699 39.568857192993164 150.5030994862318 7.4177004396915427 13.466035187244414 2.9282367825508109 3.429780811071395 75.452645778656006 267.17548856139183 23.530155718326569 18.415455967187885 12.239407330751421 7.4823249131441099 28.57964052259922 7.424470067024231 84.621300503611565 1.7499054968357075 50.622317463159561 94.262246310710907 104.7401859164238 80.714083015918732
leaf_count=81 146 238 37 179 336 345 110 551 145 47 162 605 30 54 12 14 304 1076 95 74 50 30 115 30 340 7 203 378 422 324
internal_value=-0.000699731 0.00899683 0.0290197 0.0160171 -0.000321568 0.0114653 -0.00876576 0.0456339 -0.0186082 -0.0202863 -0.025332 -0.00896918 0.0159482 0.0102367 -0.00466182 0.00198903 -0.0204558 -0.0185688 0.00266677 -0.00376502 -0.0161293 -0.0370682 -0.0133186 -0.00266508 0.00155413 0.022145 0.0155965 0.0101246 -0.0166934 0.00404415
internal_weight=1625.8 1054.75 334.908 187.985 719.843 300.438 419.405 146.923 571.047 534.68 369.718 164.963 280.487 194.348 153.431 128.504 207.328 330.149 212.076 128.317 294.322 27.1462 35.9973 14.9068 104.787 20.1654 158.351 107.728 180.193 125.074
internal_count=6540 4237 1343 755 2894 1206 1688 588 2303 2157 1493 664 1125 780 617 517 836 1331 852 516 1186 110 145 60 421 81 635 432 726 503
is_linear=0
shrinkage=0.05


Tree=3
num_leaves=31
num_cat=0
split_feature=1 0 1 0 0 0 1 0 0 0 1 1 0 1 0 1 0 0 0 1 1 0 0 0 0 1 0 1 0 0
split_gain=102.162 71.0398 26.1006 28.9728 25.8829 30.707 20.303 9.51194 8.57626 11.0952 51.9545 14.8696 7.41828 8.87256 7.05314 7.04322 6.89825 5.9773 5.03191 16.3642 5.10087 4.84829 5.84249 4.79552 13.0085 33.9366 11.9585 8.36155 4.57031 3.87229
threshold=0.057674501643484796 0.71710543825720874 -0.65829329901209011 0.983939339625855 -1.0251577136319436 -2.1238819486007605 -0.60891620931170554 0.88976254018992817 -0.72693300057841947 0.79558574075491595 1.6871184617561725 0.99583920595079001 -1.5274303403035232 -0.90517874751401239 -0.72693300057841947 2.9709227939661695 1.5489957718573797 -0.38161879671206583 0.60723214188397712 1.1192819302017514 1.4402330132542505 -0.66414701282782806 -0.52288290476971822 1.1879872532434528 1.0781139568706783 -0.80642456811324348 1.3449478582393246 -0.85580165781362794 -1.2919894328099439 0.57584133019909889
decision_type=2 2 2 2 2 2 2 2 2 2 2 2 2 2 2 2 2 2 2 2 2 2 2 2 2 2 2 2 2 2
left_child=1 4 3 -3 5 -1 21 -4 -2 10 17 -11 -7 28 -8 -13 23 -10 -19 -20 -21 -6 -23 24 25 -5 -25 -26 -14 -24
right_child=8 2 7 16 6 12 14 -9 9 11 -12 15 13 -15 -16 -17 -18 18 19 20 -22 22 29 26 27 -27 -28 -29 -30 -31
leaf_value=-0.049112827478465855 0.0057477126804289279 0.042350184121426382 -0.0058252923442369689 -0.065315044043200488 0.011880192049213794 0.027345802286445051 -0.043282618216602294 0.046636489994142688 -0.036757679634241688 -0.069017353334558038 -0.076803617503500191 -0.0033134482588306475 -0.03420509661831591 0.014808324545062099 -0.01588410150847298 -0.08086234925611907 -0.068262029463419346 -0.012663541119076367 -0.069771000048714643 0.029120030711089557 -0.023732941854162918 -0.026071801589658369 -0.0007425584111382628 0.078880142206176049 0.039506176210693703 0.055879061339418723 0.0046290348691144243 -0.064019575948338889 0.002037037856981607 0.042968974493595519
leaf_weight=19.814580515027046 36.379553943872452 64.489919811487198 9.1957335174083692 9.0757243782281858 83.812470674514771 86.210224851965904 26.980770230293274 137.73433429002762 35.665394440293312 9.4731871336698514 41.477351009845734 152.41352005302906 14.542518839240072 158.45915150642395 179.92304700613022 2.8856338262557975 3.3913178145885459 256.96706837415695 16.028669446706772 7.9777789413929012 10.397782459855078 23.463953286409378 99.541769295930862 5.746681720018386 2.2366778701543799 15.497004806995394 75.012559860944748 12.533296868205069 21.403815746307373 5.2381448149681082
leaf_count=81 146 258 37 37 336 345 110 551 145 39 172 613 59 635 726 12 14 1036 66 32 42 95 400 23 9 62 301 51 86 21
internal_value=-0.000668246 0.00854994 0.0275681 0.0152152 -0.000306596 0.0108911 -0.008337 0.0433514 -0.0177272 -0.0193294 -0.0241514 -0.00853683 0.0151441 0.00972184 -0.0194761 -0.0048055 0.00102214 -0.0174522 -0.0150773 -0.0330172 -0.000753324 0.00253552 -0.0035761 0.00303368 -0.0112627 0.0110338 0.0100036 -0.048182 -0.0126794 0.00148155
internal_weight=1623.97 1054.3 334.913 187.983 719.39 300.43 418.96 146.93 569.666 533.286 368.514 164.772 280.616 194.405 206.904 155.299 123.493 327.037 291.371 34.4042 18.3756 212.056 128.244 120.102 39.3427 24.5727 80.7592 14.77 35.9463 104.78
internal_count=6540 4237 1343 755 2894 1206 1688 588 2303 2157 1493 664 1125 780 836 625 497 1321 1176 140 74 852 516 483 159 99 324 60 145 421
is_linear=0
shrinkage=0.05


Tree=4
num_leaves=31
num_cat=0
split_feature=1 0 1 0 0 0 1 0 0 1 1 0 1 0 0 1 0 0 0 1 1 0 0 0 0 0 1 1 1 1
split_gain=92.4461 64.213 23.5858 27.1932 23.4338 28.1375 18.0376 7.80233 10.1633 48.2459 13.6486 7.32303 6.50463 6.44738 6.39953 6.2989 5.62574 5.10988 5.10099 12.4233 4.65448 4.12525 6.2777 3.98588 13.508 11.1301 36.0417 7.61473 3.84761 3.73137
threshold=0.057674501643484796 0.71710543825720874 -0.68298184386228222 0.9682428426880928 -1.0408542105697058 -2.1238819486007605 -0.63360475416189777 -0.71123650364065727 0.79558574075491595 1.7364955514565572 0.99583920595079001 0.87406604325262338 2.9709227939661695 1.5489957718573797 -1.4332557230582426 -0.60891620931170554 -0.38161879671206583 -0.72693300057841947 0.63862513575904412 1.1686590199021356 1.514298647804827 -0.66414701282782806 -0.52288290476971822 1.1879872532434528 1.3449478582393246 1.0624196421235623 -0.8311131129634356 -0.85580165781362794 -0.80642456811324348 1.4155444684040581
decision_type=2 2 2 2 2 2 2 2 2 2 2 2 2 2 2 2 2 2 2 2 2 2 2 2 2 2 2 2 2 2
left_child=1 4 3 28 5 -1 21 -2 9 16 -10 -4 29 23 -7 -16 -9 -8 -18 -20 -21 -6 -23 25 -25 26 -5 -27 -3 -12
right_child=7 2 11 13 6 14 17 8 10 -11 12 -13 -14 -15 15 -17 18 -19 19 20 -22 22 -24 24 -26 27 -28 -29 -30 -31
leaf_value=-0.047041991790689235 0.00509999450660217 0.034091364637716823 -0.0034391929632535687 -0.07358437506510003 0.011095499724490011 0.023796437409711577 -0.036516913306704424 -0.036154101948245768 -0.066458832662438058 -0.077172866209207533 -0.022752555724251791 0.043122781822254257 -0.078289000457076763 -0.079387096666042156 0.0018305542707536121 0.023580737468221355 -0.01263532068262125 -0.0146877209111307 -0.073414455927860195 0.0225272764588746 -0.031843536455074588 -0.027353569303856212 0.0021427195821001276 0.08338971231357567 0.0026695294675160943 0.037517416697421854 0.05282846245111085 -0.06138745492833049 0.063650985343361041 -2.7863651774867155e-05
leaf_weight=19.660817921161652 37.614974856376648 43.46978348493576 8.9445393830537778 8.5102240145206434 86.350221961736679 113.85497677326202 31.301785409450531 34.263814091682434 9.3528761118650419 36.974036872386932 20.839634597301483 146.74771864712238 2.8359941840171805 2.3907174170017234 112.38176031410694 47.207926481962204 267.21006493270397 186.34963119029999 11.9237057864666 7.4894252568483344 8.0821404010057432 21.915536820888519 99.797613590955734 5.4779048860073081 73.28674453496933 2.2426166832447043 16.241311445832256 12.184280291199682 14.989580512046812 131.53659071028233
leaf_count=81 151 174 36 35 346 456 128 140 39 156 84 588 12 10 451 189 1079 753 50 30 33 89 401 22 294 9 65 50 60 529
internal_value=-0.000638739 0.00812929 0.0262235 0.0138218 -0.000292891 0.010585 -0.0077831 -0.0168933 -0.0184534 -0.0230938 -0.00812668 0.0404473 -0.00457114 0.000222643 0.0147441 0.00827517 -0.0169941 -0.0178424 -0.014755 -0.035234 -0.00571603 0.00274331 -0.00318645 0.00190223 0.00838206 -0.0111131 0.00924323 -0.0458606 0.0417665 -0.00314868
internal_weight=1621.43 1053.31 334.485 178.793 718.82 293.105 425.715 568.123 530.508 365.943 164.565 155.692 155.212 120.334 273.445 159.59 328.969 217.651 294.705 27.4953 15.5716 208.063 121.713 117.943 78.7646 39.1784 24.7515 14.4269 58.4594 152.376
internal_count=6540 4237 1343 719 2894 1177 1717 2303 2152 1488 664 624 625 485 1096 640 1332 881 1192 113 63 836 490 475 316 159 100 59 234 613
is_linear=0
shrinkage=0.05


Tree=5
num_leaves=31
num_cat=0
split_feature=1 0 0 1 0 0 0 0 0 0 1 0 0 1 1 0 1 0 1 0 0 0 1 1 0 1 0 0 1 1
split_gain=98.4951 68.6337 24.0092 20.9356 25.9819 19.9602 12.0096 11.2553 8.35808 7.15681 40.7063 6.99161 6.89827 9.06982 8.60798 6.56648 6.03982 5.64668 4.9258 6.39472 6.2813 4.99849 4.88586 10.6513 4.88124 4.82017 4.97235 4.39425 5.00334 4.36278
threshold=-0.016391132907091922 0.62292863882128191 -1.0408542105697058 -0.65829329901209011 0.9682428426880928 -2.1238819486007605 -0.72693300057841947 0.88976254018992817 -0.30313849421435851 0.76419274687939176 1.7118070066063649 0.010782715776928032 -0.55427589864524263 -0.36203076080978319 -0.31265367110939873 0.68571244438168433 2.9709227939661695 1.5646922687946845 -0.88049020266382005 -1.4803430316808828 -1.7942642416721695 -1.1978148155651205 1.2674131993029047 0.13174013619406152 -1.6686966305518218 0.97115066110059767 0.99963365437251361 -0.38161879671206583 0.92177357140021321 0.45269121924656064
decision_type=2 2 2 2 2 2 2 2 2 2 2 2 2 2 2 2 2 2 2 2 2 2 2 2 2 2 2 2 2 2
left_child=1 2 5 4 -3 -1 -2 -5 12 10 15 -10 13 -4 -14 27 22 -9 19 24 -20 -21 23 -11 -7 -25 -27 28 29 -8
right_child=6 3 8 7 -6 18 9 17 11 16 -12 -13 14 -15 -16 -17 -18 -19 20 21 -22 -23 -24 25 -26 26 -28 -29 -30 -31
leaf_value=-0.038314102303665158 0.0081548866408696734 0.043093988703682529 -0.0039217545352232689 -0.0035195375550982491 0.0041085992493488915 0.004222316692621339 -0.046114612093903717 0.049573643210846265 -0.028288642538468068 0.016954167635934159 -0.072156729259860816 -0.0037312808257016737 0.00053759017785184773 -0.035157866075115951 0.036588196228940842 -0.051658662969097519 -0.076357599442617954 -0.0011838854848059163 0.043161605915267173 -0.017205540672489538 0.015830534863137857 0.02044993936188929 -0.0045150602308248041 -0.079863796556982752 0.04035742548337054 -0.046281432443304682 0.022284248733892772 -0.013039758999611099 -0.083854881808696324 -0.010961427771113674
leaf_weight=18.771271705627441 46.865987256169319 64.849222496151924 144.66482123732567 11.899800986051558 125.03863808512688 21.499639898538589 14.456636115908621 121.8736217468977 71.543840959668159 9.5750361680984515 36.538982659578323 48.733100160956383 93.360446244478226 27.595084756612778 20.029065325856209 12.804440170526503 3.243973195552825 5.7322971373796454 23.999598026275635 34.687570840120316 167.6209918409586 11.710589945316313 139.62849153578281 7.0865665376186397 16.468128740787506 10.323131695389746 3.4748600721359244 283.72048868238926 3.8941419124603263 22.642385810613632
leaf_count=78 188 260 584 48 505 86 59 489 289 39 157 197 376 112 81 53 14 23 96 140 671 47 562 30 66 42 14 1148 16 93
internal_value=8.58081e-05 0.00943728 0.000587156 0.0282573 0.0174383 0.0114465 -0.0161228 0.0429605 -0.00729908 -0.0182025 -0.0220945 -0.01835 -0.00264113 -0.0089431 0.00693218 -0.0166551 -0.00979559 0.0472944 0.0148436 0.00476919 0.0192744 -0.00767801 -0.00848198 -0.0265923 0.0199604 -0.0465428 -0.0289779 -0.0152593 -0.0305523 -0.024747
internal_weight=1624.33 1030.08 700.684 329.394 189.888 294.758 594.255 139.506 405.926 547.389 374.057 120.277 285.649 172.26 113.39 337.518 173.332 127.606 275.987 84.3659 191.621 46.3982 170.088 30.4596 37.9678 20.8846 13.798 324.714 40.9932 37.099
internal_count=6563 4148 2823 1325 765 1184 2415 560 1639 2227 1526 486 1153 696 457 1369 701 512 1106 339 767 187 687 125 152 86 56 1316 168 152
is_linear=0
shrinkage=0.05


Tree=6
num_leaves=31
num_cat=0
split_feature=1 0 0 1 0 0 0 0 0 0 1 0 0 1 1 1 0 0 1 0 0 0 1 1 1 0 0 0 1 1
split_gain=89.1478 62.084 21.6859 19.0323 23.5484 18.0987 10.893 10.2164 7.56691 6.51549 38.1159 6.34489 6.23127 8.27608 7.73888 5.62403 5.13069 4.8473 4.46542 6.54885 5.9207 4.98382 4.46292 9.73301 4.56166 4.52399 4.3176 4.24206 4.17234 4.12979
threshold=-0.016391132907091922 0.62292863882128191 -1.0408542105697058 -0.65829329901209011 0.9682428426880928 -2.1238819486007605 -0.72693300057841947 0.88976254018992817 -0.30313849421435851 0.76419274687939176 1.8352497308573261 0.010782715776928032 -0.55427589864524263 -0.33734221595959096 -0.31265367110939873 2.9709227939661695 1.5646922687946845 0.68571244438168433 -0.85580165781362794 -1.4646465347431208 -1.1978148155651205 -1.7942642416721695 1.2674131993029047 0.13174013619406152 0.97115066110059767 0.99963365437251361 -0.50718640783241342 0.12065601215015968 1.2427246544527124 -0.63360475416189777
decision_type=2 2 2 2 2 2 2 2 2 2 2 2 2 2 2 2 2 2 2 2 2 2 2 2 2 2 2 2 2 2
left_child=1 2 5 4 -3 -1 -2 -5 12 10 17 -10 13 -4 29 22 -9 27 19 -7 -21 -20 23 -11 -25 -26 -16 -8 -19 -14
right_child=6 3 8 7 -6 18 9 16 11 15 -12 -13 14 -15 26 -17 -18 28 21 20 -22 -23 -24 24 25 -27 -28 -29 -30 -31
leaf_value=-0.036697947194013349 0.0077449351664662814 0.041045711635043836 -0.0040228950547114865 -0.0033461126155893794 0.0039024021618187122 0.019718126053630013 -0.020835520675156968 0.047259417044972371 -0.026956953486139884 0.016106018496926413 -0.076805708452940352 -0.0035464645184476902 0.0067815961277790174 -0.035327013407931041 -0.007106892838495556 -0.074260609741500144 -0.0011256285481117429 -0.073028167885584624 0.041453756091568421 -0.016232319005301372 0.019770158033703581 0.015758283746184387 -0.0042910024432280206 -0.077496157582478492 -0.044242620946765045 0.021163880388656145 0.047403379435958043 -0.0094925834478719034 -0.018395278332598131 -0.017084933955308208
leaf_weight=18.62618762254715 46.884134918451309 64.689993441104889 147.54816661775112 11.896005868911741 125.06772658228874 45.695629194378853 167.55609020590782 121.4645044952631 71.334550991654396 9.5804163962602633 28.258236169815063 48.714756324887276 68.878439173102379 24.546615362167358 4.7149885594844845 3.1734060347080222 5.7326717376708975 6.8042261004447919 21.485834300518036 39.399066403508186 15.968869686126707 153.43015445768833 139.57989360392094 6.944555431604388 10.264988780021666 3.4809996485710135 15.38409438729286 162.74193616211414 7.2605565339326859 24.486002773046494
leaf_count=78 188 260 596 48 505 183 682 489 289 39 124 197 277 100 19 14 23 29 86 159 64 614 562 30 42 14 62 661 30 99
internal_value=7.93656e-05 0.00897499 0.000557708 0.0268921 0.0165798 0.0108803 -0.0153688 0.0409385 -0.00694079 -0.0173559 -0.0210792 -0.0174681 -0.00251052 -0.00850586 0.00658233 -0.00933001 0.0450796 -0.0164854 0.0141036 0.00572861 -0.00583179 0.0189365 -0.0080739 -0.0254453 -0.0446699 -0.027646 0.0346441 -0.0152513 -0.0451544 0.000510715
internal_weight=1621.59 1029.06 700.213 328.851 189.758 294.606 592.529 139.093 405.608 545.645 372.621 120.049 285.558 172.095 113.464 173.024 127.197 344.363 275.98 101.064 55.3679 174.916 169.851 30.271 20.6905 13.746 20.0991 330.298 14.0648 93.3644
internal_count=6563 4148 2823 1325 765 1184 2415 560 1639 2227 1526 486 1153 696 457 701 512 1402 1106 406 223 700 687 125 86 56 81 1343 59 376
is_linear=0
shrinkage=0.05


Tree=7
num_leaves=31
num_cat=0
split_feature=1 0 1 0 0 0 0 1 0 1 0 1 0 1 0 0 0 0 1 1 1 0 0 0 1 0 1 1 1 1
split_gain=80.6985 56.2153 19.8438 20.2367 19.0351 16.4156 9.88102 7.97711 5.92995 35.9427 5.68737 5.82289 5.26475 5.24915 5.10519 5.99188 9.43458 4.67905 4.08204 8.9056 4.33465 4.11932 4.07161 5.64977 4.33838 4.9283 4.29302 9.02044 4.58251 4.23421
threshold=-0.016391132907091922 0.68571244438168433 -0.65829329901209011 0.9682428426880928 -1.0408542105697058 -2.1238819486007605 -0.72693300057841947 -0.70767038871247456 0.76419274687939176 1.7118070066063649 0.65432163269680621 1.1933475647523279 0.88976254018992817 2.9709227939661695 -0.78971680613836459 -0.28744199727659631 0.010782715776928032 1.5489957718573797 1.2674131993029047 0.13174013619406152 0.97115066110059767 0.99963365437251361 -1.3547754205605351 -1.1507253247522915 -0.80642456811324348 -1.3233824266854681 -0.58422766446151331 -0.26327658140901428 -0.78173602326305114 -0.41140785051016771
decision_type=2 2 2 2 2 2 2 2 2 2 2 2 2 2 2 2 2 2 2 2 2 2 2 2 2 2 2 2 2 2
left_child=1 4 3 -3 5 -1 -2 -6 9 10 -8 -12 -4 18 -9 -16 -17 -14 19 -10 -21 -22 -7 24 25 -24 28 -28 -25 -26
right_child=6 2 12 -5 7 22 8 14 13 -11 11 -13 17 -15 15 16 -18 -19 -20 20 21 -23 23 26 29 -27 27 -29 -30 -31
leaf_value=-0.035161884048654383 0.0073559744091661987 0.0387657382657315 0.0032490059942621879 0.0037066270338296202 0.0019842735935675618 0.018643418529048352 -0.013521106662977764 -0.030853596008715085 0.015302703687078371 -0.068186739701593405 -0.07210062956339669 -0.014907703642650561 0.045370045268408876 -0.072361422047643773 -0.001433688890117019 -0.032813620929238972 -0.0016320762677318286 0.0038566948087540237 -0.004078029459047932 -0.075368646369510975 -0.04232480062195286 0.02010614846585991 -0.086736554797115339 0.026707363821628007 0.033103278946584512 -0.011072697450624879 0.097984110542663885 -0.0063364303810412694 -0.0045451239936512636 -0.0053644855334368281
leaf_weight=18.476125448942184 46.899939730763435 61.262779384851456 8.9289092421531659 125.09440760314465 170.14179775118828 158.12772001326084 318.2045671492815 31.615043938159943 9.5843167304992694 35.100925609469414 8.5263700187206286 9.3301201462745649 119.45431311428547 3.0983838737010947 112.16984887421131 52.303881779313087 45.188032805919647 7.2169285714626303 139.53242261707783 6.7902803122997311 10.199803978204725 3.4860435724258414 2.2197163701057425 24.977940618991848 11.746294200420381 30.60911451280117 4.4999881982803345 3.7499901652336103 21.988703012466434 17.999952793121338
leaf_count=78 188 247 36 505 684 634 1294 129 39 157 37 38 483 14 455 213 183 29 562 30 42 14 9 100 47 123 18 15 88 72
internal_value=7.34957e-05 0.0085377 0.0258481 0.0152465 0.00063903 0.010344 -0.0146512 -0.00630628 -0.01655 -0.0201114 -0.0150713 -0.0424664 0.040396 -0.00888827 -0.012151 -0.0093174 -0.0183773 0.0430098 -0.00768669 -0.024368 -0.0429209 -0.026392 0.0134028 0.00635768 -0.00392792 -0.0164366 0.018 0.0510577 0.0120971 0.00988581
internal_weight=1618.52 1027.77 321.957 186.357 705.814 294.396 590.753 411.419 543.853 371.162 336.061 17.8565 135.6 172.691 241.277 209.662 97.4919 126.671 169.593 30.0604 20.4761 13.6858 275.919 117.792 62.5751 32.8288 55.2166 8.24998 46.9666 29.7462
internal_count=6563 4148 1300 752 2848 1184 2415 1664 2227 1526 1369 75 548 701 980 851 396 512 687 125 86 56 1106 472 251 132 221 33 188 119
is_linear=0
shrinkage=0.05


Tree=8
num_leaves=31
num_cat=0
split_feature=1 0 0 1 0 0 0 0 0 0 1 0 1 0 0 1 0 1 0 0 0 0 0 0 1 0 0 0 0 0
split_gain=73.0634 50.9772 17.7192 15.7315 19.5927 14.8911 9.02813 9.94486 8.96565 8.56185 8.52328 19.6636 6.35815 5.77478 5.39978 33.9642 5.05589 4.90945 4.66255 5.43089 8.7479 4.30776 4.1014 3.97311 3.91466 5.1037 4.91389 4.80392 4.41462 3.89889
threshold=-0.016391132907091922 0.62292863882128191 -1.0408542105697058 -0.65829329901209011 1.0310266482480379 -2.1238819486007605 1.2193802471189772 1.3449478582393246 -0.72693300057841947 0.88976254018992817 -0.88049020266382005 0.9682428426880928 -0.70767038871247456 0.71710543825720874 0.76419274687939176 1.8352497308573261 0.76419274687939176 2.9709227939661695 -0.78971680613836459 -0.28744199727659631 0.010782715776928032 1.5646922687946845 0.68571244438168433 1.5489957718573797 -0.88049020266382005 -1.7942642416721695 -1.4803430316808828 -1.4175592261209375 -1.6686966305518218 0.12065601215015968
decision_type=2 2 2 2 2 2 2 2 2 2 2 2 2 2 2 2 2 2 2 2 2 2 2 2 2 2 2 2 2 2
left_child=1 2 5 4 10 -1 -6 -8 -2 -5 11 16 -4 -12 15 22 -3 -16 -14 -20 -21 -11 29 -9 26 -26 28 -28 -7 -10
right_child=8 3 12 9 6 24 7 23 14 21 13 -13 18 -15 17 -17 -18 -19 19 20 -22 -23 -24 -25 25 -27 27 -29 -30 -31
leaf_value=-0.033699130996074321 0.0069868654306498752 0.08770073302731908 0.0011824394272190262 -0.0032814573635831638 -0.028277969453887854 0.0021048017991284244 0.077818508673634781 0.0056427937937796879 -0.01917231460437278 0.043084065835257784 -0.057416779073322335 -0.062451550794507538 -0.029435660415631688 0.048139253432607748 -0.0073190125467911676 -0.07315127588358622 0.023716269730829759 -0.070633951464865952 -0.001362290653893316 -0.031323535683076005 -0.00065645691620310343 -0.0012600208819489296 -0.041612999583740817 -0.058704766705876682 0.038251268014348506 0.013585870229581116 -0.043171347003818528 1.3029525978985784e-05 0.036469801892849665 -0.0082766957536619667
leaf_weight=18.322506666183472 46.913654237985611 3.458061799407008 167.19203436374664 11.894339114427565 21.712378412485123 21.486152112483978 4.6929335445165625 74.090358093380928 166.73690560460091 120.31712204217911 1.2494363337755192 6.774099886417388 31.489119932055473 50.285505771636963 169.31830234825611 26.938211560249329 24.727112054824829 3.019887000322341 112.15198196470737 52.063355758786201 41.967086359858513 5.7318015545606604 13.746630042791365 2.3793558478355399 23.928358197212219 167.67439052462578 7.6258511990308753 38.69154679775238 16.457105427980423 162.19367645680904
leaf_count=78 188 14 672 48 89 86 19 297 682 489 5 28 129 203 687 124 100 14 455 213 170 23 59 10 96 671 31 156 66 661
internal_value=6.7935e-05 0.00812265 0.000496865 0.0244041 0.015036 0.00983361 0.000284147 0.00795039 -0.01397 0.0372445 0.032561 0.0134502 -0.00628824 0.0454739 -0.015785 -0.0191931 0.0318489 -0.0084688 -0.0115418 -0.00879608 -0.0176516 0.0410682 -0.0149313 0.00356657 0.0127362 0.0166846 0.00374865 -0.00717468 0.0170666 -0.0138039
internal_weight=1615.23 1026.36 699.049 327.313 189.369 294.186 102.875 81.1626 588.867 137.943 86.4942 34.9593 404.864 51.5349 541.954 369.615 28.1852 172.338 237.672 206.182 94.0304 126.049 342.677 76.4697 275.863 191.603 84.2607 46.3174 37.9433 328.931
internal_count=6563 4148 2823 1325 765 1184 415 326 2415 560 350 142 1639 208 2227 1526 114 701 967 838 383 512 1402 307 1106 767 339 187 152 1343
is_linear=0
shrinkage=0.05


Tree=9
num_leaves=31
num_cat=0
split_feature=1 0 0 1 0 0 0 0 0 1 0 0 0 1 0 0 1 1 0 1 0 1 0 0 0 0 1 1 1 0
split_gain=66.143 46.2546 16.01 14.3322 17.8066 13.5119 8.19599 8.13042 7.80526 7.72119 18.153 6.8998 5.87133 5.35178 5.25701 5.232 7.65483 7.0451 4.92949 32.0406 4.72864 4.60197 4.04142 3.9446 3.87815 3.77612 3.80751 3.78911 3.76491 14.5872
threshold=-0.016391132907091922 0.62292863882128191 -1.0408542105697058 -0.65829329901209011 1.0310266482480379 -2.1238819486007605 1.1879872532434528 -0.72693300057841947 0.88976254018992817 -0.88049020266382005 0.90545903712769038 1.3449478582393246 -0.30313849421435851 -0.70767038871247456 0.71710543825720874 -0.55427589864524263 -0.36203076080978319 -0.31265367110939873 0.76419274687939176 1.8352497308573261 1.0000000180025095e-35 2.9709227939661695 0.76419274687939176 1.5489957718573797 -0.50718640783241342 0.68571244438168433 1.2427246544527124 1.3908559235538658 -0.73235893356266668 1.1252034476835076
decision_type=2 2 2 2 2 2 2 2 2 2 2 2 2 2 2 2 2 2 2 2 2 2 2 2 2 2 2 2 2 2
left_child=1 2 5 4 9 -1 28 -2 -5 10 22 13 15 -8 -11 16 -4 -17 19 25 -14 -20 -3 -10 -19 -9 -27 -28 -6 -30
right_child=7 3 12 8 6 -7 11 18 23 14 -12 -13 20 -15 -16 17 -18 24 21 -21 -22 -23 -24 -25 -26 26 27 -29 29 -31
leaf_value=-0.032303817154088942 0.0066365421862272138 0.084391436349812721 -0.0029853423432542152 -0.0031197206255447704 -0.045233309199809696 0.012106073197981843 0.085570378111266832 -0.013140747946257534 0.041430640951627545 -0.05474191986513384 -0.047216557228031947 0.0033847227783950686 -0.024045030069314358 -0.030051239336020621 0.045963536598496058 0.00044386973392634022 -0.031807167964081291 -0.0066279150530964871 -0.0069582568249468169 -0.071497728913010206 -0.0039728391085723895 -0.069056383746111435 0.026397729716923474 0.0032841799430802249 0.045032828302027629 -0.067476017511670081 0.06166423935505997 -0.031290028334375684 0.070537518005571273 -0.060988968143552508
leaf_weight=18.166572600603104 46.925513505935669 3.4188670516014126 144.34285217523575 11.890711799263952 12.330882862210276 275.73221823573112 4.4067505598068237 328.28369019925594 118.13673935830593 1.2498302310705174 9.1618534922599775 76.456384286284447 67.20235013961792 1.2309631407260884 50.043346658349037 93.353705480694771 27.318638786673546 4.7108671516180065 169.20016776025295 26.204073309898376 52.104216024279594 2.9387724101543418 22.19624251127243 7.2081091105937949 15.435902684926985 6.4639061391353589 1.24496154487133 5.900903195142746 3.7368320971727353 4.5787883102893829
leaf_count=78 188 14 584 48 51 1106 18 1343 483 5 38 307 275 5 203 376 112 19 687 124 211 14 90 29 62 29 5 25 15 19
internal_value=6.33091e-05 0.00773192 0.000471574 0.0232781 0.0143288 0.00935094 0.000269986 -0.013315 0.0355714 0.0310907 0.0128515 0.00735782 -0.00598115 0.0602413 0.043408 -0.00208265 -0.00758797 0.00624312 -0.015049 -0.0183152 -0.0152897 -0.00805788 0.0344363 0.0392413 0.0329801 -0.0142194 -0.0399524 -0.0144679 -0.0278121 -0.0017484
internal_weight=1611.58 1024.41 698.367 326.046 188.811 293.899 102.741 587.162 137.236 86.0701 34.777 82.0941 404.469 5.63771 51.2932 285.162 171.661 113.5 540.236 368.098 119.307 172.139 25.6151 125.345 20.1468 341.893 13.6098 7.14586 20.6465 8.31562
internal_count=6563 4148 2823 1325 765 1184 415 2415 560 350 142 330 1639 23 208 1153 696 457 2227 1526 486 701 104 512 81 1402 59 30 85 34
is_linear=0
shrinkage=0.05


Tree=10
num_leaves=31
num_cat=0
split_feature=1 0 0 0 0 0 0 1 1 0 0 1 1 0 0 0 1 0 1 1 1 0 0 0 1 0 1 1 0 0
split_gain=53.3169 47.3751 11.6656 11.1034 16.8207 8.05538 8.11903 35.1819 10.0601 10.1479 8.58352 8.45299 6.22539 8.45373 7.17015 5.44182 8.71957 20.0671 5.10469 4.31313 4.04334 4.03614 3.95731 5.6319 5.46422 4.48934 4.45629 6.59792 3.66275 3.28646
threshold=-0.16452240200824533 0.62292863882128191 1.3920351668615076 -1.3547754205605351 -2.1238819486007605 -0.72693300057841947 0.87406604325262338 1.8846268205577104 0.03298595679329256 1.3763408521143916 1.0624196421235623 1.0452162956511746 -0.63360475416189777 0.9682428426880928 0.85836954631486118 1.1879872532434528 -0.75704747841285902 1.1095069507457456 2.9709227939661695 0.082363046493677053 -0.88049020266382005 -1.8570480472321147 -0.36592229977430368 0.15204682383503784 -0.60891620931170554 0.29331093189269036 -0.36203076080978319 -0.73235893356266668 -0.44440260227201106 -1.4803430316808828
decision_type=2 2 2 2 2 2 2 2 2 2 2 2 2 2 2 2 2 2 2 2 2 2 2 2 2 2 2 2 2 2
left_child=1 3 12 4 -1 -2 7 28 9 10 -8 19 13 -3 -14 16 -15 -18 -13 -10 29 -22 -5 24 -24 26 27 -25 -7 -6
right_child=5 2 -4 22 20 6 8 -9 11 -11 -12 18 14 15 -16 -17 17 -19 -20 -21 21 -23 23 25 -26 -27 -28 -29 -30 -31
leaf_value=-0.034293443256761036 0.0072730446888520373 0.035705718221590771 0.0064811848131773389 -0.0010584605895130465 0.012943901480190671 -0.026226147462169835 0.079152177228182186 -0.070416921920541609 -0.0037586347455464708 0.044176066374174858 -0.067380981056580067 -0.003480466874006426 -0.0056594396143881329 -0.02280420515711485 0.043200452235739657 0.031313704412825695 0.042872128885987966 -0.057139806175054444 -0.067763224121457605 -0.074124450525002938 0.047626401333275989 0.018225103583154045 -0.0043016387865550364 0.1010561533603449 -0.026904447531648192 -0.005647507312592742 0.091568338803958968 -0.018176265859532123 -0.010721205011996001 -0.014925052182863958
leaf_weight=18.240283384919167 56.667014896869659 63.382628425955772 72.57442232966423 347.52809290587902 36.65268374979496 42.538312271237373 1.2150073051452661 27.794506505131721 3.1804785877466184 18.570458233356476 4.1537686586380005 137.60215513408184 8.1743051260709745 21.18871958553791 89.198689624667168 21.754585832357407 21.454805940389637 6.4431000649929038 3.0597717314958564 6.884831041097641 13.416096687316893 88.628891572356224 51.310875281691551 1.4920927584171293 55.838250279426575 14.601214617490767 2.7116827666759509 4.1970783621072769 362.60456246137619 14.760174125432966
leaf_count=79 227 259 292 1402 147 176 5 133 13 76 17 555 33 88 367 88 87 27 15 31 54 355 207 6 229 59 11 17 1489 60
internal_value=0.000128069 0.00770374 0.0239843 7.53398e-05 0.0109768 -0.0107462 -0.0124276 -0.0160982 -0.00332564 0.0267167 -0.0333781 -0.00811167 0.029464 0.0224517 0.0390971 0.0105595 0.00131655 0.0196525 -0.00492594 -0.0521457 0.0163766 0.0221334 -0.00384459 -0.0112776 -0.0160947 0.0111341 0.040025 0.0143001 -0.0123552 0.00492953
internal_weight=1617.82 953.549 304.171 649.377 171.698 664.271 607.604 432.937 174.666 23.9392 5.36878 150.727 231.597 134.224 97.373 70.8412 49.0866 27.8979 140.662 10.0653 153.458 102.045 477.679 130.151 107.149 23.0021 8.40085 5.68917 405.143 51.4129
internal_count=6604 3867 1241 2626 695 2737 2510 1798 712 98 22 614 949 549 400 290 202 114 570 44 616 409 1931 529 436 93 34 23 1665 207
is_linear=0
shrinkage=0.05


Tree=11
num_leaves=31
num_cat=0
split_feature=1 0 0 0 0 0 0 1 1 0 0 1 1 1 0 0 1 0 0 1 0 1 1 0 1 0 0 1 0 1
split_gain=48.2756 42.9909 10.6707 10.0363 15.2702 7.30245 7.37701 30.4282 9.28642 9.25154 8.37739 7.91915 6.69358 5.70889 7.69327 6.55568 5.56462 7.59219 4.91427 7.90604 18.2494 4.2859 3.65583 3.68236 3.65378 3.57868 5.10916 4.97194 4.05719 3.97119
threshold=-0.16452240200824533 0.62292863882128191 1.3920351668615076 -1.3547754205605351 -2.1238819486007605 -0.72693300057841947 0.74849843213227574 1.8352497308573261 1.0000000180025095e-35 1.3763408521143916 1.0781139568706783 1.0205277508009825 0.082363046493677053 -0.63360475416189777 0.9682428426880928 0.85836954631486118 2.6746602557638623 1.3920351668615076 1.1879872532434528 -0.75704747841285902 1.1095069507457456 2.9709227939661695 -0.88049020266382005 -1.8570480472321147 -0.11514531230786086 -0.36592229977430368 0.15204682383503784 -0.60891620931170554 0.29331093189269036 -0.36203076080978319
decision_type=2 2 2 2 2 2 2 2 2 2 2 2 2 2 2 2 2 2 2 2 2 2 2 2 2 2 2 2 2 2
left_child=1 3 13 4 -1 -2 7 -7 9 10 24 12 -10 14 -3 -15 -13 -18 19 -16 -21 -19 -6 -24 -8 -5 27 -27 29 -28
right_child=5 2 -4 25 22 6 8 -9 11 -11 -12 16 -14 15 18 -17 17 21 -20 20 -22 -23 23 -25 -26 26 28 -29 -30 -31
leaf_value=-0.032914010619765698 0.006908882382091374 0.034108276289283333 0.0061564111045395555 -0.0010056260360708506 0.0046871327134271907 -0.012187997366966026 -0.025800115080680926 -0.068703303190570858 -0.0026663316905767452 0.045454144484048942 -0.080805701697626409 -0.0012090949869494948 -0.068160359264491252 -0.0053828517884921268 -0.021742811659125019 0.041363434626492383 -0.085899213062542834 0.0021991218318660067 0.029789400753029646 0.040922128126888897 -0.05483463000916447 -0.066277466691385178 0.045461726164751838 0.017325726380639003 0.087969977372710853 -0.0040885716276847298 0.013656074819232675 -0.025673210515389028 -0.0053700668925660009 0.086400814190948139
leaf_weight=18.063266709446907 56.676229566335678 63.046867862343788 72.587794914841652 347.50325989723206 51.365199863910675 378.85075245797634 1.2201822400093081 25.322891354560852 6.6343109458684948 16.461404919624329 3.195436879992485 144.61997506022453 9.398814305663107 8.1698597669601423 21.118609458208084 88.52387523651123 4.5155188441276577 11.161527335643767 21.730082646012306 21.360455781221393 6.3839673101901999 2.7713870704174033 13.358371853828428 88.574685752391815 1.4646434336900735 51.291320696473122 5.6875926107168198 55.601262867450714 14.593175783753393 2.7354732304811495
leaf_count=79 227 259 292 1402 207 1558 5 127 27 68 13 585 43 33 88 367 19 45 88 87 27 14 54 355 6 207 23 229 59 11
internal_value=0.000121354 0.00733479 0.0228836 7.24422e-05 0.0104489 -0.0102437 -0.0118498 -0.015745 -0.00403048 0.0262937 -0.0272077 -0.00782578 -0.0412442 0.02815 0.0214255 0.0374123 -0.00451676 -0.0302997 0.0100662 0.00125216 0.0187708 -0.0117968 0.0155766 0.0210539 0.0371947 -0.00365349 -0.0107303 -0.0153295 0.0106038 0.0380172
internal_weight=1613.99 951.695 302.922 648.774 171.362 662.293 605.617 404.174 201.443 22.3417 5.88026 179.102 16.0331 230.334 133.64 96.6937 163.068 18.4484 70.5931 48.863 27.7444 13.9329 153.298 101.933 2.68483 477.412 129.909 106.893 23.0162 8.42307
internal_count=6604 3867 1241 2626 695 2737 2510 1685 825 92 24 733 70 949 549 400 663 78 290 202 114 59 616 409 11 1931 529 436 93 34
is_linear=0
shrinkage=0.05


Tree=12
num_leaves=31
num_cat=0
split_feature=1 0 0 0 0 0 0 0 1 1 0 0 1 1 1 0 1 1 1 1 0 1 1 0 1 0 0 1 1 0
split_gain=43.7191 39.0312 9.77597 9.072 13.8628 7.39953 6.62152 6.69152 28.8298 8.43103 8.42437 7.53617 7.29975 6.30858 5.091 7.00362 4.94654 7.88639 4.48007 5.13833 13.3799 4.92686 6.42848 12.1587 4.35667 15.5345 4.75663 4.02288 3.35238 3.31532
threshold=-0.16452240200824533 0.62292863882128191 1.3606443551770868 -1.3547754205605351 -2.1238819486007605 1.203683750181215 -0.72693300057841947 0.74849843213227574 1.8352497308573261 1.0000000180025095e-35 1.3763408521143916 1.0781139568706783 1.0205277508009825 0.082363046493677053 2.6746602557638623 1.3920351668615076 -0.28796512625920651 -0.48547348506074439 -0.38671930565997542 -0.63360475416189777 1.0310266482480379 -0.88049020266382005 -0.70767038871247456 1.1408999446212698 -0.88049020266382005 0.9211533518748064 0.73280193519451353 2.9709227939661695 -0.11514531230786086 1.454821154612099
decision_type=2 2 2 2 2 2 2 2 2 2 2 2 2 2 2 2 2 2 2 2 2 2 2 2 2 2 2 2 2 2
left_child=1 3 5 4 -1 18 -2 8 -8 10 11 28 13 -11 -14 -16 17 -4 19 20 24 -22 -23 -24 25 -3 -26 -17 -9 -12
right_child=6 2 16 -5 -6 -7 7 9 -10 12 29 -13 14 -15 15 27 -18 -19 -20 -21 21 22 23 -25 26 -27 -28 -29 -30 -31
leaf_value=-0.031593808469143489 0.0065631710496174478 0.033898474499745153 0.0080056188573856511 -0.0034725453423760776 0.01481350556367618 0.047128085033854822 -0.011601830107997452 -0.024569005652528484 -0.067439946919044966 -0.0025350564316787088 0.030553149578867941 -0.076227914362526919 -0.0011488204901091532 -0.066441305880290111 -0.082919953984562492 0.0020897316292304981 0.08043264685781383 -0.091688290165862718 -0.0098278250029460897 0.037647360817087222 0.048690347764570138 -0.046614723736251619 0.043852374887319107 -0.073610249395460001 -0.042564016065420394 -0.042993220626998521 0.039693426924004183 -0.065050380315867781 0.084568456445639303 0.083538569258753012
leaf_weight=17.885935723781586 56.683601766824722 25.239540621638298 81.920557275414467 477.13729257881641 153.16470901668072 39.349899381399155 378.11627872288227 1.2222131043672564 24.52939535677433 6.6341556757688513 12.446842178702356 3.2231939733028412 144.6026706546545 9.1683360785245878 4.4491221010684994 11.163691207766531 2.16908836364746 1.93321993947029 9.69633501768112 54.467579334974289 2.7169497758150127 11.739330336451534 7.0250328183174098 3.0900266021490097 1.7407488077878941 8.7733614146709424 51.719544559717178 2.6865215599536887 1.4517127722501779 3.876380428671836
leaf_count=79 227 104 329 1931 616 164 1558 5 127 27 52 13 585 43 19 45 9 8 40 227 11 50 29 13 7 37 213 14 6 16
internal_value=0.000114508 0.00698391 0.0218406 6.92829e-05 0.00994529 0.0275258 -0.00976662 -0.011301 -0.0150194 -0.0038458 0.0251316 -0.0257756 -0.00746093 -0.039797 -0.00430164 -0.0290738 0.00757884 0.00560074 0.0231241 0.0250477 0.0188946 -0.0136635 -0.0216019 0.00759966 0.0280454 0.013997 0.0369405 -0.0113064 0.0355959 0.043568
internal_weight=1610.02 949.769 301.581 648.188 171.051 215.558 660.254 603.571 402.646 200.925 22.2203 5.89712 178.704 15.8025 162.902 18.2993 86.0229 83.8538 176.208 166.512 112.045 24.5713 21.8544 10.1151 87.4732 34.0129 53.4603 13.8502 2.67393 16.3232
internal_count=6604 3867 1241 2626 695 895 2737 2510 1685 825 92 24 733 70 663 78 346 337 731 691 464 103 92 42 361 141 220 59 11 68
is_linear=0
shrinkage=0.05


Tree=13
num_leaves=31
num_cat=0
split_feature=1 0 1 0 0 0 0 0 1 0 1 0 0 0 0 0 1 1 1 0 1 0 1 0 1 0 0 0 0 0
split_gain=39.6332 36.5569 8.56346 9.9153 9.33342 8.87871 8.51295 10.3721 7.89352 7.10731 6.25855 7.86357 6.06658 5.98541 5.46816 5.60471 27.3665 7.22891 6.73397 6.03087 5.95745 4.84925 4.6622 6.48769 4.56869 10.4362 4.8594 4.45702 4.38412 4.23395
threshold=-0.1398338571580531 0.62292863882128191 -0.68298184386228222 1.0153301513102759 1.172290756306148 1.3449478582393246 -1.0565485253168219 -2.1238819486007605 -0.65829329901209011 -0.77402030920105969 -0.65829329901209011 -1.4489500378053586 -0.39731529364982798 1.5489957718573797 -0.72693300057841947 0.74849843213227574 1.8352497308573261 1.0000000180025095e-35 1.0205277508009825 1.454821154612099 0.082363046493677053 0.18343981771010487 2.6746602557638623 1.3920351668615076 -0.90517874751401239 0.9211533518748064 0.71710543825720874 0.85836954631486118 -1.7628712477966451 0.37179123439039768
decision_type=2 2 2 2 2 2 2 2 2 2 2 2 2 2 2 2 2 2 2 2 2 2 2 2 2 2 2 2 2 2
left_child=1 6 3 24 -5 -6 7 -1 -8 -10 11 -9 -11 -7 -2 16 -16 19 20 -17 -19 -14 -20 -24 25 -3 -26 -4 -12 -23
right_child=14 2 27 4 5 13 8 10 9 12 28 -13 21 -15 15 17 -18 18 22 -21 -22 29 23 -25 26 -27 -28 -29 -30 -31
leaf_value=-0.030328664356758975 0.0056241834096643897 0.027937980166563486 -0.0022229157862189851 -0.029009262857830554 0.061696676164074808 0.0077800519208361231 0.0017951960414052317 0.016114477785272738 -0.035440136712313927 0.0037549560925617259 0.068685918085403516 -0.0041340949920917591 -0.022045458024363099 -0.075912440844811899 -0.010988603796799126 0.010878380203263836 -0.066280411716607368 -0.0024102457123296598 -0.0010915500759336586 0.080729501272546134 -0.064849802545592874 0.034059608208021362 -0.080259581086298604 -0.010837988294601799 -0.058685587640707672 -0.046269241320317449 0.038415851459517994 0.033523580129446416 0.018910681256053198 -0.018709831536232461
leaf_weight=17.709182739257812 54.690216362476349 19.540505722165111 9.4115422666072828 18.03452080488205 7.6092316955327979 73.188782811164856 203.57253424823284 84.659618735313416 28.538370341062546 61.801220059394836 4.7034381031990042 110.32982574403286 72.564199194312096 2.1008652895689002 368.60901135206223 14.859255194664003 23.732550442218781 6.6339872181415549 144.58612602949142 3.8156982064247122 8.9321314096450788 7.9178287833929044 4.372020676732066 13.767208546400068 1.2369689941406239 6.147457391023635 49.895084470510483 116.55137836933136 59.379061490297318 7.1385432332754135
leaf_count=79 219 81 38 77 32 293 819 341 118 252 19 443 299 9 1522 62 127 27 585 16 43 32 19 59 5 26 207 488 238 29
internal_value=0.000107923 0.00653413 0.0208807 0.0138006 0.00349075 0.0105875 -8.69113e-05 0.00658737 -0.0049292 -0.0126181 0.00912154 0.00466109 -0.00823844 0.00534712 -0.00949132 -0.0108948 -0.0143492 -0.00401015 -0.00711418 0.0255044 -0.0384245 -0.0166924 -0.00409732 -0.0279187 0.0273244 0.0100687 0.0359568 0.0308531 0.0226653 0.00908213
internal_weight=1606.03 962.03 303.716 177.753 100.933 82.8989 658.314 276.781 381.533 177.96 259.072 194.989 149.422 75.2896 643.998 589.308 392.342 196.966 178.291 18.675 15.5661 87.6206 162.725 18.1392 76.82 25.688 51.1321 125.963 64.0825 15.0564
internal_count=6604 3925 1256 730 411 334 2669 1120 1549 730 1041 784 612 302 2679 2460 1649 811 733 78 70 360 663 78 319 107 212 526 257 61
is_linear=0
shrinkage=0.05


Tree=14
num_leaves=31
num_cat=0
split_feature=1 0 1 0 0 0 1 0 1 0 0 0 0 1 1 1 1 0 0 0 1 0 0 0 0 1 1 0 1 0
split_gain=35.8902 33.2115 7.90012 9.13242 7.69564 9.42892 7.147 6.48063 5.66394 7.10618 5.51046 4.95853 5.08896 25.9936 6.56843 6.21754 5.6355 5.60979 4.8655 4.52935 4.24981 6.0511 4.02286 4.02127 3.81913 4.99172 3.80494 3.71643 3.23842 4.09609
threshold=-0.1398338571580531 0.62292863882128191 -0.63360475416189777 0.9682428426880928 -1.0565485253168219 -2.1238819486007605 -0.65829329901209011 -0.77402030920105969 -0.65829329901209011 -1.4489500378053586 -0.46009909920977315 -0.72693300057841947 0.74849843213227574 1.7118070066063649 1.0000000180025095e-35 1.0205277508009825 0.082363046493677053 1.454821154612099 0.85836954631486118 1.5646922687946845 2.6746602557638623 1.3920351668615076 -1.7628712477966451 0.18343981771010487 0.37179123439039768 -0.23858803655882208 2.9709227939661695 -1.2449021241873035 0.30455995014540721 -0.96237390807199874
decision_type=2 2 2 2 2 2 2 2 2 2 2 2 2 2 2 2 2 2 2 2 2 2 2 2 2 2 2 2 2 2
left_child=1 4 3 -3 5 -1 -6 -8 9 -7 -9 28 13 -13 17 16 -16 -14 -4 -5 -17 -22 -10 -12 -25 -26 -23 -24 29 -2
right_child=11 2 18 19 6 8 7 10 22 -11 23 12 14 -15 15 20 -18 -19 -20 -21 21 26 27 24 25 -27 -28 -29 -30 -31
leaf_value=-0.029114951498272559 0.0056351548854391108 0.02987434145858436 -0.0048873826009673185 0.0079089130501474921 0.0017052689046374054 0.0153272816427768 -0.033884102799313261 0.0049749576723709214 0.065827814814697044 -0.003928143201870655 -0.019471967364723439 -0.010073584482710786 0.010359466585740672 -0.059713016261111855 -0.0022915878780010459 -0.0010371233413914427 -0.063369947755045994 0.078220550010648093 0.034150615802385834 -0.060876663494881134 -0.077871012012880048 0.00252505469305746 0.011149344263380781 0.03228554595484482 0.0082946950429482278 -0.083609321667999517 -0.063731540772387935 0.040975880957432792 0.02247990192084871 -0.034667113153164557
leaf_weight=17.533765867352486 28.460597217082977 61.876114711165428 8.6697902083396894 132.1222025603056 203.59712213277817 84.564861342310905 28.36551171541214 53.664174392819405 4.6675017625093451 110.31433364748955 80.463017523288727 362.50394394993782 14.82918503880501 28.350030094385147 6.6338083297014228 144.57032488286495 8.6921229511499387 3.7461415231227866 97.161895230412483 2.3382992446422568 4.286055505275729 11.154928430914877 45.855132862925529 7.9401485919952375 5.1596163213253021 1.9618355631828306 2.5871832966804496 13.476200044155119 18.242362663149834 7.9914628565311423
leaf_count=79 114 259 35 541 819 341 118 219 19 443 332 1497 62 152 27 585 43 16 411 10 19 45 184 32 21 8 14 54 73 32
internal_value=0.000101534 0.00622291 0.0199408 0.0139933 -8.29359e-05 0.00626756 -0.00468876 -0.0120175 0.00867432 0.00443103 -0.00784002 -0.00904822 -0.010389 -0.0136885 -0.00382253 -0.00678005 -0.0371185 0.0243908 0.030951 0.00666836 -0.0038994 -0.0267201 0.0215683 -0.0150369 0.0086283 -0.0178305 -0.0103192 0.0179815 0.00534307 -0.00327107
internal_weight=1601.78 959.732 302.168 196.337 657.563 276.412 381.151 177.554 258.878 194.879 149.189 642.048 587.354 390.854 196.5 177.924 15.3259 18.5753 105.832 134.461 162.598 18.0282 63.9988 95.5246 15.0616 7.12145 13.7421 59.3313 54.6944 36.4521
internal_count=6604 3925 1256 810 2669 1120 1549 730 1041 784 612 2679 2460 1649 811 733 70 78 446 551 663 78 257 393 61 29 59 238 219 146
is_linear=0
shrinkage=0.05


Tree=15
num_leaves=31
num_cat=0
split_feature=1 0 1 0 0 0 0 0 0 1 0 0 1 1 1 1 0 1 0 0 0 0 1 0 1 1 0 1 1 0
split_gain=39.9029 24.6503 10.6632 10.6267 7.73278 6.68965 9.66145 7.50386 6.27769 5.25147 5.11859 4.54179 4.33397 3.95596 4.63709 4.29505 4.51919 3.95104 9.86596 4.0218 4.29929 3.72489 25.1912 3.76746 15.6031 5.38015 5.74964 4.35166 3.98769 4.29273
threshold=-0.016391132907091922 0.2776166171455744 -0.63360475416189777 -0.30313849421435851 0.9682428426880928 -2.1238819486007605 -1.3704697353076511 -0.53857940170748042 -0.75832381226329759 -0.85580165781362794 -0.20896169477888907 0.85836954631486118 0.27987140529521498 -0.31265367110939873 -0.63360475416189777 -0.51016202991093651 -0.50718640783241342 -0.38671930565997542 -0.91528441725871224 -1.3233824266854681 -1.2762951180628279 0.76419274687939176 1.7858726411569414 0.54444833632357459 0.97115066110059767 1.5883642823554036 -0.36592229977430368 1.4155444684040581 0.47737976409675292 0.63862513575904412
decision_type=2 2 2 2 2 2 2 2 2 2 2 2 2 2 2 2 2 2 2 2 2 2 2 2 2 2 2 2 2 2
left_child=1 3 4 5 -3 -1 -7 17 12 10 -5 -4 -2 14 -9 -16 -17 19 -19 -8 -21 22 23 25 28 26 -10 -26 -25 -30
right_child=8 2 11 9 -6 6 7 13 21 -11 -12 -13 -14 -15 15 16 -18 18 -20 20 -22 -23 -24 24 27 -27 -28 -29 29 -31
leaf_value=-0.025871165326141532 -0.0032949191112987041 0.023662111495760245 0.0082830240853675897 -0.053125163283481228 0.0030810948276543929 0.015480972311988703 -0.042006804888306853 0.014275328586978116 -0.023780607326593432 -0.01693649537016596 0.048616557447206485 0.032319686382081311 0.031896193238905926 0.033608096500178646 -0.038307952381276461 0.079071915113333571 -0.0052682011976012862 0.0069934448946772435 -0.035056485255064926 0.040916030846698419 -0.00093553274157442468 -0.0054132112433600346 -0.063090107194420528 -0.080009441781145899 0.024630970450618021 -0.049107718711997324 -0.0044908160537557428 -0.01604884973998549 -0.014088757984070062 -0.070784851342311786
leaf_weight=18.678840100765228 23.719466373324394 68.901222378015518 23.910429731011391 1.4831233620643614 134.90979665517807 146.21941129863262 5.686118856072425 66.189204066991806 45.854135751724243 97.14044351875782 5.6905750185251227 112.46347667276859 13.747040703892706 17.382554233074188 9.0784874111413973 1.7281482815742482 12.033609852194784 25.950382024049759 29.992067575454712 6.206068441271781 227.96174788475037 173.06687580049038 24.599556282162666 8.8563515245914477 12.063149154186251 7.913010209798812 242.88812933862209 14.208877488970755 8.4717076420783979 5.4811769872903815
leaf_count=85 95 289 97 6 553 590 23 266 193 402 23 479 55 70 37 7 49 104 124 25 920 712 138 38 50 34 998 60 35 26
internal_value=0.000335722 0.00633304 0.0172961 0.000776716 0.010047 0.00347506 0.0044791 0.000476607 -0.0101081 -0.0138822 0.0271408 0.0281145 0.00966778 0.0118567 0.00757689 -0.0118123 0.00581693 -0.00361997 -0.0155728 -0.00082681 0.000190637 -0.0114731 -0.0143029 -0.0108144 -0.0236365 -0.00868572 -0.00756133 0.0026524 -0.0537958 -0.0367062
internal_weight=1592.48 1011.61 340.185 671.421 203.811 567.107 548.428 402.208 580.869 104.314 7.1737 136.374 37.4665 106.412 89.0294 22.8402 13.7618 295.796 55.9424 239.854 234.168 543.403 370.336 345.737 49.0813 296.655 288.742 26.272 22.8092 13.9529
internal_count=6583 4149 1418 2731 842 2300 2215 1625 2434 431 29 576 150 429 359 93 56 1196 228 968 945 2284 1572 1434 209 1225 1191 110 99 61
is_linear=0
shrinkage=0.05


Tree=16
num_leaves=31
num_cat=0
split_feature=1 0 1 0 0 0 0 1 0 0 1 1 0 1 0 1 1 0 1 1 0 0 0 1 0 0 0 0 0 0
split_gain=36.1402 22.3804 11.8146 7.70569 9.84067 7.26176 5.69102 4.36068 7.21669 5.67454 4.30808 3.91357 3.41072 23.9328 3.46408 14.4225 4.9764 5.42813 3.9252 3.74131 4.17464 3.28106 7.28306 3.18501 2.89886 3.90683 2.85952 2.84973 2.66173 2.58041
threshold=-0.016391132907091922 0.62292863882128191 -0.63360475416189777 -1.2762951180628279 -2.1238819486007605 0.9682428426880928 -0.75832381226329759 -0.63360475416189777 -1.0565485253168219 -0.7426273153255355 -0.38671930565997542 0.27987140529521498 0.76419274687939176 1.7858726411569414 0.54444833632357459 0.97115066110059767 1.514298647804827 -0.36592229977430368 1.4155444684040581 0.47737976409675292 0.57584133019909889 -0.52288290476971822 -0.66414701282782806 2.9709227939661695 -0.33453148808942551 0.073566521337330493 -0.94667741113423653 1.4862119662969773 1.5646922687946845 -0.53857940170748042
decision_type=2 2 2 2 2 2 2 2 2 2 2 2 2 2 2 2 2 2 2 2 2 2 2 2 2 2 2 2 2 2
left_child=1 3 5 4 -1 -3 11 21 10 -10 -9 -2 13 14 16 19 17 -8 -17 -16 -21 22 -5 -14 29 -26 -13 -4 -7 -11
right_child=6 2 27 7 -6 28 12 8 9 24 -12 26 23 -15 15 18 -18 -19 -20 20 -22 -23 -24 -25 25 -27 -28 -29 -30 -31
leaf_value=-0.024815047426885856 -0.0031310779011440009 0.023579551737358716 0.031034211183605189 0.0014306665793954671 0.013521141106252733 0.0037763670547948155 -0.022714625686197688 0.046886503316394615 -0.030470620169183057 -0.0081476130627031618 0.0026703634267736687 0.093385186813819229 -0.0043380863961347202 -0.062080605531959078 -0.077672984618344265 0.02332203075519565 -0.03974412215922124 -0.0039045794283387491 -0.015305360450466078 0.02698977728184675 -0.047278004964803659 0.0091751536953208965 -0.030397798698785533 -0.062286631439289301 -0.019770735477729364 0.0015755190356914681 0.021890981173556149 -0.0045556791972864458 -0.054916775924320121 0.010774204880224715
leaf_weight=18.508786559104919 23.71787890791893 62.102629497647285 115.08406274020672 162.92735587060452 167.19421228766441 133.05697174370289 45.616597354412079 8.4659322798252123 30.266296073794365 38.943872138857841 15.472624242305754 1.4999533295631398 170.65218967199326 23.772217601537704 8.6742234975099581 12.107603415846826 11.95097357034683 238.57575064897537 14.160273060202597 2.1898070722818366 11.587062641978262 100.091402977705 20.10058431327343 2.3053897470235816 64.208484396338463 32.130457162857056 12.248906016349791 5.8882423192262641 1.860341727733611 33.35816153883934
leaf_count=85 95 263 493 653 675 545 193 34 127 160 62 6 699 138 38 50 51 981 60 9 52 403 82 13 269 131 49 24 8 135
internal_value=0.000317899 0.00602877 0.0170054 0.000980592 0.00968892 0.00944554 -0.00963903 -0.00221689 -0.0074473 -0.0105702 0.0184375 0.00918807 -0.0109429 -0.0136606 -0.0103059 -0.0226513 -0.00826793 -0.00693077 0.00252002 -0.0519824 -0.0353639 0.0019012 -0.00207951 -0.00514604 -0.00698275 -0.0126572 0.0303087 0.0292996 0.00292699 0.000585215
internal_weight=1588.72 1009.66 317.992 691.668 185.703 197.02 579.059 505.965 222.846 198.907 23.9386 37.4667 541.592 368.635 344.862 48.719 296.143 284.192 26.2679 22.4511 13.7769 283.119 183.028 172.958 168.641 96.3389 13.7489 120.972 134.917 72.302
internal_count=6583 4149 1333 2816 760 816 2434 2056 918 822 96 150 2284 1572 1434 209 1225 1174 110 99 61 1138 735 712 695 400 55 517 553 295
is_linear=0
shrinkage=0.05


Tree=17
num_leaves=31
num_cat=0
split_feature=1 0 1 0 0 0 0 0 0 1 0 1 0 0 1 1 1 0 1 0 0 0 0 1 0 0 1 0 0 1
split_gain=32.7304 20.3409 9.32978 9.02569 5.90476 5.54974 7.92284 6.32042 5.17879 4.54553 4.74786 4.09154 3.767 3.8812 3.58604 4.13717 3.8641 4.05211 3.55746 8.63856 3.79201 3.7165 3.51901 6.39807 11.1929 6.23634 5.13936 3.56792 3.0858 22.7921
threshold=-0.016391132907091922 0.2776166171455744 -0.70767038871247456 -0.30313849421435851 0.9682428426880928 -2.1238819486007605 -1.3704697353076511 -0.53857940170748042 -0.77402030920105969 -0.85580165781362794 -0.19326519784112692 0.27987140529521498 1.5333014571102637 0.84267304937709897 -0.31265367110939873 -0.63360475416189777 -0.51016202991093651 -0.50718640783241342 -0.38671930565997542 -0.91528441725871224 -1.3233824266854681 -1.2762951180628279 1.1408999446212698 -0.8311131129634356 1.0624196421235623 1.3449478582393246 -0.75704747841285902 1.5489957718573797 0.76419274687939176 1.7858726411569414
decision_type=2 2 2 2 2 2 2 2 2 2 2 2 2 2 2 2 2 2 2 2 2 2 2 2 2 2 2 2 2 2
left_child=1 3 4 5 -3 -1 -7 18 11 10 -5 -2 13 -4 15 -9 -17 -18 20 -20 -8 -22 23 -6 -25 26 -24 -27 29 -10
right_child=8 2 12 9 22 6 7 14 28 -11 -12 -13 -14 -15 -16 16 17 -19 19 -21 21 -23 25 24 -26 27 -28 -29 -30 -31
leaf_value=-0.023799678761230118 -0.0029753892529542072 0.019644125394966495 0.0086005587428830532 -0.022797570486895114 -0.047070517875412464 0.014061942144652569 -0.040678092192223833 0.013137955876463879 -0.0097829862843194955 -0.015710998195873262 0.05873837012305564 0.03251037707227538 -0.00050923223261668804 0.029826806138823866 0.031575892293837247 -0.036742009317499179 0.074240213290714716 -0.0053574865071660243 0.0064017448212556798 -0.033033550801501353 0.038154413204116902 -0.00071846619039390774 0.071021488402450511 0.032588501294169479 -0.045366550704391467 0.0025984342063016183 -0.013599544173242785 -0.071364987443679292 -0.0048959843296272855 -0.061136614787915239
leaf_weight=18.342104703187943 23.716251775622368 62.01225109398365 25.960697665810585 2.9675797373056412 9.8645731955766696 145.92123186588287 5.6761935353279105 66.275465592741966 345.49682159721851 96.624913588166237 4.2261837571859351 12.242977216839789 14.326410382986067 129.19187001883984 17.42860546708107 9.0298478156328219 1.7421001195907582 12.034684583544729 25.935897618532181 29.724775657057762 6.2192496210336676 227.68144831061363 5.9526724368333817 11.748966097831728 7.4315839260816565 67.226715356111526 2.5098920762538892 1.5709808468818653 172.79608872532845 22.954604715108871
leaf_count=85 95 263 105 12 43 590 23 266 1440 402 17 49 58 557 70 37 7 49 104 124 25 920 25 48 32 269 11 7 712 138
internal_value=0.000300944 0.00573916 0.0157409 0.00069369 0.00739609 0.00317992 0.00408768 0.000462272 -0.00919188 -0.0128511 0.0252517 0.00916304 0.0240192 0.026283 0.0108978 0.00682127 -0.0115121 0.00517025 -0.00330487 -0.0146796 -0.000657179 0.000330999 0.000239569 -0.0145678 0.00230585 0.00581786 0.0460582 0.000808365 -0.0104128 -0.012998
internal_weight=1584.83 1007.63 337.797 669.83 168.318 566.012 547.67 401.748 577.207 103.819 7.19376 35.9592 169.479 155.153 106.511 89.0821 22.8066 13.7768 295.238 55.6607 239.577 233.901 106.305 29.0451 19.1806 77.2603 8.46256 68.7977 541.248 368.451
internal_count=6583 4149 1418 2731 698 2300 2215 1625 2434 431 29 144 720 662 429 359 93 56 1196 228 968 945 435 123 80 312 36 276 2290 1578
is_linear=0
shrinkage=0.05


Tree=18
num_leaves=31
num_cat=0
split_feature=1 0 1 0 0 0 0 1 1 0 0 1 0 1 0 1 1 0 1 0 1 1 1 0 0 0 0 1 0 1
split_gain=29.6294 18.4951 9.97624 6.31713 8.0976 6.14714 4.69111 3.69959 3.52461 6.24391 5.27674 3.97722 2.81685 21.688 3.21023 13.3686 4.6503 4.55953 3.56211 4.11521 9.17892 3.54709 3.01532 2.72748 6.63308 2.56607 3.40601 2.52333 2.4414 2.40417
threshold=-0.016391132907091922 0.62292863882128191 -0.63360475416189777 -1.2762951180628279 -2.1238819486007605 0.9682428426880928 -0.77402030920105969 0.27987140529521498 -0.63360475416189777 -1.0565485253168219 -0.7426273153255355 -0.38671930565997542 0.76419274687939176 1.7858726411569414 0.54444833632357459 0.97115066110059767 1.5883642823554036 -0.36592229977430368 0.47737976409675292 0.63862513575904412 0.57613394349752201 1.4155444684040581 2.9709227939661695 -0.52288290476971822 -0.66414701282782806 -0.33453148808942551 0.073566521337330493 0.92177357140021321 1.4862119662969773 -0.8311131129634356
decision_type=2 2 2 2 2 2 2 2 2 2 2 2 2 2 2 2 2 2 2 2 2 2 2 2 2 2 2 2 2 2
left_child=1 3 5 4 -1 -3 7 -2 23 11 -11 -10 13 14 16 18 17 27 -16 20 -20 -17 -14 24 -5 -12 -27 -8 -4 -7
right_child=6 2 28 8 -6 29 12 -9 9 10 25 -13 22 -15 15 21 -18 -19 19 -21 -22 -23 -24 -25 -26 26 -28 -29 -30 -31
leaf_value=-0.022823097442082829 -0.0028274457215990787 0.021638585895924222 0.02852671956724348 0.0013950421686919473 0.012236939022305014 -0.0056447960769249374 -0.016170690406824093 0.030926066209538292 0.044747664179228347 -0.028918741248426662 0.00093816273976009561 0.0022205479860837557 -0.0038809952639604394 -0.060251351111499131 -0.075316565565024376 0.022607364248200399 -0.045430795269499072 -0.0035645114948707787 0.089594278689563503 -0.068132888359748775 -0.037976504676090705 -0.014141564724017147 -0.061257556717514199 0.0083114326857062718 -0.029039326791875139 -0.018227024997855393 0.0017326801219312204 -0.051360915509438582 -0.0044236150920959182 0.007999888730520056
leaf_weight=18.17911371588707 23.714598119258881 61.455565571784973 113.35519279539585 162.93165345489979 166.86879277229309 53.615457206964493 41.015152588486671 12.232046097517012 8.4392814338207263 30.02740016579628 72.112908735871315 15.467023119330404 170.47182567417622 22.149186491966248 8.4514783173799533 12.130615800619127 7.7131270021200171 242.12491610646248 1.6799262762069682 5.1973207443952552 6.70424585044384 14.081238329410551 2.2216727137565604 100.16956470906734 20.012052327394485 63.719311982393265 32.111895024776459 5.7591552138328543 5.8883939981460562 80.833918705582619
leaf_count=85 95 263 493 653 675 220 174 49 34 127 295 62 699 138 38 50 34 998 7 26 28 60 13 403 82 269 131 25 24 333
internal_value=0.000285874 0.00546588 0.0154996 0.000881762 0.00878217 0.00855195 -0.00875877 0.00871224 -0.00201441 -0.00673149 -0.00964764 0.0173571 -0.00992382 -0.0124015 -0.00931166 -0.0212631 -0.00736121 -0.00632945 -0.0498767 -0.0336112 -0.0116606 0.0028868 -0.00465416 0.00168346 -0.00194819 -0.00618692 -0.0115439 -0.0206039 0.0268972 0.00255854
internal_weight=1580.83 1005.19 315.149 690.039 185.048 195.905 575.647 35.9466 504.991 221.878 197.972 23.9063 539.7 367.006 344.857 48.2448 296.612 288.899 22.033 13.5815 8.38417 26.2119 172.693 283.113 182.944 167.944 95.8312 46.7743 119.244 134.449
internal_count=6583 4149 1333 2816 760 816 2434 144 2056 918 822 96 2290 1578 1440 209 1231 1197 99 61 35 110 712 1138 735 695 400 199 517 553
is_linear=0
shrinkage=0.05


Tree=19
num_leaves=31
num_cat=0
split_feature=1 0 1 0 0 0 0 0 1 0 1 0 1 0 1 0 0 1 0 0 1 0 0 0 0 1 1 1 1 0
split_gain=26.8431 16.8128 7.89668 7.67026 4.84835 4.60321 6.70884 4.95804 4.46093 4.26837 3.9456 4.34958 3.79822 5.68663 3.58464 3.38594 3.25765 5.71743 10.1997 5.68497 4.78045 3.30686 3.21911 3.42766 3.14767 4.24405 6.00215 2.97566 2.94627 3.45827
threshold=-0.016391132907091922 0.2776166171455744 -0.70767038871247456 -0.30313849421435851 0.9682428426880928 -2.1238819486007605 -1.4332557230582426 -0.49149209308529745 -0.26327658140901428 -0.75832381226329759 -0.85580165781362794 -0.20896169477888907 -0.21389949170862979 -1.1978148155651205 -0.60891620931170554 -1.3390789236232303 1.1408999446212698 -0.8311131129634356 1.0624196421235623 1.3449478582393246 -0.75704747841285902 1.5489957718573797 1.5333014571102637 0.84267304937709897 0.43457722214098904 -0.38671930565997542 -0.28796512625920651 0.30455995014540721 -0.43609639536035993 -0.44440260227201106
decision_type=2 2 2 2 2 2 2 2 2 2 2 2 2 2 2 2 2 2 2 2 2 2 2 2 2 2 2 2 2 2
left_child=1 3 4 5 -3 -1 -7 12 14 27 11 -5 -8 15 -9 -14 17 -6 -19 20 -18 -21 23 24 25 -4 -27 -2 -16 -30
right_child=9 2 22 10 16 6 7 8 -10 -11 -12 -13 13 -15 28 -17 19 18 -20 21 -22 -23 -24 -25 -26 26 -28 -29 29 -31
leaf_value=-0.021883542788784016 -0.0017330202013951569 0.017817088878628342 0.085254993151951161 -0.050730297857949774 -0.045173222274190829 0.014561138865065538 -7.9104961810430772e-05 0.013832324230157324 0.042026606062300458 -0.009493844741344945 -0.014578890392011165 0.043200931462492799 -0.062662310804590768 -0.032387949703843108 -0.031361834312805995 0.022179758341922279 0.068427164839078389 0.030762206328989447 -0.043964247269321632 0.0024591473890051181 -0.013340659155328434 -0.069549764088589969 -0.00064730407040357145 0.027506410167254837 -0.0055521280916378257 -0.085501867874103771 0.031937860593966694 0.028403474365869315 0.054684439017881004 -0.0095418557823437333
leaf_weight=18.020069450139999 25.459423094987869 61.426736935973167 2.4808266013860703 1.4727265834808347 9.7119169533252734 113.28469996154308 314.07945168018341 56.128577321767807 10.476933926343916 536.36243306100368 96.117085590958595 5.7312826514244071 1.242947757244109 22.090179488062859 9.2243013530969638 9.4848545938730222 5.8834712654352188 11.679563716053964 7.3575560003519049 67.230858817696571 2.5078845471143705 1.5330270081758488 14.329696059226988 127.30160161852837 16.60284261405468 1.2415163964033125 5.6763152480125445 11.969011962413786 2.7169173508882514 8.1062839180231077
leaf_count=85 102 263 10 6 43 460 1272 225 42 2284 402 23 5 91 38 38 25 48 32 269 11 7 58 557 67 5 23 48 11 33
internal_value=0.000270127 0.00520372 0.0143442 0.00062004 0.00665427 0.00291167 0.00373261 0.000900462 0.0115915 -0.00835452 -0.011899 0.0235668 -0.00177266 -0.0179311 0.00735595 0.0118618 0.000168904 -0.0141681 0.00180275 0.00552249 0.0441203 0.000755111 0.0220118 0.0241288 0.00755026 0.0305106 0.00994338 0.00795415 -0.0107551 0.00693372
internal_weight=1576.93 1003.14 334.964 668.176 167.331 564.855 546.835 433.55 86.653 573.791 103.321 7.20401 346.897 32.818 76.1761 10.7278 105.904 28.749 19.0371 77.1552 8.39136 68.7639 167.633 153.303 26.0015 9.39866 6.91783 37.4284 20.0475 10.8232
internal_count=6583 4149 1418 2731 698 2300 2215 1755 349 2434 431 29 1406 134 307 43 435 123 80 312 36 276 720 662 105 38 28 150 82 44
is_linear=0
shrinkage=0.05


Tree=20
num_leaves=31
num_cat=0
split_feature=1 0 0 0 0 0 1 0 0 0 0 1 0 0 0 1 1 0 1 1 0 1 0 0 1 1 0 1 0 0
split_gain=28.6067 16.2476 6.83918 5.58327 5.55189 4.862 4.2534 7.27576 5.79185 8.15259 5.00108 4.26522 6.0613 4.18633 3.84223 6.53622 5.27058 3.77619 3.61886 3.45572 3.3396 3.33792 5.59002 7.93365 5.92402 3.28903 5.22308 7.24018 3.11663 2.80519
threshold=0.082363046493677053 0.59153782713686109 -0.31883499115212061 1.5489957718573797 -2.1238819486007605 -0.91528441725871224 -0.68298184386228222 1.0153301513102759 1.1879872532434528 1.3449478582393246 0.87406604325262338 -0.80642456811324348 0.76419274687939176 0.057870024399568336 0.40318422826592198 -0.26327658140901428 -0.48547348506074439 -1.3704697353076511 -0.78173602326305114 -0.65829329901209011 0.76419274687939176 -0.60891620931170554 -1.0408542105697058 -0.56997239558300472 -0.46078494021055216 -0.92986729236420473 1.0938104538084406 -0.75704747841285902 -0.52288290476971822 0.983939339625855
decision_type=2 2 2 2 2 2 2 2 2 2 2 2 2 2 2 2 2 2 2 2 2 2 2 2 2 2 2 2 2 2
left_child=1 2 4 6 -1 -2 7 11 25 -10 -8 12 -3 -4 18 16 -16 -6 -15 -5 -13 -19 -23 -24 28 -9 27 -27 -25 -14
right_child=5 3 13 19 17 -7 10 8 9 -11 -12 20 29 14 15 -17 -18 21 -20 -21 -22 22 23 24 -26 26 -28 -29 -30 -31
leaf_value=-0.026298310596203606 0.01698024746993599 0.065964161050807504 -0.014438620993159186 -0.071425948325296626 0.010633404178196077 -0.010347937123685605 -0.0048529095837732518 0.040659651548858484 0.065793817414357539 0.0026410329543344866 0.025029294183425449 -0.032006437006966919 0.01098557216702504 0.091939453962071066 -0.022742546939551911 -0.084615510713382427 0.065385212649209046 0.0047783835427743331 0.0083520624591388992 -0.0046372916494221445 0.043325621474434445 0.010614937691694158 -0.023304554290975065 0.018033237267252845 0.013808350762076142 -0.037878135500774998 -0.058737884815897159 0.050061369096919862 -0.043052180742966857 -0.034770692246688328
leaf_weight=15.55320969223976 16.716488197445869 4.7791002094745627 104.32825954258442 2.6016776114702225 151.6687725931406 517.6887861341238 15.732273027300833 1.7495572865009332 5.4017798602581015 71.981319844722748 125.04636739194393 1.4997750818729425 39.7519710958004 1.2469652891159047 6.2273447066545478 2.9375471770763388 2.2181661874055854 263.98943282663822 34.697298035025597 6.8956166207790357 23.309718444943428 42.848763391375542 57.425589144229889 2.7212041169404975 36.963734909892082 6.1014126539230373 8.1992991566658002 3.6602323651313773 8.2499914616346341 3.5599526166915885
leaf_count=74 67 21 437 12 615 2208 64 7 24 288 551 6 171 5 25 12 9 1061 142 28 100 172 242 11 151 27 36 15 34 16
internal_value=-7.16994e-05 0.00471616 0.000601598 0.0141053 0.00307591 -0.00949008 0.0152613 0.00992884 0.000961131 0.00712868 0.0216888 0.0218549 0.0131224 -0.00884766 0.00348151 -0.0217146 0.000897998 0.00389067 0.0114989 -0.0234869 0.0386615 0.00140769 -0.00459533 -0.0107854 0.00422982 -0.0231663 -0.0295742 -0.00473101 -0.027875 0.00715328
internal_weight=1585.75 1051.35 731.076 320.27 579.421 534.405 310.773 169.994 97.0936 77.3831 140.779 72.9005 48.091 151.656 47.3273 11.3831 8.44551 563.867 35.9443 9.49729 24.8095 412.199 148.209 105.361 47.9349 19.7105 17.9609 9.76165 10.9712 43.3119
internal_count=6631 4356 2990 1366 2360 2275 1326 711 397 312 615 314 208 630 193 46 34 2286 147 40 106 1671 610 438 196 85 78 42 45 187
is_linear=0
shrinkage=0.05


Tree=21
num_leaves=31
num_cat=0
split_feature=1 0 0 0 0 0 1 0 0 0 0 1 0 0 0 1 1 0 1 1 0 1 0 0 1 1 0 1 0 1
split_gain=25.8767 14.7832 6.18172 5.08457 5.05762 4.39617 3.87478 6.62903 5.28204 7.5627 4.56608 3.92221 5.63065 3.79483 3.48086 6.02689 4.75223 3.4133 3.30651 3.25117 3.06138 3.01594 5.05859 7.20674 5.36386 3.00947 4.83631 6.6041 2.84414 2.62084
threshold=0.082363046493677053 0.59153782713686109 -0.31883499115212061 1.5489957718573797 -2.1238819486007605 -0.91528441725871224 -0.68298184386228222 1.0153301513102759 1.1879872532434528 1.3449478582393246 0.87406604325262338 -0.80642456811324348 0.76419274687939176 0.057870024399568336 0.40318422826592198 -0.26327658140901428 -0.48547348506074439 -1.3704697353076511 -0.78173602326305114 -0.65829329901209011 0.76419274687939176 -0.60891620931170554 -1.0408542105697058 -0.56997239558300472 -0.46078494021055216 -0.92986729236420473 1.0938104538084406 -0.75704747841285902 -0.52288290476971822 2.9709227939661695
decision_type=2 2 2 2 2 2 2 2 2 2 2 2 2 2 2 2 2 2 2 2 2 2 2 2 2 2 2 2 2 2
left_child=1 2 4 6 -1 -2 7 11 25 -10 -8 12 -3 -4 18 16 -16 -6 -15 -5 -13 -19 -23 -24 28 -9 27 -27 -25 -7
right_child=5 3 13 19 17 29 10 8 9 -11 -12 20 -14 14 15 -17 -18 21 -20 -21 -22 22 23 24 -26 26 -28 -29 -30 -31
leaf_value=-0.025264387880751155 0.016135667219805524 0.064013046571952975 -0.013758014800594884 -0.069774817675802597 0.010112442424927046 -0.0095980696862817214 -0.0046135133542300139 0.038750205843037761 0.063934213062793552 0.0025090841372877228 0.023955843696886123 -0.030506063388795929 0.0068163399668430425 0.08792769114028523 -0.021650825912805247 -0.081637623540664173 0.061850274003565631 0.0045384681270722975 0.0079264791713162149 -0.0044063315706367205 0.041650197104287266 0.010090645442523895 -0.022258073831475513 0.017136157251156012 0.013099326313936274 -0.036409835502770334 -0.056854108347529277 0.047887455181204061 -0.041239170771258035 -0.060467918425353956
leaf_weight=15.388589709997175 16.717106223106384 4.6839955002069464 104.02767914533615 2.5341589003801346 151.51726798713207 514.20881296694279 15.726535469293593 1.7489176839590097 5.2867860347032538 71.983579695224762 124.14505937695503 1.4997760802507425 43.16216479241848 1.2433016598224629 6.2195259779691687 2.8971186429262152 2.2329971343278876 264.05105112493038 34.736562520265579 6.8993397355079633 23.045818746089935 42.827108204364777 57.131561234593391 2.7255943268537512 37.020151853561401 6.0358166992664364 8.0544342249631864 3.6401207149028769 8.1880371719598752 2.4482875764369956
leaf_count=74 67 21 437 12 615 2193 64 7 24 288 551 6 187 5 25 12 9 1061 142 28 100 172 242 11 151 27 36 15 34 15
internal_value=-6.8034e-05 0.00449245 0.00057151 0.0134803 0.00292414 -0.00903344 0.014586 0.00948556 0.000918923 0.00678895 0.0207426 0.0209176 0.0125376 -0.00842185 0.00331103 -0.0207172 0.000873842 0.00369834 0.010927 -0.0225142 0.0371354 0.00133728 -0.00437742 -0.0102789 0.00401545 -0.022282 -0.0284858 -0.00453145 -0.0266372 -0.00985078
internal_weight=1582.03 1048.65 730.207 318.447 578.849 533.374 309.013 169.141 96.7497 77.2704 139.872 72.3918 47.8462 151.357 47.3295 11.3496 8.45252 563.461 35.9799 9.4335 24.5456 411.944 147.892 105.065 47.9338 19.4793 17.7304 9.67594 10.9136 516.657
internal_count=6631 4356 2990 1366 2360 2275 1326 711 397 312 615 314 208 630 193 46 34 2286 147 40 106 1671 610 438 196 85 78 42 45 2208
is_linear=0
shrinkage=0.05


Tree=22
num_leaves=31
num_cat=0
split_feature=1 0 0 0 0 0 1 0 0 0 0 1 0 0 0 1 1 0 1 1 0 1 0 1 1 0 0 1 0 0
split_gain=23.4111 13.4479 5.58793 4.63054 4.60697 4.04518 3.53118 6.03154 4.8197 7.02527 4.16862 3.61716 5.24187 3.43924 3.15626 5.57565 4.29248 3.08524 3.06438 3.0348 2.80748 2.75564 4.48354 6.02727 2.72516 4.57807 6.54615 4.8584 2.59701 2.55509
threshold=0.082363046493677053 0.59153782713686109 -0.31883499115212061 1.5489957718573797 -2.1238819486007605 -1.0408542105697058 -0.68298184386228222 1.0153301513102759 1.1879872532434528 1.3449478582393246 0.87406604325262338 -0.80642456811324348 0.76419274687939176 0.057870024399568336 0.40318422826592198 -0.26327658140901428 -0.48547348506074439 -1.3704697353076511 -0.65829329901209011 -0.78173602326305114 0.76419274687939176 -0.92986729236420473 1.0938104538084406 -0.75704747841285902 -0.60891620931170554 -1.0408542105697058 -0.56997239558300472 -0.46078494021055216 -0.52288290476971822 0.983939339625855
decision_type=2 2 2 2 2 2 2 2 2 2 2 2 2 2 2 2 2 2 2 2 2 2 2 2 2 2 2 2 2 2
left_child=1 2 4 6 -1 -2 7 11 21 -10 -8 12 -3 -4 19 16 -16 -6 -5 -15 -13 -9 23 -23 -19 -26 -27 28 -28 -14
right_child=5 3 13 18 17 -7 10 8 9 -11 -12 20 29 14 15 -17 -18 24 -20 -21 -22 22 -24 -25 25 26 27 -29 -30 -31
leaf_value=-0.024267539563892521 0.036874727416974451 0.062198054154285642 -0.01310889249256874 -0.068261170637072086 0.0096170252947954896 -0.0090162318535602897 -0.004385892839812818 0.03695741714093187 0.062203906254299536 0.0023837379382544081 0.022927222296739016 -0.029089363707096468 0.010146093668596546 0.084394692024725715 -0.020615244599202127 -0.078983878352728271 0.058638587622021336 0.0043106967049843861 -0.004187030445903509 0.0075232640248697902 0.040054836069791877 -0.035004442003698268 -0.055080616857553069 0.045847902253738998 0.0095925139949638635 -0.021258753856855089 0.016287346548965766 0.012428785001891395 -0.039523364243482045 -0.033697004962129185
leaf_weight=15.227957040071486 4.7496911138296118 4.5850812047719947 103.73260401189327 2.4648110717535019 151.36558370292187 527.57200606167316 15.720917105674742 1.7469654828310037 5.1679611206054679 71.985495135188103 123.25663514435291 1.4990624487400079 39.569883719086647 1.2349654287099827 6.2106098979711524 2.8492943644523612 2.2427372485399237 264.10682146251202 6.9028118848800641 34.77277734875679 22.776455506682396 5.9699571281671551 7.9051195234060279 3.6169858723878852 42.804312959313393 56.838633954524994 2.7293664664030066 37.070594489574432 8.1223533749580366 3.5295340716838828
leaf_count=74 19 21 437 12 615 2256 64 7 24 288 551 6 171 5 25 12 9 1061 28 142 100 27 36 15 172 242 11 151 34 16
internal_value=-6.47073e-05 0.00427934 0.00054294 0.0128808 0.0027799 -0.00859992 0.0139382 0.00906002 0.000878756 0.006466 0.0198367 0.0200026 0.0119619 -0.00801741 0.00315025 -0.0197907 0.000851133 0.00351561 -0.0215892 0.0103862 0.0356832 -0.0214451 -0.0274548 -0.00434187 0.00127042 -0.00417018 -0.00979727 0.00381267 -0.0254656 0.00648597
internal_weight=1578.33 1046.01 729.309 316.698 578.266 532.322 307.33 168.353 96.3925 77.1535 138.978 71.96 47.6845 151.043 47.3104 11.3026 8.45335 563.038 9.36762 36.0077 24.2755 19.239 17.4921 9.58694 411.672 147.565 104.761 47.9223 10.8517 43.0994
internal_count=6631 4356 2990 1366 2360 2275 1326 711 397 312 615 314 208 630 193 46 34 2286 40 147 106 85 78 42 1671 610 438 196 45 187
is_linear=0
shrinkage=0.05


Tree=23
num_leaves=31
num_cat=0
split_feature=1 0 0 0 0 0 1 0 0 0 0 1 0 0 1 0 0 1 1 1 0 0 1 0 0 0 0 0 1 1
split_gain=21.174 12.237 5.0515 4.21852 4.19603 3.85813 3.21366 5.49688 4.39983 6.53395 3.80535 3.33086 4.88431 3.11638 2.89302 2.88413 2.86415 5.17326 3.88313 2.84003 13.9705 6.62785 7.69768 10.0272 6.62492 4.32566 2.87648 3.45285 3.51202 2.9732
threshold=0.082363046493677053 0.59153782713686109 -0.31883499115212061 1.5489957718573797 -2.1238819486007605 -0.85250061169876712 -0.68298184386228222 1.0153301513102759 1.1879872532434528 1.3449478582393246 0.87406604325262338 -0.80642456811324348 0.76419274687939176 0.057870024399568336 -0.65829329901209011 -1.715783939174462 0.40318422826592198 -0.26327658140901428 -0.48547348506074439 0.47737976409675292 0.52875183938626968 -0.20896169477888907 0.2304943155948305 -0.33453148808942551 -0.052001089783017145 0.21483062939498301 -0.7426273153255355 -0.052001089783017145 1.3661673787036737 1.6377413720557881
decision_type=2 2 2 2 2 2 2 2 2 2 2 2 2 2 2 2 2 2 2 2 2 2 2 2 2 2 2 2 2 2
left_child=1 2 4 6 -1 -2 7 11 -9 -10 -8 12 -3 -4 -5 -6 -15 18 -18 20 21 22 23 -7 -23 -26 -21 28 -28 -29
right_child=5 3 13 14 15 19 10 8 9 -11 -12 -13 -14 16 -16 -17 17 -19 -20 26 -22 24 -24 -25 25 -27 27 29 -30 -31
leaf_value=-0.023306130865967847 0.011183276941055973 0.060501643286184008 -0.012489743100205548 -0.066868595786019766 0.015286766118629525 -0.023827576022471344 -0.0041694684165596843 -0.020650483764635325 0.060586405487247343 0.0022646639631622996 0.021941120545456827 0.034298064157148145 0.006179402218781601 0.0098743244794093511 -0.0039787804484535203 0.0022687169503651681 -0.019632139186176456 -0.076605106253554531 0.055701713381288556 0.032180366928025804 -0.061765624116852061 0.030991679098938681 -0.044139478824191211 0.077588108755574384 -0.020498252179538556 0.011680815138134321 -0.014309708231469369 -0.0014555242966349871 -0.052488805198810419 -0.010930872331579774
leaf_weight=15.071513473987578 24.447002083063126 4.483356609940528 103.44367757439613 2.3942088037729263 46.274243131279945 8.1236307919025403 15.715428546071051 18.992114350199699 5.0464021712541571 71.987105667591095 122.38355356454849 24.001419007778168 42.955587640404701 36.028839275240898 6.9060516059398633 516.32829260826111 6.2007924765348426 2.7953478395938864 2.2480518966913214 4.4899457246065131 14.530862405896185 13.939414590597151 21.947986528277397 3.364686280488967 27.675375357270241 16.653785079717636 54.043222516775131 186.86858525872231 6.7074737995862952 148.59474867582321
leaf_count=74 98 21 437 12 190 35 64 85 24 288 551 106 187 147 28 2096 25 12 9 18 70 58 91 14 115 69 230 781 28 668
internal_value=-6.13082e-05 0.00407662 0.000515807 0.0123112 0.00264282 -0.00818443 0.0133227 0.00865799 0.000840501 0.00615887 0.0189689 0.0191499 0.0114298 -0.00763305 -0.0207079 0.00334198 0.00299837 -0.0189265 0.000829642 -0.00912045 -0.0163872 -0.00913744 -0.0268461 0.00628817 0.0010529 -0.00840999 -0.00719026 -0.00764442 -0.0186044 -0.00565467
internal_weight=1574.64 1043.26 728.391 314.865 577.674 531.387 305.565 167.466 96.0256 77.0335 138.099 71.4404 47.4389 150.717 9.30026 562.603 47.273 11.2442 8.44884 506.94 106.236 91.7049 33.4363 11.4883 58.2686 44.3292 400.704 396.214 60.7507 335.463
internal_count=6631 4356 2990 1366 2360 2275 1326 711 397 312 615 314 208 630 40 2286 193 46 34 2177 452 382 140 49 242 184 1725 1707 258 1449
is_linear=0
shrinkage=0.05


Tree=24
num_leaves=31
num_cat=0
split_feature=1 0 0 0 0 0 1 0 0 0 0 1 0 0 1 0 0 1 1 1 1 1 0 1 1 1 0 0 0 1
split_gain=19.163 11.1259 4.56857 3.84128 3.82091 3.50357 2.93271 5.00313 3.99005 6.08341 3.47327 3.06533 4.5588 2.82031 2.73514 2.65466 2.59782 4.81234 3.51744 2.80471 2.56088 2.53102 4.20644 5.51025 2.5266 2.46212 4.14238 6.03927 2.41622 5.58901
threshold=0.082363046493677053 0.59153782713686109 -0.31883499115212061 1.5489957718573797 -2.1238819486007605 -1.0408542105697058 -0.68298184386228222 1.0153301513102759 1.1879872532434528 1.3449478582393246 0.87406604325262338 -0.80642456811324348 0.76419274687939176 0.057870024399568336 -0.65829329901209011 -1.3704697353076511 0.40318422826592198 -0.26327658140901428 -0.48547348506074439 -0.78173602326305114 2.9709227939661695 -0.92986729236420473 1.0938104538084406 -0.75704747841285902 -0.65829329901209011 -0.60891620931170554 -1.0408542105697058 -0.80541330307612669 -0.56997239558300472 -0.46078494021055216
decision_type=2 2 2 2 2 2 2 2 2 2 2 2 2 2 2 2 2 2 2 2 2 2 2 2 2 2 2 2 2 2
left_child=1 2 4 6 -1 -2 7 11 21 -10 -8 12 -3 -4 -5 -6 19 18 24 -15 -7 -9 23 -23 -18 -17 -27 -28 29 -29
right_child=5 3 13 14 15 20 10 8 9 -11 -12 -13 -14 16 -16 25 17 -19 -20 -21 -22 22 -24 -25 -26 26 27 28 -30 -31
leaf_value=-0.022378694784409493 0.034527790054055651 0.058908925787748478 -0.011899141424887648 -0.06558310429987578 0.008841482733990956 -0.00794491270722073 -0.0039636896264161059 0.036210239176579194 0.059067656412613162 0.0021515472484140256 0.020995459275805983 0.032929736928117397 0.0058793135704047084 0.080908477306954843 -0.0037810050963063661 0.0039806556618953957 -0.0023200140165688904 -0.074461509481654198 0.053000602017629073 0.0066404729518061943 -0.059392153826555244 -0.032863600026746188 -0.052784784368373472 0.044788925224619441 -0.080190340256383011 0.0090072371802007827 -0.036011825370590958 0.022671873503363554 0.003506601094232128 -0.02318065311504389
leaf_weight=14.919410079717634 4.7487896531820288 4.3796907961368552 103.16142548620701 2.322851374745369 151.08173601329327 523.11751675605774 15.71007753908634 1.7457534521818185 4.9230622202157965 71.988445773720741 121.52784748375416 23.759229153394699 42.897319614887238 1.2209258526563633 6.909076660871504 264.18290071189404 4.9702204912900916 2.7363975644111624 2.2495324313640586 34.84866227209568 2.3326186388730994 5.864296272397044 7.6937180161476126 3.6033166944980612 1.220026910305023 42.77476891875267 17.664678961038589 8.4022341072559339 47.914472535252571 30.512657210230827
leaf_count=74 19 21 437 12 615 2241 64 7 24 288 551 106 187 5 28 1061 20 12 9 142 15 27 36 15 5 172 77 35 196 130
internal_value=-5.88455e-05 0.00388127 0.000489674 0.0117573 0.00251151 -0.00779556 0.0127236 0.00826256 0.000803879 0.00586668 0.0181375 0.0183081 0.0109059 -0.00726919 -0.0198672 0.0031755 0.00284413 -0.0181172 0.000809183 0.00937113 -0.00818456 -0.0197135 -0.0255792 -0.00315028 -0.0186982 0.00109335 -0.00408531 -0.00944825 -0.00400891 -0.0132478
internal_weight=1571.38 1041.18 727.86 313.325 577.453 530.199 304.093 166.855 95.8186 76.9115 137.238 71.0362 47.277 150.407 9.23193 562.533 47.2458 11.1762 8.43978 36.0696 525.45 18.9071 17.1613 9.46761 6.19025 411.452 147.269 104.494 86.8294 38.9149
internal_count=6631 4356 2990 1366 2360 2275 1326 711 397 312 615 314 208 630 40 2286 193 46 34 147 2256 85 78 42 25 1671 610 438 361 165
is_linear=0
shrinkage=0.05


Tree=25
num_leaves=31
num_cat=0
split_feature=1 0 0 0 0 0 1 0 0 1 1 1 0 0 0 1 0 0 0 0 0 1 0 0 1 0 0 0 0 0
split_gain=12.5394 8.31898 6.81556 5.16383 4.56714 5.62667 3.96652 3.83948 3.02513 22.077 7.8012 3.2497 3.982 2.87425 2.77794 2.20801 15.9933 6.22008 6.36462 3.5684 3.01478 6.8205 10.7332 8.78142 3.38409 8.88591 3.862 4.41822 2.69459 2.49196
threshold=0.03298595679329256 0.042175709652452341 -0.96237390807199874 -0.28744199727659631 -2.1552727602856385 -1.8256572355472365 -0.63360475416189777 0.90545903712769038 0.76419274687939176 1.8105611860071338 1.4155444684040581 2.7487258903144389 1.439124657674794 1.5646922687946845 0.77988924381715385 0.45269121924656064 0.45027153688810501 -0.067697586720779288 -0.71123650364065727 -0.28744199727659631 -0.083394083658541437 0.30455995014540721 -0.1775708830940109 -0.16187438615624875 0.25518286044502275 0.30900742883045257 0.37179123439039768 0.21483062939498301 0.026479212714690184 -0.24035468865395607
decision_type=2 2 2 2 2 2 2 2 2 2 2 2 2 2 2 2 2 2 2 2 2 2 2 2 2 2 2 2 2 2
left_child=1 3 -2 4 -1 -6 13 -8 9 15 14 -12 -13 -3 -10 16 19 18 -17 -4 21 23 29 -21 26 -26 27 28 -22 -23
right_child=2 6 8 -5 5 -7 7 -9 10 -11 11 12 -14 -15 -16 17 -18 -19 -20 20 24 22 -24 -25 25 -27 -28 -29 -30 -31
leaf_value=-0.027727392707484436 0.029440581360808901 0.0061663584537434719 -0.017169268822902418 -0.011503216070024741 0.023521762034659371 0.0018771679364840957 0.0050641764204070495 0.0213865231881341 0.053327206383717268 -0.060745311043423705 0.0074093232462859445 -0.074180951143796914 -0.0041916518419866274 -0.052259729068656592 -0.024539072853007365 0.026102396929438179 -0.06715039806805026 0.0025346334698842015 -0.021378226090579579 0.083023267457731476 -0.0025547673104320272 -0.0790923162133889 0.068626618309749934 -0.0051569687680124779 -0.0060564533204229658 0.078981737396585677 -0.080737539966460506 0.021851713410278056 -0.0461598217237571 -0.020084353023037644
leaf_weight=12.176720529794691 13.729994729161261 197.96837595105171 38.930134147405624 74.925147280097008 31.725736409425735 531.40496273338795 53.643356919288635 110.09746094048023 1.095186561346053 19.179234474897385 120.18892304599285 2.5540315061807624 8.7323341816663724 2.0285242646932593 32.7973363250494 7.9379537999629965 11.460968330502508 158.47840589284897 58.531138077378273 6.2473373711109161 6.223494350910193 2.8527781963348389 2.8967451453208906 5.0653574317693728 17.504364565014843 3.6228912323713294 2.1737347394227973 6.5356828719377509 8.163473501801489 4.791269451379776
leaf_count=61 55 846 162 320 135 2160 220 505 5 130 490 12 39 10 143 32 52 671 250 26 26 12 12 21 73 15 9 27 34 20
internal_value=0.000945528 0.00422251 -0.00521088 0.000834788 0.00244335 0.00310054 0.0102766 0.0160455 -0.00612086 -0.00868818 -0.000520798 0.00499607 -0.0205422 0.00554793 -0.0218735 -0.00574691 -0.0113322 -0.00285132 -0.0156772 -0.00518188 0.00189591 0.0170458 -0.0118528 0.0438406 -0.00561213 0.00882923 -0.0188034 -0.0120153 -0.027445 -0.0428432
internal_weight=1553.66 1013.97 539.693 650.233 575.307 563.131 363.738 163.741 525.963 360.595 165.368 131.475 11.2864 199.997 33.8925 341.416 116.468 224.947 66.4691 105.007 66.0771 21.8535 10.5408 11.3127 44.2236 21.1273 23.0964 20.9227 14.387 7.64405
internal_count=6573 4257 2316 2676 2356 2295 1581 725 2261 1572 689 541 51 856 148 1442 489 953 282 437 275 91 44 47 184 88 96 87 60 32
is_linear=0
shrinkage=0.05


end of trees

feature_importances:
hours_to_expiry=479
hour_index=301

parameters:
[boosting: gbdt]
[objective: binary]
[metric: binary_logloss,auc]
[tree_learner: serial]
[device_type: cpu]
[data_sample_strategy: bagging]
[data: ]
[valid: ]
[num_iterations: 500]
[learning_rate: 0.05]
[num_leaves: 31]
[num_threads: 0]
[seed: 42]
[deterministic: 0]
[force_col_wise: 0]
[force_row_wise: 0]
[histogram_pool_size: -1]
[max_depth: -1]
[min_data_in_leaf: 5]
[min_sum_hessian_in_leaf: 0.001]
[bagging_fraction: 0.8]
[pos_bagging_fraction: 1]
[neg_bagging_fraction: 1]
[bagging_freq: 5]
[bagging_seed: 400]
[bagging_by_query: 0]
[feature_fraction: 0.8]
[feature_fraction_bynode: 1]
[feature_fraction_seed: 30056]
[extra_trees: 0]
[extra_seed: 12879]
[early_stopping_round: 0]
[early_stopping_min_delta: 0]
[first_metric_only: 0]
[max_delta_step: 0]
[lambda_l1: 0]
[lambda_l2: 0.1]
[linear_lambda: 0]
[min_gain_to_split: 0]
[drop_rate: 0.1]
[max_drop: 50]
[skip_drop: 0.5]
[xgboost_dart_mode: 0]
[uniform_drop: 0]
[drop_seed: 17869]
[top_rate: 0.2]
[other_rate: 0.1]
[min_data_per_group: 100]
[max_cat_threshold: 32]
[cat_l2: 10]
[cat_smooth: 10]
[max_cat_to_onehot: 4]
[top_k: 20]
[monotone_constraints: ]
[monotone_constraints_method: basic]
[monotone_penalty: 0]
[feature_contri: ]
[forcedsplits_filename: ]
[refit_decay_rate: 0.9]
[cegb_tradeoff: 1]
[cegb_penalty_split: 0]
[cegb_penalty_feature_lazy: ]
[cegb_penalty_feature_coupled: ]
[path_smooth: 0]
[interaction_constraints: ]
[verbosity: -1]
[saved_feature_importance_type: 0]
[use_quantized_grad: 0]
[num_grad_quant_bins: 4]
[quant_train_renew_leaf: 0]
[stochastic_rounding: 1]
[linear_tree: 0]
[max_bin: 255]
[max_bin_by_feature: ]
[min_data_in_bin: 3]
[bin_construct_sample_cnt: 200000]
[data_random_seed: 175]
[is_enable_sparse: 1]
[enable_bundle: 1]
[use_missing: 1]
[zero_as_missing: 0]
[feature_pre_filter: 1]
[pre_partition: 0]
[two_round: 0]
[header: 0]
[label_column: ]
[weight_column: ]
[group_column: ]
[ignore_column: ]
[categorical_feature: ]
[forcedbins_filename: ]
[precise_float_parser: 0]
[parser_config_file: ]
[objective_seed: 16083]
[num_class: 1]
[is_unbalance: 0]
[scale_pos_weight: 1]
[sigmoid: 1]
[boost_from_average: 1]
[reg_sqrt: 0]
[alpha: 0.9]
[fair_c: 1]
[poisson_max_delta_step: 0.7]
[tweedie_variance_power: 1.5]
[lambdarank_truncation_level: 30]
[lambdarank_norm: 1]
[label_gain: ]
[lambdarank_position_bias_regularization: 0]
[eval_at: ]
[multi_error_top_k: 1]
[auc_mu_weights: ]
[num_machines: 1]
[local_listen_port: 12400]
[time_out: 120]
[machine_list_filename: ]
[machines: ]
[gpu_platform_id: -1]
[gpu_device_id: -1]
[gpu_use_dp: 0]
[num_gpu: 1]

end of parameters

pandas_categorical:null
