{"learner":{"attributes":{"best_iteration":"2","best_score":"0.6690030126865898"},"feature_names":[],"feature_types":[],"gradient_booster":{"model":{"cats":{"enc":[],"feature_segments":[],"sorted_idx":[]},"gbtree_model_param":{"num_parallel_tree":"1","num_trees":"33"},"iteration_indptr":[0,1,2,3,4,5,6,7,8,9,10,11,12,13,14,15,16,17,18,19,20,21,22,23,24,25,26,27,28,29,30,31,32,33],"tree_info":[0,0,0,0,0,0,0,0,0,0,0,0,0,0,0,0,0,0,0,0,0,0,0,0,0,0,0,0,0,0,0,0,0],"trees":[{"base_weights":[-9.621126E-3,1.9848922E-1,-3.787381E-1,5.5179495E-2,2.3825888E-1,-3.4923947E-1,-7.4966216E-1,7.224277E-2,-2.9797273E-4,2.8450003E-1,8.0258444E-2,-2.3063709E-1,-3.5789165E-1,-6.5712607E-1,-7.159462E-2,5.5389203E-2,5.31832E-3,1.8467619E-1,3.020277E-1,4.4859756E-2,9.518132E-2,-1.2946384E-2,-5.1785107E-3,-4.393069E-1,-3.4299377E-1,-3.5530563E-2,4.799237E-3,4.5848857E-3,9.0142427E-4,1.057166E-2,7.633067E-3,1.5361795E-2,1.219878E-2,4.318646E-3,-4.5140693E-3,8.200827E-3,3.721766E-3,-1.4849235E-2,-2.4942702E-2,-1.2065124E-2,-1.8667687E-2],"categories":[],"categories_nodes":[],"categories_segments":[],"categories_sizes":[],"default_left":[0,0,0,0,0,0,0,0,0,0,0,0,0,0,0,0,0,0,0,0,0,0,0,0,0,0,0,0,0,0,0,0,0,0,0,0,0,0,0,0,0],"id":0,"left_children":[1,3,5,7,9,11,13,15,-1,17,19,21,23,25,-1,27,-1,29,31,33,35,-1,-1,37,39,-1,-1,-1,-1,-1,-1,-1,-1,-1,-1,-1,-1,-1,-1,-1,-1],"loss_changes":[1.2562424E2,5.94722E0,6.1893997E0,2.3878264E-1,5.9558907E0,4.7984314E-1,1.7460899E0,9.6879184E-2,0E0,1.0511665E0,9.43352E-2,1.1724043E-1,4.666443E-1,1.6523228E0,0E0,1.6344267E-1,0E0,5.0872326E-2,8.727646E-2,3.2895896E-1,1.7403412E-1,0E0,0E0,4.888687E-1,1.2522774E0,0E0,0E0,0E0,0E0,0E0,0E0,0E0,0E0,0E0,0E0,0E0,0E0,0E0,0E0,0E0,0E0],"parents":[2147483647,0,0,1,1,2,2,3,3,4,4,5,5,6,6,7,7,9,9,10,10,11,11,12,12,13,13,15,15,17,17,18,18,19,19,20,20,23,23,24,24],"right_children":[2,4,6,8,10,12,14,16,-1,18,20,22,24,26,-1,28,-1,30,32,34,36,-1,-1,38,40,-1,-1,-1,-1,-1,-1,-1,-1,-1,-1,-1,-1,-1,-1,-1,-1],"split_conditions":[2.0641685E-2,-8.6814594E-1,2.5141847E0,-8.928345E-1,-3.2499793E-1,1.1939587E-1,2.983267E0,-9.17523E-1,-2.9797273E-4,-8.1876886E-1,-2.2624376E-1,9.470732E-2,3.4159276E-1,2.9092014E0,-7.159462E-2,-9.4221157E-1,5.31832E-3,-8.434574E-1,-3.990636E-1,-2.509323E-1,-1.7686668E-1,-1.2946384E-2,-5.1785107E-3,1.934615E-1,6.6254383E-1,-3.5530563E-2,4.799237E-3,4.5848857E-3,9.0142427E-4,1.057166E-2,7.633067E-3,1.5361795E-2,1.219878E-2,4.318646E-3,-4.5140693E-3,8.200827E-3,3.721766E-3,-1.4849235E-2,-2.4942702E-2,-1.2065124E-2,-1.8667687E-2],"split_indices":[0,0,0,0,0,0,0,0,0,0,0,0,0,0,0,0,0,0,0,0,0,0,0,0,0,0,0,0,0,0,0,0,0,0,0,0,0,0,0,0,0],"split_type":[0,0,0,0,0,0,0,0,0,0,0,0,0,0,0,0,0,0,0,0,0,0,0,0,0,0,0,0,0,0,0,0,0,0,0,0,0,0,0,0,0],"sum_hessian":[1.6333904E3,1.0447924E3,5.885979E2,2.2747505E2,8.173174E2,5.470352E2,4.156273E1,1.7769933E2,4.9775723E1,6.3165393E2,1.8566345E2,3.9073944E1,5.0796124E2,3.8327305E1,3.235422E0,1.2070613E2,5.6993202E1,9.606715E1,5.355868E2,5.6246567E1,1.2941689E2,3.1109827E1,7.9641156E0,7.4165825E1,4.337954E2,3.583852E1,2.4887862E0,6.0477505E1,6.0228626E1,4.9277966E1,4.678918E1,4.875532E2,4.8033573E1,4.330488E1,1.2941688E1,2.8372162E1,1.01044716E2,2.3643469E1,5.0522358E1,1.0179135E2,3.3200406E2],"tree_param":{"num_deleted":"0","num_feature":"1","num_nodes":"41","size_leaf_vector":"1"}},{"base_weights":[-1.3967078E-2,2.0309362E-1,-4.0382186E-1,7.6775886E-2,2.3779042E-1,-3.401961E-1,-5.808131E-1,1.054583E-1,4.5285687E-2,2.6386148E-1,4.7504943E-2,-3.475637E-1,-1.6389841E-1,-5.566616E-1,-6.784644E-2,6.004095E-3,4.351593E-3,8.8926026E-4,3.772065E-3,2.8765443E-1,2.1283664E-1,7.894516E-2,-6.5201625E-2,-2.4591239E-1,-3.600119E-1,1.4181884E-3,-2.1932921E-1,-5.637316E-1,-7.68017E-3,1.145858E-2,1.5551375E-2,9.971962E-3,1.5481797E-2,-2.4134887E-3,5.303911E-3,-5.197922E-3,-1.2519996E-3,-1.3734239E-2,-5.5119526E-3,-1.9435732E-2,-1.5151008E-2,-1.408795E-2,-2.8650993E-3,-3.3161122E-2,-2.626863E-2],"categories":[],"categories_nodes":[],"categories_segments":[],"categories_sizes":[],"default_left":[0,0,0,0,0,0,0,0,0,0,0,0,0,0,0,0,0,0,0,0,0,0,0,0,0,0,0,0,0,0,0,0,0,0,0,0,0,0,0,0,0,0,0,0,0],"id":1,"left_children":[1,3,5,7,9,11,13,15,17,19,21,23,25,27,-1,-1,-1,-1,-1,29,31,33,35,37,39,-1,41,43,-1,-1,-1,-1,-1,-1,-1,-1,-1,-1,-1,-1,-1,-1,-1,-1,-1],"loss_changes":[1.3955447E2,4.624817E0,6.4442596E0,2.0274806E-1,4.10812E0,5.096817E-1,2.1415024E0,2.1746516E-2,9.093599E-2,8.253937E-1,3.6413962E-1,4.4021606E-1,2.1289068E-1,3.4534836E-1,0E0,0E0,0E0,0E0,0E0,6.056442E-1,2.4442577E-1,2.8010228E-1,3.264395E-2,1.5999722E-1,4.8765945E-1,0E0,1.3727504E-1,2.1863556E-1,0E0,0E0,0E0,0E0,0E0,0E0,0E0,0E0,0E0,0E0,0E0,0E0,0E0,0E0,0E0,0E0,0E0],"parents":[2147483647,0,0,1,1,2,2,3,3,4,4,5,5,6,6,7,7,8,8,9,9,10,10,11,11,12,12,13,13,19,19,20,20,21,21,22,22,23,23,24,24,26,26,27,27],"right_children":[2,4,6,8,10,12,14,16,18,20,22,24,26,28,-1,-1,-1,-1,-1,30,32,34,36,38,40,-1,42,44,-1,-1,-1,-1,-1,-1,-1,-1,-1,-1,-1,-1,-1,-1,-1,-1,-1],"split_conditions":[4.533023E-2,-8.6814594E-1,1.7241513E0,-9.17523E-1,-1.5217812E-1,1.6253971E0,2.983267E0,-9.4221157E-1,-8.928345E-1,-5.225063E-1,-4.0468606E-3,1.6877295E-1,1.6500857E0,2.9092014E0,-6.784644E-2,6.004095E-3,4.351593E-3,8.8926026E-4,3.772065E-3,-7.940803E-1,-2.0155522E-1,-1.2748958E-1,2.0641685E-2,1.4408441E-1,1.0081835E0,1.4181884E-3,1.6994628E0,1.9463482E0,-7.68017E-3,1.145858E-2,1.5551375E-2,9.971962E-3,1.5481797E-2,-2.4134887E-3,5.303911E-3,-5.197922E-3,-1.2519996E-3,-1.3734239E-2,-5.5119526E-3,-1.9435732E-2,-1.5151008E-2,-1.408795E-2,-2.8650993E-3,-3.3161122E-2,-2.626863E-2],"split_indices":[0,0,0,0,0,0,0,0,0,0,0,0,0,0,0,0,0,0,0,0,0,0,0,0,0,0,0,0,0,0,0,0,0,0,0,0,0,0,0,0,0,0,0,0,0],"split_type":[0,0,0,0,0,0,0,0,0,0,0,0,0,0,0,0,0,0,0,0,0,0,0,0,0,0,0,0,0,0,0,0,0,0,0,0,0,0,0,0,0,0,0,0,0],"sum_hessian":[1.6471791E3,1.0583802E3,5.8879877E2,2.2876118E2,8.296191E2,4.3525357E2,1.5354518E2,1.1848857E2,1.1027261E2,7.293096E2,1.00309525E2,4.1686115E2,1.8392412E1,1.505767E2,2.9684749E0,6.2985302E1,5.5503273E1,5.8506897E1,5.1765717E1,4.942177E2,2.3509186E2,7.866498E1,2.1644548E1,4.7743675E1,3.691175E2,4.2252836E0,1.4167129E1,1.4758922E2,2.9874864E0,1.4420387E2,3.5001385E2,2.0919833E2,2.5893522E1,1.3691689E1,6.497329E1,1.0206532E1,1.1438017E1,3.8544823E1,9.198852E0,2.4161333E2,1.2750415E2,9.693298E0,4.4738297E0,3.6536278E1,1.1105293E2],"tree_param":{"num_deleted":"0","num_feature":"1","num_nodes":"45","size_leaf_vector":"1"}},{"base_weights":[1.2309432E-2,2.1979867E-1,-3.5596493E-1,2.420181E-1,6.686523E-2,-3.4585324E-1,-7.1566984E-2,5.9283054E-3,2.8253162E-1,3.745725E-2,1.1558615E-1,-3.2925376E-1,-5.838023E-1,2.4168546E-1,3.2256258E-1,5.6998465E-2,-3.6707574E-3,1.3508371E-2,5.999247E-2,-3.3156067E-1,6.415404E-3,-3.0798217E-2,-2.9659856E-3,1.2454409E-2,8.531511E-3,1.8309895E-2,1.2072153E-2,5.4356824E-3,2.1187158E-3,3.90375E-3,2.4228056E-3,-1.337075E-2,-1.7538114E-2],"categories":[],"categories_nodes":[],"categories_segments":[],"categories_sizes":[],"default_left":[0,0,0,0,0,0,0,0,0,0,0,0,0,0,0,0,0,0,0,0,0,0,0,0,0,0,0,0,0,0,0,0,0],"id":2,"left_children":[1,3,5,7,9,11,-1,-1,13,15,17,19,21,23,25,27,-1,-1,29,31,-1,-1,-1,-1,-1,-1,-1,-1,-1,-1,-1,-1,-1],"loss_changes":[1.25121E2,3.5426712E0,5.9216003E0,4.5382004E0,1.8800843E-1,2.1220627E0,0E0,0E0,1.0461655E0,1.8875885E-1,4.139021E-1,6.231003E-1,5.861635E-1,1.3858223E-1,1.1300278E0,5.0594464E-2,0E0,0E0,4.163906E-3,5.805855E-1,0E0,0E0,0E0,0E0,0E0,0E0,0E0,0E0,0E0,0E0,0E0,0E0,0E0],"parents":[2147483647,0,0,1,1,2,2,3,3,4,4,5,5,8,8,9,9,10,10,11,11,12,12,13,13,14,14,15,15,18,18,19,19],"right_children":[2,4,6,8,10,12,-1,-1,14,16,18,20,22,24,26,28,-1,-1,30,32,-1,-1,-1,-1,-1,-1,-1,-1,-1,-1,-1,-1,-1],"split_conditions":[2.0641685E-2,-2.2624376E-1,2.9585786E0,-8.6814594E-1,-7.81125E-2,2.5141847E0,-7.1566984E-2,5.9283054E-3,-6.7063755E-1,-1.0280104E-1,-5.342395E-2,2.4894962E0,2.9092014E0,-6.953261E-1,-4.2375213E-1,-2.0155522E-1,-3.6707574E-3,1.3508371E-2,-2.8735405E-2,3.9096984E-1,6.415404E-3,-3.0798217E-2,-2.9659856E-3,1.2454409E-2,8.531511E-3,1.8309895E-2,1.2072153E-2,5.4356824E-3,2.1187158E-3,3.90375E-3,2.4228056E-3,-1.337075E-2,-1.7538114E-2],"split_indices":[0,0,0,0,0,0,0,0,0,0,0,0,0,0,0,0,0,0,0,0,0,0,0,0,0,0,0,0,0,0,0,0,0],"split_type":[0,0,0,0,0,0,0,0,0,0,0,0,0,0,0,0,0,0,0,0,0,0,0,0,0,0,0,0,0,0,0,0,0],"sum_hessian":[1.6354077E3,1.0463099E3,5.890977E2,9.130692E2,1.3324074E2,5.849193E2,4.178353E0,2.2657652E2,6.8649274E2,8.4191505E1,4.904923E1,5.4900415E2,3.5915188E1,3.4326978E2,3.4322293E2,7.198933E1,1.2202178E1,1.1953155E1,3.7096077E1,5.465241E2,2.4800618E0,3.3675716E1,2.239471E0,3.086122E2,3.4657578E1,2.2088922E2,1.22333694E2,1.4451351E1,5.7537975E1,1.2202178E1,2.4893896E1,1.2934737E2,4.1717673E2],"tree_param":{"num_deleted":"0","num_feature":"1","num_nodes":"33","size_leaf_vector":"1"}},{"base_weights":[-1.0105689E-2,1.7261992E-1,-3.3909345E-1,1.9337717E-1,6.1039547E-3,-3.0871367E-1,-6.5052277E-1,1.050616E-1,2.516929E-1,2.7256005E-2,-3.5010835E-3,-1.7256168E-1,-3.2932642E-1,-5.7520264E-1,-6.59854E-2,1.3167225E-1,9.154359E-2,2.6952735E-1,1.2918013E-1,-8.21882E-3,7.8480974E-2,-2.2358865E-1,-7.4521094E-3,-3.8749054E-1,-2.7016097E-1,-3.1107342E-2,1.311034E-2,4.2349063E-3,8.930651E-3,8.638886E-4,5.6681023E-3,1.0780894E-2,1.5979925E-2,3.4009118E-3,7.1341544E-3,2.1757982E-3,-7.627215E-3,4.828232E-3,1.9079216E-3,-6.9173872E-3,-1.538417E-2,-1.7000247E-2,-3.1820208E-2,-8.965862E-3,-1.9542431E-2],"categories":[],"categories_nodes":[],"categories_segments":[],"categories_sizes":[],"default_left":[0,0,0,0,0,0,0,0,0,0,0,0,0,0,0,0,0,0,0,0,0,0,0,0,0,0,0,0,0,0,0,0,0,0,0,0,0,0,0,0,0,0,0,0,0],"id":3,"left_children":[1,3,5,7,9,11,13,15,17,19,-1,21,23,25,-1,27,29,31,33,35,37,39,-1,41,43,-1,-1,-1,-1,-1,-1,-1,-1,-1,-1,-1,-1,-1,-1,-1,-1,-1,-1,-1,-1],"loss_changes":[9.851482E1,3.6406193E0,5.3356247E0,4.798355E0,1.9161882E-1,1.4448318E0,1.8168507E0,1.2258768E-1,1.1964607E0,1.6949645E-1,0E0,5.3632498E-2,1.4907455E0,2.0386515E0,0E0,2.578628E-1,4.0554214E-1,1.2564354E0,5.102074E-2,4.2331025E-1,2.4107307E-2,1.06969E-1,0E0,2.519703E0,2.485899E0,0E0,0E0,0E0,0E0,0E0,0E0,0E0,0E0,0E0,0E0,0E0,0E0,0E0,0E0,0E0,0E0,0E0,0E0,0E0,0E0],"parents":[2147483647,0,0,1,1,2,2,3,3,4,4,5,5,6,6,7,7,8,8,9,9,11,11,12,12,13,13,15,15,16,16,17,17,18,18,19,19,20,20,21,21,23,23,24,24],"right_children":[2,4,6,8,10,12,14,16,18,20,-1,22,24,26,-1,28,30,32,34,36,38,40,-1,42,44,-1,-1,-1,-1,-1,-1,-1,-1,-1,-1,-1,-1,-1,-1,-1,-1,-1,-1,-1,-1],"split_conditions":[2.0641685E-2,-2.0155522E-1,2.4154305E0,-7.940803E-1,-2.8735405E-2,2.1815005E-1,2.983267E0,-9.17523E-1,-3.2499793E-1,-1.0280104E-1,-3.5010835E-3,7.0018776E-2,1.0575606E0,2.9092014E0,-6.59854E-2,-9.4221157E-1,-8.928345E-1,-6.45949E-1,-3.003094E-1,-1.2748958E-1,-5.342395E-2,4.533023E-2,-7.4521094E-3,8.8474077E-1,1.7241513E0,-3.1107342E-2,1.311034E-2,4.2349063E-3,8.930651E-3,8.638886E-4,5.6681023E-3,1.0780894E-2,1.5979925E-2,3.4009118E-3,7.1341544E-3,2.1757982E-3,-7.627215E-3,4.828232E-3,1.9079216E-3,-6.9173872E-3,-1.538417E-2,-1.7000247E-2,-3.1820208E-2,-8.965862E-3,-1.9542431E-2],"split_indices":[0,0,0,0,0,0,0,0,0,0,0,0,0,0,0,0,0,0,0,0,0,0,0,0,0,0,0,0,0,0,0,0,0,0,0,0,0,0,0,0,0,0,0,0,0],"split_type":[0,0,0,0,0,0,0,0,0,0,0,0,0,0,0,0,0,0,0,0,0,0,0,0,0,0,0,0,0,0,0,0,0,0,0,0,0,0,0,0,0,0,0,0,0],"sum_hessian":[1.6368129E3,1.0526357E3,5.841772E2,9.3581885E2,1.1681692E2,5.340702E2,5.0106964E1,3.732923E2,5.625265E2,9.1918625E1,2.4898289E1,7.145628E1,4.6261392E2,4.670917E1,3.3977938E0,1.22805374E2,2.5048694E2,4.8999658E2,7.252993E1,5.480446E1,3.711417E1,1.9860718E1,5.1595562E1,2.3048277E2,2.3213115E2,4.4473118E1,2.2360535E0,6.2782566E1,6.002281E1,5.7286526E1,1.9320041E2,2.3850961E2,2.5148697E2,1.4208691E1,5.832124E1,4.085728E1,1.3947178E1,2.4659977E1,1.2454194E1,1.1176765E1,8.683952E0,1.9554443E2,3.493834E1,1.3385895E2,9.827221E1],"tree_param":{"num_deleted":"0","num_feature":"1","num_nodes":"45","size_leaf_vector":"1"}},{"base_weights":[-4.242971E-3,1.7149411E-1,-2.8879863E-1,4.4452414E-2,2.0809957E-1,-2.3532452E-1,-4.5016313E-1,7.593865E-2,8.860838E-3,2.2567677E-1,1.4300301E-2,-7.165768E-2,-2.5748128E-1,-4.2143238E-1,-6.505354E-2,1.158767E-3,6.448542E-3,-2.288042E-3,3.4527115E-3,1.9585545E-1,2.7461067E-1,4.5815553E-3,2.86548E-3,-1.1510103E-2,-2.4303671E-2,-2.8623506E-1,-2.0367698E-1,-4.3761167E-1,1.9620745E-2,1.0239507E-2,1.1729707E-3,1.5734464E-2,7.931782E-3,1.7023033E-3,-2.8254342E-4,-2.016169E-3,1.6080594E-3,-1.2629478E-2,-2.0280981E-2,-6.939344E-3,-1.2103899E-2,-2.7025769E-2,-2.0094758E-2],"categories":[],"categories_nodes":[],"categories_segments":[],"categories_sizes":[],"default_left":[0,0,0,0,0,0,0,0,0,0,0,0,0,0,0,0,0,0,0,0,0,0,0,0,0,0,0,0,0,0,0,0,0,0,0,0,0,0,0,0,0,0,0],"id":4,"left_children":[1,3,5,7,9,11,13,15,17,19,21,23,25,27,-1,-1,-1,-1,-1,29,31,33,-1,-1,35,37,39,41,-1,-1,-1,-1,-1,-1,-1,-1,-1,-1,-1,-1,-1,-1,-1],"loss_changes":[8.234107E1,4.7246323E0,5.3186073E0,2.5592285E-1,2.687786E0,1.7014236E0,3.2502651E0,3.3659637E-1,3.602583E-1,1.003048E0,2.7642392E-2,4.2937213E-1,5.873585E-1,2.1703224E0,0E0,0E0,0E0,0E0,0E0,6.936817E-1,1.2131767E0,1.693759E-2,0E0,0E0,4.2661496E-2,9.8013306E-1,3.3723974E-1,3.3148956E-1,0E0,0E0,0E0,0E0,0E0,0E0,0E0,0E0,0E0,0E0,0E0,0E0,0E0,0E0,0E0],"parents":[2147483647,0,0,1,1,2,2,3,3,4,4,5,5,6,6,7,7,8,8,9,9,10,10,11,11,12,12,13,13,19,19,20,20,21,21,24,24,25,25,26,26,27,27],"right_children":[2,4,6,8,10,12,14,16,18,20,22,24,26,28,-1,-1,-1,-1,-1,30,32,34,-1,-1,36,38,40,42,-1,-1,-1,-1,-1,-1,-1,-1,-1,-1,-1,-1,-1,-1,-1],"split_conditions":[-5.342395E-2,-8.6814594E-1,1.7241513E0,-9.17523E-1,-1.7686668E-1,7.0018776E-2,2.983267E0,-9.4221157E-1,-8.928345E-1,-5.718834E-1,-7.81125E-2,-2.8735405E-2,9.8349494E-1,2.9092014E0,-6.505354E-2,1.158767E-3,6.448542E-3,-2.288042E-3,3.4527115E-3,-5.965719E-1,-3.003094E-1,-1.5217812E-1,2.86548E-3,-1.1510103E-2,4.533023E-2,7.3660946E-1,1.2550689E0,1.9216596E0,1.9620745E-2,1.0239507E-2,1.1729707E-3,1.5734464E-2,7.931782E-3,1.7023033E-3,-2.8254342E-4,-2.016169E-3,1.6080594E-3,-1.2629478E-2,-2.0280981E-2,-6.939344E-3,-1.2103899E-2,-2.7025769E-2,-2.0094758E-2],"split_indices":[0,0,0,0,0,0,0,0,0,0,0,0,0,0,0,0,0,0,0,0,0,0,0,0,0,0,0,0,0,0,0,0,0,0,0,0,0,0,0,0,0,0,0],"split_type":[0,0,0,0,0,0,0,0,0,0,0,0,0,0,0,0,0,0,0,0,0,0,0,0,0,0,0,0,0,0,0,0,0,0,0,0,0,0,0,0,0,0,0],"sum_hessian":[1.6446012E3,1.0169477E3,6.276535E2,2.2797154E2,7.8897614E2,4.7327472E2,1.543788E2,1.20360504E2,1.0761103E2,7.232173E2,6.575885E1,5.6936012E1,4.163387E2,1.5078291E2,3.5958867E0,6.105352E1,5.930698E1,5.654228E1,5.1068752E1,4.524732E2,2.707441E2,5.454086E1,1.1217989E1,1.2206508E1,4.4729504E1,2.685186E2,1.4782011E2,1.4829706E2,2.485855E0,4.299999E2,2.2473284E1,1.9993666E2,7.080744E1,1.3458761E1,4.10821E1,3.506659E1,9.662913E0,2.1191225E2,5.6606346E1,5.667117E1,9.114894E1,3.456823E1,1.1372883E2],"tree_param":{"num_deleted":"0","num_feature":"1","num_nodes":"43","size_leaf_vector":"1"}},{"base_weights":[-2.108887E-3,1.8504323E-1,-3.416764E-1,1.115667E-1,2.3313789E-1,-2.902225E-1,-4.935586E-1,9.959367E-2,7.511023E-3,2.7084386E-1,1.3215469E-1,-3.3198285E-1,-1.8959284E-1,-4.6760845E-1,-6.224531E-2,1.0914695E-1,2.2905327E-3,2.1780252E-1,3.0782613E-1,1.4377314E-1,-1.6363381E-3,-2.8012374E-1,-4.0613636E-1,-2.2930928E-1,-1.3039541E-1,-5.680006E-1,-4.3780297E-1,4.5534116E-3,6.974251E-3,1.415624E-2,4.522499E-3,1.7244684E-2,1.4533589E-2,4.0521864E-3,9.528268E-3,-1.4887514E-2,-7.4422206E-3,-2.6143415E-2,-1.9408202E-2,-5.0699646E-3,-1.3760455E-2,-5.3120404E-4,-1.0054353E-2,-2.3367641E-2,-3.6747176E-2,-1.9216733E-2,-2.37509E-2],"categories":[],"categories_nodes":[],"categories_segments":[],"categories_sizes":[],"default_left":[0,0,0,0,0,0,0,0,0,0,0,0,0,0,0,0,0,0,0,0,0,0,0,0,0,0,0,0,0,0,0,0,0,0,0,0,0,0,0,0,0,0,0,0,0,0,0],"id":5,"left_children":[1,3,5,7,9,11,13,15,-1,17,19,21,23,25,-1,27,-1,29,31,33,-1,35,37,39,41,43,45,-1,-1,-1,-1,-1,-1,-1,-1,-1,-1,-1,-1,-1,-1,-1,-1,-1,-1,-1,-1],"loss_changes":[1.04969894E2,3.73703E0,4.44326E0,1.8089056E-1,2.4113045E0,1.7894745E0,2.2856674E0,1.6253734E-1,0E0,8.4900665E-1,3.4316444E-1,1.0790977E0,2.795334E-1,1.8153763E-1,0E0,1.38767E-1,0E0,1.5987873E0,7.3171616E-2,4.6956062E-1,0E0,3.8552856E-1,6.0195923E-2,4.2679548E-1,4.64926E-1,1.5305519E-1,4.6710968E-2,0E0,0E0,0E0,0E0,0E0,0E0,0E0,0E0,0E0,0E0,0E0,0E0,0E0,0E0,0E0,0E0,0E0,0E0,0E0,0E0],"parents":[2147483647,0,0,1,1,2,2,3,3,4,4,5,5,6,6,7,7,9,9,10,10,11,11,12,12,13,13,15,15,17,17,18,18,19,19,21,21,22,22,23,23,24,24,25,25,26,26],"right_children":[2,4,6,8,10,12,14,16,-1,18,20,22,24,26,-1,28,-1,30,32,34,-1,36,38,40,42,44,46,-1,-1,-1,-1,-1,-1,-1,-1,-1,-1,-1,-1,-1,-1,-1,-1,-1,-1,-1,-1],"split_conditions":[2.0641685E-2,-7.693918E-1,1.7488399E0,-8.1876886E-1,-3.003094E-1,1.1069376E0,2.983267E0,-8.434574E-1,7.511023E-3,-6.45949E-1,-4.0468606E-3,5.6378967E-1,1.4772658E0,1.9216596E0,-6.224531E-2,-8.928345E-1,2.2905327E-3,-6.953261E-1,-5.718834E-1,-1.7686668E-1,-1.6363381E-3,4.8972404E-1,6.1316675E-1,1.2056918E0,1.57602E0,1.8722825E0,2.291988E0,4.5534116E-3,6.974251E-3,1.415624E-2,4.522499E-3,1.7244684E-2,1.4533589E-2,4.0521864E-3,9.528268E-3,-1.4887514E-2,-7.4422206E-3,-2.6143415E-2,-1.9408202E-2,-5.0699646E-3,-1.3760455E-2,-5.3120404E-4,-1.0054353E-2,-2.3367641E-2,-3.6747176E-2,-1.9216733E-2,-2.37509E-2],"split_indices":[0,0,0,0,0,0,0,0,0,0,0,0,0,0,0,0,0,0,0,0,0,0,0,0,0,0,0,0,0,0,0,0,0,0,0,0,0,0,0,0,0,0,0,0,0,0,0],"split_type":[0,0,0,0,0,0,0,0,0,0,0,0,0,0,0,0,0,0,0,0,0,0,0,0,0,0,0,0,0,0,0,0,0,0,0,0,0,0,0,0,0,0,0,0,0,0,0],"sum_hessian":[1.6497533E3,1.0638623E3,5.85891E2,4.2218692E2,6.416754E2,4.398064E2,1.4608461E2,3.2507214E2,9.7114784E1,4.6599588E2,1.7567952E2,3.0919458E2,1.3061183E2,1.4277576E2,3.3088481E0,2.75166E2,4.9906166E1,1.9426434E2,2.7173154E2,1.6423466E2,1.1444853E1,1.8476036E2,1.24434204E2,7.644806E1,5.416377E1,2.8551254E1,1.142245E2,1.7492711E2,1.0023886E2,1.275947E2,6.666964E1,7.992432E1,1.9180722E2,7.1335144E1,9.289953E1,1.6177165E2,2.298872E1,1.2853908E1,1.1158029E2,2.1035938E1,5.541212E1,2.0530197E1,3.3633575E1,2.0182783E1,8.368471E0,5.1524555E1,6.2699947E1],"tree_param":{"num_deleted":"0","num_feature":"1","num_nodes":"47","size_leaf_vector":"1"}},{"base_weights":[5.488063E-3,1.5794913E-1,-2.9524818E-1,8.72825E-2,2.0292352E-1,-2.3863694E-1,-4.4019836E-1,6.1955824E-2,1.1753874E-1,2.9152584E-1,7.37981E-2,-2.7346957E-1,-1.639301E-1,-4.207841E-1,-5.694006E-2,4.5266254E-3,5.0862785E-2,1.2225517E-1,5.073638E-3,8.238981E-3,3.053294E-1,8.701133E-2,-3.0500673E-2,-2.4331532E-1,-3.685764E-1,-1.259043E-1,-2.2451761E-1,-4.2861658E-1,5.5225054E-3,1.001066E-3,3.3826367E-3,5.5699707E-3,7.025844E-3,1.8894846E-2,1.4732467E-2,5.144381E-3,2.5706268E-3,-2.430313E-3,3.8607718E-4,-1.4827986E-2,-1.02143E-2,-2.4583345E-2,-1.4109281E-2,-7.865912E-3,5.2224207E-3,-1.526127E-2,-8.992502E-3,-2.667974E-2,-1.966497E-2],"categories":[],"categories_nodes":[],"categories_segments":[],"categories_sizes":[],"default_left":[0,0,0,0,0,0,0,0,0,0,0,0,0,0,0,0,0,0,0,0,0,0,0,0,0,0,0,0,0,0,0,0,0,0,0,0,0,0,0,0,0,0,0,0,0,0,0,0,0],"id":6,"left_children":[1,3,5,7,9,11,13,15,17,19,21,23,25,27,-1,-1,29,31,-1,-1,33,35,37,39,41,43,45,47,-1,-1,-1,-1,-1,-1,-1,-1,-1,-1,-1,-1,-1,-1,-1,-1,-1,-1,-1,-1,-1],"loss_changes":[7.49812E1,3.4311543E0,4.409416E0,3.1746507E-1,7.5566044E0,9.903908E-1,1.6004639E0,6.919438E-2,2.1419525E-3,6.363678E-1,3.7596953E-1,6.841297E-1,2.6893353E-1,6.746979E-1,0E0,0E0,8.666843E-2,1.2801886E-2,0E0,0E0,1.6205978E-1,1.3074136E-1,2.1966401E-2,3.7126255E-1,5.3131676E-1,6.064321E-1,1.1982727E-1,3.41774E-1,0E0,0E0,0E0,0E0,0E0,0E0,0E0,0E0,0E0,0E0,0E0,0E0,0E0,0E0,0E0,0E0,0E0,0E0,0E0,0E0,0E0],"parents":[2147483647,0,0,1,1,2,2,3,3,4,4,5,5,6,6,7,7,8,8,9,9,10,10,11,11,12,12,13,13,16,16,17,17,20,20,21,21,22,22,23,23,24,24,25,25,26,26,27,27],"right_children":[2,4,6,8,10,12,14,16,18,20,22,24,26,28,-1,-1,30,32,-1,-1,34,36,38,40,42,44,46,48,-1,-1,-1,-1,-1,-1,-1,-1,-1,-1,-1,-1,-1,-1,-1,-1,-1,-1,-1,-1,-1],"split_conditions":[9.470732E-2,-7.693918E-1,1.6994628E0,-8.6814594E-1,-3.990636E-1,1.0328721E0,2.983267E0,-9.4221157E-1,-7.940803E-1,-7.4470323E-1,2.0641685E-2,7.61298E-1,1.4525772E0,2.9338899E0,-5.694006E-2,4.5266254E-3,-9.17523E-1,-8.1876886E-1,5.073638E-3,8.238981E-3,-7.2001463E-1,-1.2748958E-1,7.0018776E-2,3.4159276E-1,8.600522E-1,1.4032001E0,1.5266429E0,1.9216596E0,5.5225054E-3,1.001066E-3,3.3826367E-3,5.5699707E-3,7.025844E-3,1.8894846E-2,1.4732467E-2,5.144381E-3,2.5706268E-3,-2.430313E-3,3.8607718E-4,-1.4827986E-2,-1.02143E-2,-2.4583345E-2,-1.4109281E-2,-7.865912E-3,5.2224207E-3,-1.526127E-2,-8.992502E-3,-2.667974E-2,-1.966497E-2],"split_indices":[0,0,0,0,0,0,0,0,0,0,0,0,0,0,0,0,0,0,0,0,0,0,0,0,0,0,0,0,0,0,0,0,0,0,0,0,0,0,0,0,0,0,0,0,0,0,0,0,0],"split_type":[0,0,0,0,0,0,0,0,0,0,0,0,0,0,0,0,0,0,0,0,0,0,0,0,0,0,0,0,0,0,0,0,0,0,0,0,0,0,0,0,0,0,0,0,0,0,0,0,0],"sum_hessian":[1.6333215E3,1.0841675E3,5.491541E2,4.2279135E2,6.613761E2,3.968199E2,1.523342E2,2.3180307E2,1.9098828E2,3.914892E2,2.6988687E2,2.6881995E2,1.2799994E2,1.4977426E2,2.5599308E0,6.281772E1,1.6898534E2,1.4253525E2,4.8453045E1,3.9719288E1,3.5176993E2,2.3968748E2,3.019938E1,2.0680832E2,6.2011642E1,8.053363E1,4.7466305E1,1.4778844E2,1.9858251E0,6.0339718E1,1.0864562E2,9.384741E1,4.8687828E1,4.0718517E1,3.110514E2,1.6445427E2,7.5233215E1,2.0307968E1,9.891413E0,8.468345E1,1.2212486E2,2.3639145E1,3.8372498E1,7.114801E1,9.385625E0,1.4832635E1,3.263367E1,3.3651833E1,1.1413661E2],"tree_param":{"num_deleted":"0","num_feature":"1","num_nodes":"49","size_leaf_vector":"1"}},{"base_weights":[1.3576906E-2,1.785235E-1,-2.8876004E-1,4.7430564E-2,2.14377E-1,-2.4177767E-1,-4.0749815E-1,3.8547665E-3,3.6459796E-2,2.5308055E-1,9.4219804E-2,-2.6792583E-1,-1.516434E-1,-3.9119124E-1,-5.3997368E-2,1.2168802E-3,4.2562835E-2,2.3367436E-1,1.76732E-2,-2.466769E-3,1.0703735E-1,-2.333669E-1,-3.4661317E-1,-1.0883967E-1,-1.3030961E-2,-5.069605E-1,-3.3914796E-1,1.879954E-3,2.3629635E-3,1.1987696E-2,2.7313025E-3,8.059661E-3,4.454495E-3,-1.2942063E-2,-7.4361973E-3,-1.651685E-2,-2.7888415E-2,-8.471074E-3,-2.6014735E-4,-2.1427996E-2,-3.126677E-2,-1.208834E-2,-2.270539E-2],"categories":[],"categories_nodes":[],"categories_segments":[],"categories_sizes":[],"default_left":[0,0,0,0,0,0,0,0,0,0,0,0,0,0,0,0,0,0,0,0,0,0,0,0,0,0,0,0,0,0,0,0,0,0,0,0,0,0,0,0,0,0,0],"id":7,"left_children":[1,3,5,7,9,11,13,-1,15,17,19,21,23,25,-1,-1,27,29,-1,-1,31,33,35,37,-1,39,41,-1,-1,-1,-1,-1,-1,-1,-1,-1,-1,-1,-1,-1,-1,-1,-1],"loss_changes":[8.19456E1,4.9866295E0,3.1373444E0,7.1911216E-2,3.85709E0,9.44685E-1,1.36479E0,0E0,1.1504829E-2,1.1458626E0,3.823167E-1,7.9678535E-1,4.2089367E-1,7.9626465E-1,0E0,0E0,8.203089E-4,5.653534E-1,0E0,0E0,1.687839E-1,4.5165348E-1,1.471653E-1,4.4406772E-1,0E0,1.7576599E-1,1.1651058E0,0E0,0E0,0E0,0E0,0E0,0E0,0E0,0E0,0E0,0E0,0E0,0E0,0E0,0E0,0E0,0E0],"parents":[2147483647,0,0,1,1,2,2,3,3,4,4,5,5,6,6,8,8,9,9,10,10,11,11,12,12,13,13,16,16,17,17,20,20,21,21,22,22,23,23,25,25,26,26],"right_children":[2,4,6,8,10,12,14,-1,16,18,20,22,24,26,-1,-1,28,30,-1,-1,32,34,36,38,-1,40,42,-1,-1,-1,-1,-1,-1,-1,-1,-1,-1,-1,-1,-1,-1,-1,-1],"split_conditions":[4.533023E-2,-8.6814594E-1,1.6500857E0,-9.4221157E-1,-3.2499793E-1,1.1810033E0,2.983267E0,3.8547665E-3,-9.17523E-1,-4.731292E-1,-3.003094E-1,7.3660946E-1,1.5266429E0,1.9216596E0,-5.3997368E-2,1.2168802E-3,-8.928345E-1,-4.9781775E-1,1.76732E-2,-2.466769E-3,-2.2624376E-1,5.391011E-1,1.1563147E0,1.4032001E0,-1.3030961E-2,1.8229054E0,2.390742E0,1.879954E-3,2.3629635E-3,1.1987696E-2,2.7313025E-3,8.059661E-3,4.454495E-3,-1.2942063E-2,-7.4361973E-3,-1.651685E-2,-2.7888415E-2,-8.471074E-3,-2.6014735E-4,-2.1427996E-2,-3.126677E-2,-1.208834E-2,-2.270539E-2],"split_indices":[0,0,0,0,0,0,0,0,0,0,0,0,0,0,0,0,0,0,0,0,0,0,0,0,0,0,0,0,0,0,0,0,0,0,0,0,0,0,0,0,0,0,0],"split_type":[0,0,0,0,0,0,0,0,0,0,0,0,0,0,0,0,0,0,0,0,0,0,0,0,0,0,0,0,0,0,0,0,0,0,0,0,0,0,0,0,0,0,0],"sum_hessian":[1.6411688E3,1.062117E3,5.790518E2,2.2859964E2,8.3351733E2,4.1706403E2,1.6198782E2,6.0089996E1,1.6850964E2,6.2960913E2,2.0390817E2,3.2175085E2,9.5313156E1,1.5969691E2,2.2909114E0,5.809865E1,1.1041099E2,5.303998E2,9.920939E1,1.6480392E1,1.8742778E2,2.2631895E2,9.543191E1,6.9868744E1,2.5444414E1,4.6815556E1,1.1288136E2,5.805616E1,5.2354828E1,5.126536E2,1.7746132E1,4.4666523E1,1.4276125E2,1.7238081E2,5.3938145E1,9.09832E1,4.4487057E0,4.3692898E1,2.6175848E1,3.0942488E1,1.5873067E1,6.279309E1,5.0088272E1],"tree_param":{"num_deleted":"0","num_feature":"1","num_nodes":"43","size_leaf_vector":"1"}},{"base_weights":[-8.126449E-3,1.5087706E-1,-2.843429E-1,2.1217592E-2,1.77965E-1,-2.3046431E-1,-4.0973136E-1,3.7352163E-3,-8.262225E-3,1.9210541E-1,9.1050066E-2,-2.3928832E-1,-5.669704E-2,-3.94129E-1,-5.424103E-2,5.393589E-4,-1.4467355E-3,1.7053394E-1,2.5070637E-1,7.092019E-2,1.3168913E-2,-2.517406E-1,-1.8516302E-1,-3.8312895E-3,-2.8663924E-2,-4.0030178E-1,-1.9736215E-6,8.7257E-3,3.007841E-3,1.5836688E-2,9.5779495E-3,4.7944426E-3,-6.289191E-3,-1.0919947E-2,-1.6338041E-2,7.220902E-4,-1.2649666E-2,-2.1040674E-5,-2.445147E-3,-1.7951576E-2,-2.4723927E-2],"categories":[],"categories_nodes":[],"categories_segments":[],"categories_sizes":[],"default_left":[0,0,0,0,0,0,0,0,0,0,0,0,0,0,0,0,0,0,0,0,0,0,0,0,0,0,0,0,0,0,0,0,0,0,0,0,0,0,0,0,0],"id":8,"left_children":[1,3,5,7,9,11,13,-1,15,17,19,21,23,25,-1,-1,-1,27,29,31,-1,33,35,-1,37,39,-1,-1,-1,-1,-1,-1,-1,-1,-1,-1,-1,-1,-1,-1,-1],"loss_changes":[7.2226265E1,3.6620674E0,3.9644241E0,2.8681427E-1,1.043438E0,6.342869E-1,1.4608383E0,0E0,4.6746593E-2,8.9463615E-1,4.0693069E-1,2.2418404E-1,9.942941E-3,4.3008423E-1,0E0,0E0,0E0,2.289896E-1,7.1022415E-1,5.583459E-1,0E0,7.3869705E-1,1.0722935E0,0E0,6.0535986E-3,4.9905586E-1,0E0,0E0,0E0,0E0,0E0,0E0,0E0,0E0,0E0,0E0,0E0,0E0,0E0,0E0,0E0],"parents":[2147483647,0,0,1,1,2,2,3,3,4,4,5,5,6,6,8,8,9,9,10,10,11,11,12,12,13,13,17,17,18,18,19,19,21,21,22,22,24,24,25,25],"right_children":[2,4,6,8,10,12,14,-1,16,18,20,22,24,26,-1,-1,-1,28,30,32,-1,34,36,-1,38,40,-1,-1,-1,-1,-1,-1,-1,-1,-1,-1,-1,-1,-1,-1,-1],"split_conditions":[-4.0468606E-3,-8.928345E-1,1.5513315E0,-9.4221157E-1,-2.2624376E-1,1.4525772E0,2.983267E0,3.7352163E-3,-9.17523E-1,-5.225063E-1,-2.8735405E-2,1.0575606E0,1.5019543E0,2.9092014E0,-5.424103E-2,5.393589E-4,-1.4467355E-3,-5.4719484E-1,-3.990636E-1,-5.342395E-2,1.3168913E-2,6.378553E-1,1.1563147E0,-3.8312895E-3,1.5266429E0,2.3660533E0,-1.9736215E-6,8.7257E-3,3.007841E-3,1.5836688E-2,9.5779495E-3,4.7944426E-3,-6.289191E-3,-1.0919947E-2,-1.6338041E-2,7.220902E-4,-1.2649666E-2,-2.1040674E-5,-2.445147E-3,-1.7951576E-2,-2.4723927E-2],"split_indices":[0,0,0,0,0,0,0,0,0,0,0,0,0,0,0,0,0,0,0,0,0,0,0,0,0,0,0,0,0,0,0,0,0,0,0,0,0,0,0,0,0],"split_type":[0,0,0,0,0,0,0,0,0,0,0,0,0,0,0,0,0,0,0,0,0,0,0,0,0,0,0,0,0,0,0,0,0,0,0,0,0,0,0,0,0],"sum_hessian":[1.6425422E3,1.0427429E3,5.997993E2,1.8050737E2,8.6223553E2,4.2151508E2,1.7828424E2,6.3593094E1,1.16914276E2,7.405442E2,1.21691315E2,4.0078586E2,2.0729197E1,1.7580493E2,2.4793084E0,6.1094627E1,5.5819653E1,5.4414874E2,1.9639545E2,1.1022709E2,1.1464227E1,3.2285687E2,7.792899E1,1.1102806E1,9.6263895E0,1.7307819E2,2.7267597E0,5.246495E2,1.9499304E1,9.074265E1,1.056528E2,9.8266174E1,1.1960913E1,2.2622536E2,9.663151E1,1.9964975E1,5.796402E1,4.444699E0,5.181691E0,1.2368781E2,4.9390366E1],"tree_param":{"num_deleted":"0","num_feature":"1","num_nodes":"41","size_leaf_vector":"1"}},{"base_weights":[3.8196873E-3,1.5585412E-1,-2.6178962E-1,1.7258874E-1,3.0321764E-2,-2.1923772E-1,-3.926868E-1,1.1066893E-1,2.2441372E-1,4.5559328E-2,-3.441021E-3,-2.2796568E-1,8.137588E-2,-3.615341E-1,-4.3089595E-2,1.23825155E-1,4.215732E-3,2.4905597E-1,1.8484192E-1,1.5943948E-2,5.1376596E-3,-1.5473943E-3,2.6685966E-3,-8.401856E-2,-2.4987005E-1,1.4078264E-1,-3.0899832E-3,-4.3186364E-1,-2.5894767E-1,5.3794156E-3,9.525215E-3,1.1940716E-2,1.5434104E-2,5.9516057E-3,1.1895942E-2,3.5978823E-3,-1.8753602E-4,-5.9063286E-3,-1.9779415E-3,-2.8039081E-2,-1.2058281E-2,-9.928404E-4,1.6101973E-2,-2.0247318E-2,-3.4001205E-2,-8.276454E-3,-1.814006E-2],"categories":[],"categories_nodes":[],"categories_segments":[],"categories_sizes":[],"default_left":[0,0,0,0,0,0,0,0,0,0,0,0,0,0,0,0,0,0,0,0,0,0,0,0,0,0,0,0,0,0,0,0,0,0,0,0,0,0,0,0,0,0,0,0,0,0,0],"id":9,"left_children":[1,3,5,7,9,11,13,15,17,19,21,23,25,27,-1,29,-1,31,33,35,-1,-1,-1,37,39,41,-1,43,45,-1,-1,-1,-1,-1,-1,-1,-1,-1,-1,-1,-1,-1,-1,-1,-1,-1,-1],"loss_changes":[6.612695E1,2.1825066E0,3.234253E0,2.923273E0,6.380253E-2,1.2048473E0,1.807167E0,1.3537598E-1,4.4070244E-1,1.428655E-1,6.322498E-2,1.3652382E0,1.2347384E-1,8.8147545E-1,0E0,2.8090048E-1,0E0,1.12363815E-1,6.5430117E-1,6.3582405E-2,0E0,0E0,0E0,8.566317E-2,8.9605904E-1,2.9296112E-1,0E0,2.602234E-1,5.07442E-1,0E0,0E0,0E0,0E0,0E0,0E0,0E0,0E0,0E0,0E0,0E0,0E0,0E0,0E0,0E0,0E0,0E0,0E0],"parents":[2147483647,0,0,1,1,2,2,3,3,4,4,5,5,6,6,7,7,8,8,9,9,10,10,11,11,12,12,13,13,15,15,17,17,18,18,19,19,23,23,24,24,25,25,27,27,28,28],"right_children":[2,4,6,8,10,12,14,16,18,20,22,24,26,28,-1,30,-1,32,34,36,-1,-1,-1,38,40,42,-1,44,46,-1,-1,-1,-1,-1,-1,-1,-1,-1,-1,-1,-1,-1,-1,-1,-1,-1,-1],"split_conditions":[-4.0468606E-3,-2.2624376E-1,1.7488399E0,-7.693918E-1,-7.81125E-2,1.6747742E0,2.8598244E0,-8.434574E-1,-5.225063E-1,-1.2748958E-1,-2.8735405E-2,1.4408441E-1,1.7241513E0,2.291988E0,-4.3089595E-2,-8.6814594E-1,4.215732E-3,-5.718834E-1,-3.990636E-1,-2.0155522E-1,5.1376596E-3,-1.5473943E-3,2.6685966E-3,7.0018776E-2,1.6877295E-1,1.6994628E0,-3.0899832E-3,2.2426107E0,2.563562E0,5.3794156E-3,9.525215E-3,1.1940716E-2,1.5434104E-2,5.9516057E-3,1.1895942E-2,3.5978823E-3,-1.8753602E-4,-5.9063286E-3,-1.9779415E-3,-2.8039081E-2,-1.2058281E-2,-9.928404E-4,1.6101973E-2,-2.0247318E-2,-3.4001205E-2,-8.276454E-3,-1.814006E-2],"split_indices":[0,0,0,0,0,0,0,0,0,0,0,0,0,0,0,0,0,0,0,0,0,0,0,0,0,0,0,0,0,0,0,0,0,0,0,0,0,0,0,0,0,0,0,0,0,0,0],"split_type":[0,0,0,0,0,0,0,0,0,0,0,0,0,0,0,0,0,0,0,0,0,0,0,0,0,0,0,0,0,0,0,0,0,0,0,0,0,0,0,0,0,0,0,0,0,0,0],"sum_hessian":[1.6355349E3,1.0404156E3,5.951194E2,9.177025E2,1.22713104E2,4.5113867E2,1.4398068E2,4.1955682E2,4.9814566E2,8.431245E1,3.8400654E1,4.386448E2,1.2493885E1,1.3667494E2,7.305738E0,2.7738565E2,1.4217119E2,3.0371912E2,1.9442653E2,5.6391373E1,2.7921074E1,2.6180319E1,1.2220337E1,5.8571423E1,3.8007336E2,8.841896E0,3.6519883E0,7.9181335E1,5.7493614E1,2.2516895E2,5.22167E1,2.6346954E2,4.024958E1,8.824928E1,1.06177246E2,1.3979254E1,4.2412117E1,3.220664E1,2.6364784E1,8.623609E0,3.7144977E2,5.159618E0,3.6822786E0,7.3807434E1,5.3739E0,3.1632944E1,2.5860668E1],"tree_param":{"num_deleted":"0","num_feature":"1","num_nodes":"47","size_leaf_vector":"1"}},{"base_weights":[-3.4785748E-3,1.2109253E-1,-2.403713E-1,1.3817586E-1,5.063883E-2,-3.737604E-2,-2.3130608E-1,7.6911E-2,1.668998E-1,-5.8226064E-2,7.005015E-2,-2.2587565E-1,-5.2018713E-2,1.6025776E-3,8.9436084E-2,1.5927182E-1,1.4124203E-2,-2.1302167E-3,-3.5277386E-3,8.786169E-3,5.926471E-2,-2.0140749E-1,-2.8246927E-1,5.9606824E-3,3.8938266E-3,7.4652033E-3,9.308299E-3,-1.1392504E-3,3.7930608E-3,-1.2124191E-2,-3.5184675E-3,-1.7804334E-2,-8.970621E-3],"categories":[],"categories_nodes":[],"categories_segments":[],"categories_sizes":[],"default_left":[0,0,0,0,0,0,0,0,0,0,0,0,0,0,0,0,0,0,0,0,0,0,0,0,0,0,0,0,0,0,0,0,0],"id":10,"left_children":[1,3,5,7,9,-1,11,13,15,17,19,21,-1,-1,23,25,-1,-1,-1,-1,27,29,31,-1,-1,-1,-1,-1,-1,-1,-1,-1,-1],"loss_changes":[4.79426E1,1.274518E0,2.4011345E0,1.4941921E0,4.46522E-1,0E0,2.1880836E0,1.5176308E-1,4.6829605E-1,3.2012165E-3,1.9261909E-1,7.0347786E-1,0E0,0E0,6.457758E-2,1.1922264E-1,0E0,0E0,0E0,0E0,2.2389895E-1,2.0651503E0,1.1747341E0,0E0,0E0,0E0,0E0,0E0,0E0,0E0,0E0,0E0,0E0],"parents":[2147483647,0,0,1,1,2,2,3,3,4,4,6,6,7,7,8,8,9,9,10,10,11,11,14,14,15,15,20,20,21,21,22,22],"right_children":[2,4,6,8,10,-1,12,14,16,18,20,22,-1,-1,24,26,-1,-1,-1,-1,28,30,32,-1,-1,-1,-1,-1,-1,-1,-1,-1,-1],"split_conditions":[7.0018776E-2,-3.2499793E-1,9.470732E-2,-8.434574E-1,-2.7562085E-1,-3.737604E-2,2.983267E0,-9.4221157E-1,-3.7437505E-1,-3.003094E-1,-2.509323E-1,1.6253971E0,-5.2018713E-2,1.6025776E-3,-9.17523E-1,-5.718834E-1,1.4124203E-2,-2.1302167E-3,-3.5277386E-3,8.786169E-3,-2.0155522E-1,1.1563147E0,2.2426107E0,5.9606824E-3,3.8938266E-3,7.4652033E-3,9.308299E-3,-1.1392504E-3,3.7930608E-3,-1.2124191E-2,-3.5184675E-3,-1.7804334E-2,-8.970621E-3],"split_indices":[0,0,0,0,0,0,0,0,0,0,0,0,0,0,0,0,0,0,0,0,0,0,0,0,0,0,0,0,0,0,0,0,0],"split_type":[0,0,0,0,0,0,0,0,0,0,0,0,0,0,0,0,0,0,0,0,0,0,0,0,0,0,0,0,0,0,0,0,0],"sum_hessian":[1.6226365E3,1.0637484E3,5.5888806E2,8.553784E2,2.0837001E2,8.3840885E0,5.5050397E2,2.742061E2,5.8117236E2,3.1228886E1,1.7714111E2,5.481043E2,2.3996675E0,6.0626633E1,2.1357945E2,5.474231E2,3.374926E1,1.5740175E1,1.5488711E1,1.4989076E1,1.6215204E2,3.858441E2,1.6226022E2,5.7121304E1,1.5645815E2,4.0417557E2,1.432475E2,2.721817E1,1.3493387E2,2.9311218E2,9.2731895E1,9.321673E1,6.9043495E1],"tree_param":{"num_deleted":"0","num_feature":"1","num_nodes":"33","size_leaf_vector":"1"}},{"base_weights":[-5.6289905E-3,1.2081532E-1,-2.5069425E-1,3.94232E-2,1.4278722E-1,-2.3821978E-1,-6.795551E-1,5.674107E-2,-8.5904467E-4,1.6005237E-1,5.6139786E-2,-2.067455E-1,-3.0803138E-1,-5.2225846E-1,-5.2177824E-2,2.6930286E-2,6.1145807E-3,1.4139271E-1,1.9282104E-1,8.80961E-2,1.0714924E-2,-2.3290773E-1,-8.886298E-2,-2.2128828E-2,-2.9126626E-1,-3.109997E-2,6.7151496E-3,3.5693676E-3,-9.809075E-4,7.4413726E-3,-2.0677618E-4,1.1589858E-2,8.412519E-3,2.3670995E-3,1.5266609E-2,-3.984058E-3,1.7771507E-3,-1.9836355E-2,-1.1329035E-2,4.4674645E-4,-1.0571942E-2,-5.554182E-3,-1.51514355E-2],"categories":[],"categories_nodes":[],"categories_segments":[],"categories_sizes":[],"default_left":[0,0,0,0,0,0,0,0,0,0,0,0,0,0,0,0,0,0,0,0,0,0,0,0,0,0,0,0,0,0,0,0,0,0,0,0,0,0,0,0,0,0,0],"id":11,"left_children":[1,3,5,7,9,11,13,15,-1,17,19,21,23,25,-1,27,-1,29,31,33,35,37,39,-1,41,-1,-1,-1,-1,-1,-1,-1,-1,-1,-1,-1,-1,-1,-1,-1,-1,-1,-1],"loss_changes":[5.052372E1,1.9178495E0,2.8068771E0,2.2644785E-1,1.2574482E0,1.1245651E0,3.22165E-1,3.4133345E-1,0E0,4.0402794E-1,2.0546961E-1,1.1382256E0,2.4554539E-1,9.0717435E-1,0E0,2.5492457E-1,0E0,4.909439E-1,2.0345879E-1,7.2332793E-1,1.3718325E-1,2.2821808E-1,8.394412E-1,0E0,2.8538418E-1,0E0,0E0,0E0,0E0,0E0,0E0,0E0,0E0,0E0,0E0,0E0,0E0,0E0,0E0,0E0,0E0,0E0,0E0],"parents":[2147483647,0,0,1,1,2,2,3,3,4,4,5,5,6,6,7,7,9,9,10,10,11,11,12,12,13,13,15,15,17,17,18,18,19,19,20,20,21,21,22,22,24,24],"right_children":[2,4,6,8,10,12,14,16,-1,18,20,22,24,26,-1,28,-1,30,32,34,36,38,40,-1,42,-1,-1,-1,-1,-1,-1,-1,-1,-1,-1,-1,-1,-1,-1,-1,-1,-1,-1],"split_conditions":[7.0018776E-2,-8.6814594E-1,2.7610703E0,-8.928345E-1,-2.0155522E-1,1.5513315E0,2.983267E0,-9.17523E-1,-8.5904467E-4,-5.718834E-1,-5.342395E-2,1.2056918E0,1.6253971E0,2.9338899E0,-5.2177824E-2,-9.4221157E-1,6.1145807E-3,-5.965719E-1,-4.4844067E-1,-7.81125E-2,-2.8735405E-2,9.470732E-2,1.4032001E0,-2.2128828E-2,1.6747742E0,-3.109997E-2,6.7151496E-3,3.5693676E-3,-9.809075E-4,7.4413726E-3,-2.0677618E-4,1.1589858E-2,8.412519E-3,2.3670995E-3,1.5266609E-2,-3.984058E-3,1.7771507E-3,-1.9836355E-2,-1.1329035E-2,4.4674645E-4,-1.0571942E-2,-5.554182E-3,-1.51514355E-2],"split_indices":[0,0,0,0,0,0,0,0,0,0,0,0,0,0,0,0,0,0,0,0,0,0,0,0,0,0,0,0,0,0,0,0,0,0,0,0,0,0,0,0,0,0,0],"split_type":[0,0,0,0,0,0,0,0,0,0,0,0,0,0,0,0,0,0,0,0,0,0,0,0,0,0,0,0,0,0,0,0,0,0,0,0,0,0,0,0,0,0,0],"sum_hessian":[1.6284978E3,1.0745685E3,5.5392926E2,2.2901295E2,8.455556E2,5.397838E2,1.4145465E1,1.7535971E2,5.3653248E1,7.043594E2,1.4119617E2,3.7477808E2,1.6500574E2,1.1577309E1,2.5681562E0,1.2151052E2,5.3849182E1,4.5218423E2,2.5217516E2,8.2334564E1,5.8861607E1,3.0591025E2,6.8867836E1,1.5468391E1,1.4953734E2,1.0096196E1,1.4811125E0,6.187852E1,5.9632E1,4.3018436E2,2.1999897E1,9.424379E1,1.5793137E2,7.0353905E1,1.1980663E1,1.22072315E1,4.6654373E1,9.081E0,2.9682925E2,3.8821205E1,3.0046633E1,9.803672E0,1.3973367E2],"tree_param":{"num_deleted":"0","num_feature":"1","num_nodes":"43","size_leaf_vector":"1"}},{"base_weights":[2.0437397E-4,1.3662148E-1,-2.4895027E-1,3.9831784E-2,1.6326559E-1,-2.203756E-1,-4.7064012E-1,4.9396582E-2,2.4084214E-4,1.8706587E-1,3.3696927E-2,-2.251572E-1,1.6986752E-1,-4.3890083E-1,-4.8312273E-2,1.4168166E-3,6.02249E-2,1.224372E-1,2.1160825E-1,-2.6920209E-2,1.0092705E-1,-2.0440374E-1,-3.3690003E-1,1.381045E-2,1.0002669E-3,-4.7793943E-1,-1.0964607E-1,4.0153833E-3,1.9210717E-3,7.6768384E-3,1.3571191E-3,1.1694695E-2,7.795104E-3,2.5415279E-3,-4.170924E-3,5.554075E-3,2.4604497E-3,-1.1667228E-2,-4.0579583E-3,-1.9387443E-2,-1.464469E-2,-2.6954725E-2,-1.7543724E-2,-9.338731E-3,6.858079E-3],"categories":[],"categories_nodes":[],"categories_segments":[],"categories_sizes":[],"default_left":[0,0,0,0,0,0,0,0,0,0,0,0,0,0,0,0,0,0,0,0,0,0,0,0,0,0,0,0,0,0,0,0,0,0,0,0,0,0,0,0,0,0,0,0,0],"id":12,"left_children":[1,3,5,7,9,11,13,15,-1,17,19,21,23,25,-1,-1,27,29,31,33,35,37,39,-1,-1,41,43,-1,-1,-1,-1,-1,-1,-1,-1,-1,-1,-1,-1,-1,-1,-1,-1,-1,-1],"loss_changes":[5.566959E1,2.7229366E0,3.567173E0,7.671887E-2,2.5519981E0,9.996071E-1,6.028433E-1,3.942716E-2,0E0,1.0854092E0,5.323427E-1,1.1124554E0,1.0294324E-1,7.5977993E-1,0E0,0E0,4.868701E-2,5.743604E-1,5.92247E-1,3.0791587E-1,2.700466E-2,1.5224571E0,6.1519623E-2,0E0,0E0,2.4749279E-1,1.7781919E-1,0E0,0E0,0E0,0E0,0E0,0E0,0E0,0E0,0E0,0E0,0E0,0E0,0E0,0E0,0E0,0E0,0E0,0E0],"parents":[2147483647,0,0,1,1,2,2,3,3,4,4,5,5,6,6,7,7,9,9,10,10,11,11,12,12,13,13,16,16,17,17,18,18,19,19,20,20,21,21,22,22,25,25,26,26],"right_children":[2,4,6,8,10,12,14,16,-1,18,20,22,24,26,-1,-1,28,30,32,34,36,38,40,-1,-1,42,44,-1,-1,-1,-1,-1,-1,-1,-1,-1,-1,-1,-1,-1,-1,-1,-1,-1,-1],"split_conditions":[2.0641685E-2,-8.6814594E-1,2.291988E0,-8.928345E-1,-2.2624376E-1,2.2426107E0,2.983267E0,-9.4221157E-1,2.4084214E-4,-7.693918E-1,-1.0280104E-1,1.7241513E0,2.2672992E0,2.8351357E0,-4.8312273E-2,1.4168166E-3,-9.17523E-1,-7.940803E-1,-4.4844067E-1,-1.7686668E-1,-4.0468606E-3,1.2797575E0,1.9216596E0,1.381045E-2,1.0002669E-3,2.5882504E0,2.9338899E0,4.0153833E-3,1.9210717E-3,7.6768384E-3,1.3571191E-3,1.1694695E-2,7.795104E-3,2.5415279E-3,-4.170924E-3,5.554075E-3,2.4604497E-3,-1.1667228E-2,-4.0579583E-3,-1.9387443E-2,-1.464469E-2,-2.6954725E-2,-1.7543724E-2,-9.338731E-3,6.858079E-3],"split_indices":[0,0,0,0,0,0,0,0,0,0,0,0,0,0,0,0,0,0,0,0,0,0,0,0,0,0,0,0,0,0,0,0,0,0,0,0,0,0,0,0,0,0,0,0,0],"split_type":[0,0,0,0,0,0,0,0,0,0,0,0,0,0,0,0,0,0,0,0,0,0,0,0,0,0,0,0,0,0,0,0,0,0,0,0,0,0,0,0,0,0,0,0,0],"sum_hessian":[1.6358723E3,1.0573848E3,5.784875E2,2.287829E2,8.2860187E2,5.1420337E2,6.428408E1,1.7937383E2,4.9409084E1,6.996419E2,1.2896E2,5.083971E2,5.806289E0,6.218711E1,2.0969658E0,6.213765E1,1.1723617E2,1.9420941E2,5.0543246E2,6.813057E1,6.0829437E1,4.311508E2,7.724631E1,2.9031446E0,2.9031446E0,5.5191654E1,6.995459E0,5.9629387E1,5.760678E1,1.4596304E2,4.8246372E1,3.5872372E2,1.4670872E2,2.8714748E1,3.941582E1,4.9886726E1,1.0942709E1,3.4843616E2,8.271464E1,3.2213104E1,4.5033203E1,3.5070095E1,2.0121557E1,5.515178E0,1.4802809E0],"tree_param":{"num_deleted":"0","num_feature":"1","num_nodes":"45","size_leaf_vector":"1"}},{"base_weights":[-3.0764197E-3,1.134508E-1,-2.2219297E-1,1.3137764E-1,4.660046E-2,-1.7554334E-1,-3.5577542E-1,6.405324E-2,1.6453348E-1,-2.3796499E-2,7.313289E-2,-2.2623901E-1,-1.5114449E-1,-3.377108E-1,-5.0053615E-2,2.6174078E-3,4.211481E-3,1.4477389E-1,2.0939778E-1,5.5479415E-4,-3.517442E-2,1.5903504E-1,2.8929617E-2,-1.6580798E-2,-2.1532242E-1,-5.7058286E-2,-1.9077434E-1,-3.5545942E-1,3.553931E-2,8.653683E-3,5.118468E-3,1.3932879E-2,7.1807727E-3,-9.884345E-4,-2.1338933E-3,5.8388337E-3,1.3340804E-2,5.7281455E-4,4.8173303E-3,-2.6752907E-3,-1.14077525E-2,-7.1123736E-3,1.1615114E-5,-1.3582266E-2,-7.900282E-3,-1.6937597E-2,-2.6594056E-2],"categories":[],"categories_nodes":[],"categories_segments":[],"categories_sizes":[],"default_left":[0,0,0,0,0,0,0,0,0,0,0,0,0,0,0,0,0,0,0,0,0,0,0,0,0,0,0,0,0,0,0,0,0,0,0,0,0,0,0,0,0,0,0,0,0,0,0],"id":13,"left_children":[1,3,5,7,9,11,13,15,17,19,21,23,25,27,-1,-1,-1,29,31,-1,33,35,37,-1,39,41,43,45,-1,-1,-1,-1,-1,-1,-1,-1,-1,-1,-1,-1,-1,-1,-1,-1,-1,-1,-1],"loss_changes":[4.176254E1,1.2735405E0,3.4761105E0,1.8677464E0,4.263737E-1,4.888258E-1,1.3638763E0,6.1550617E-2,4.6892357E-1,2.5395583E-2,6.232918E-1,8.4321976E-2,1.0647116E0,2.9237518E0,0E0,0E0,0E0,4.553442E-1,7.3429537E-1,0E0,4.674509E-3,2.2371209E-1,1.2894785E-1,0E0,2.484312E-1,4.2425713E-1,4.9384117E-1,2.378254E-1,0E0,0E0,0E0,0E0,0E0,0E0,0E0,0E0,0E0,0E0,0E0,0E0,0E0,0E0,0E0,0E0,0E0,0E0,0E0],"parents":[2147483647,0,0,1,1,2,2,3,3,4,4,5,5,6,6,7,7,8,8,9,9,10,10,11,11,12,12,13,13,17,17,18,18,20,20,21,21,22,22,24,24,25,25,26,26,27,27],"right_children":[2,4,6,8,10,12,14,16,18,20,22,24,26,28,-1,-1,-1,30,32,-1,34,36,38,-1,40,42,44,46,-1,-1,-1,-1,-1,-1,-1,-1,-1,-1,-1,-1,-1,-1,-1,-1,-1,-1,-1],"split_conditions":[4.533023E-2,-3.7437505E-1,1.7241513E0,-8.434574E-1,-2.7562085E-1,4.4034696E-1,2.983267E0,-8.928345E-1,-5.965719E-1,-3.4968647E-1,-1.7686668E-1,7.0018776E-2,7.3660946E-1,2.9092014E0,-5.0053615E-2,2.6174078E-3,4.211481E-3,-7.2001463E-1,-4.9781775E-1,5.5479415E-4,-3.2499793E-1,-2.0155522E-1,-4.0468606E-3,-1.6580798E-2,9.470732E-2,5.391011E-1,9.8349494E-1,2.7610703E0,3.553931E-2,8.653683E-3,5.118468E-3,1.3932879E-2,7.1807727E-3,-9.884345E-4,-2.1338933E-3,5.8388337E-3,1.3340804E-2,5.7281455E-4,4.8173303E-3,-2.6752907E-3,-1.14077525E-2,-7.1123736E-3,1.1615114E-5,-1.3582266E-2,-7.900282E-3,-1.6937597E-2,-2.6594056E-2],"split_indices":[0,0,0,0,0,0,0,0,0,0,0,0,0,0,0,0,0,0,0,0,0,0,0,0,0,0,0,0,0,0,0,0,0,0,0,0,0,0,0,0,0,0,0,0,0,0,0],"split_type":[0,0,0,0,0,0,0,0,0,0,0,0,0,0,0,0,0,0,0,0,0,0,0,0,0,0,0,0,0,0,0,0,0,0,0,0,0,0,0,0,0,0,0,0,0,0,0],"sum_hessian":[1.63364E3,1.0667954E3,5.668446E2,8.4045154E2,2.2634384E2,4.218428E2,1.4500179E2,2.7829437E2,5.6215717E2,6.1985203E1,1.6435864E2,1.3437245E2,2.8747037E2,1.4253496E2,2.4668171E0,1.7839514E2,9.989924E1,3.932048E2,1.6895235E2,1.5248324E1,4.6736877E1,5.4958187E1,1.0940046E2,9.856003E0,1.2451646E2,8.592157E1,2.015488E2,1.4081232E2,1.7226453E0,2.3397444E2,1.5923036E2,8.072445E1,8.822789E1,1.6498188E1,3.0238691E1,4.0975956E1,1.3982231E1,8.7811226E1,2.1589231E1,9.528874E0,1.1498758E2,3.395247E1,5.1969097E1,5.601579E1,1.45533E2,1.3129822E2,9.514107E0],"tree_param":{"num_deleted":"0","num_feature":"1","num_nodes":"47","size_leaf_vector":"1"}},{"base_weights":[1.5720492E-2,1.1621455E-1,-1.6046055E-1,5.7406534E-2,1.379612E-1,-1.429357E-1,-8.6421436E-1,7.5523965E-3,3.059267E-2,1.2871416E-1,2.3701908E-1,-1.670666E-1,-1.0951646E-1,-6.3372004E-1,-5.5562343E-2,9.5443225E-5,2.0749937E-3,1.5043865E-1,3.4368824E-2,2.8459036E-1,2.0834946E-3,-1.4854218E-1,-2.5278312E-1,2.4601853E-2,-1.473295E-1,-3.7625972E-2,-1.5413609E-2,7.04794E-3,1.2392752E-2,-2.6630302E-4,5.6324536E-3,1.1785121E-2,1.634803E-2,-1.3332064E-3,-7.969113E-3,-1.0675652E-2,-1.712724E-2,1.7619787E-2,-1.03559534E-4,-4.712613E-3,-8.969383E-3],"categories":[],"categories_nodes":[],"categories_segments":[],"categories_sizes":[],"default_left":[0,0,0,0,0,0,0,0,0,0,0,0,0,0,0,0,0,0,0,0,0,0,0,0,0,0,0,0,0,0,0,0,0,0,0,0,0,0,0,0,0],"id":14,"left_children":[1,3,5,7,9,11,13,-1,15,17,19,21,23,25,-1,-1,-1,27,29,31,-1,33,35,37,39,-1,-1,-1,-1,-1,-1,-1,-1,-1,-1,-1,-1,-1,-1,-1,-1],"loss_changes":[2.916061E1,1.33323E0,7.254998E0,7.1052843E-1,6.701107E-1,4.5341206E-1,1.1217117E-1,0E0,6.9585755E-2,1.4331551E0,5.8397436E-1,4.987688E-1,1.2621729E0,1.44763E-1,0E0,0E0,0E0,4.9156094E-1,4.1276288E-1,2.9380798E-2,0E0,3.6589575E-1,1.3341832E-1,4.8542187E-1,3.1273317E-1,0E0,0E0,0E0,0E0,0E0,0E0,0E0,0E0,0E0,0E0,0E0,0E0,0E0,0E0,0E0,0E0],"parents":[2147483647,0,0,1,1,2,2,3,3,4,4,5,5,6,6,8,8,9,9,10,10,11,11,12,12,13,13,17,17,18,18,19,19,21,21,22,22,23,23,24,24],"right_children":[2,4,6,8,10,12,14,-1,16,18,20,22,24,26,-1,-1,-1,28,30,32,-1,34,36,38,40,-1,-1,-1,-1,-1,-1,-1,-1,-1,-1,-1,-1,-1,-1,-1,-1],"split_conditions":[-4.0468606E-3,-8.434574E-1,2.7610703E0,-9.4221157E-1,-1.2748958E-1,1.1563147E0,2.9092014E0,7.5523965E-3,-9.17523E-1,-3.4968647E-1,-2.8735405E-2,8.8474077E-1,1.4278888E0,2.8598244E0,-5.5562343E-2,9.5443225E-5,2.0749937E-3,-4.2375213E-1,-2.0155522E-1,-7.81125E-2,2.0834946E-3,4.533023E-2,1.0822492E0,1.1810033E0,1.8229054E0,-3.7625972E-2,-1.5413609E-2,7.04794E-3,1.2392752E-2,-2.6630302E-4,5.6324536E-3,1.1785121E-2,1.634803E-2,-1.3332064E-3,-7.969113E-3,-1.0675652E-2,-1.712724E-2,1.7619787E-2,-1.03559534E-4,-4.712613E-3,-8.969383E-3],"split_indices":[0,0,0,0,0,0,0,0,0,0,0,0,0,0,0,0,0,0,0,0,0,0,0,0,0,0,0,0,0,0,0,0,0,0,0,0,0,0,0,0,0],"split_type":[0,0,0,0,0,0,0,0,0,0,0,0,0,0,0,0,0,0,0,0,0,0,0,0,0,0,0,0,0,0,0,0,0,0,0,0,0,0,0,0,0],"sum_hessian":[1.6449598E3,1.0476935E3,5.9726636E2,2.8381937E2,7.6387415E2,5.839285E2,1.3337856E1,6.214805E1,2.2167133E2,7.007579E2,6.311625E1,3.3676364E2,2.4716487E2,8.744297E0,4.593559E0,6.1393475E1,1.6027785E2,5.6911554E2,1.3164233E2,5.0388783E1,1.2727467E1,2.7916537E2,5.7598263E1,5.4436066E1,1.927288E2,5.444584E0,3.2997134E0,5.2087476E2,4.824079E1,8.7967255E1,4.367508E1,2.644209E1,2.3946693E1,2.3084103E1,2.5608127E2,4.241895E1,1.5179314E1,3.1773143E0,5.125875E1,7.405664E1,1.18672165E2],"tree_param":{"num_deleted":"0","num_feature":"1","num_nodes":"41","size_leaf_vector":"1"}},{"base_weights":[-1.9911344E-3,1.0820789E-1,-2.0314993E-1,1.2471069E-1,-9.641978E-3,-1.975541E-1,-5.0073095E-2,-7.7213097E-4,1.3481675E-1,-9.596935E-2,3.1009428E-2,-1.6720615E-1,-2.655612E-1,1.139561E-1,1.526826E-1,-1.3592724E-2,-1.4119128E-2,1.7895794E-1,-3.7174817E-2,-2.034649E-1,-9.8309435E-2,-2.735854E-1,1.7039211E-2,4.8473016E-3,6.274511E-3,1.0309657E-2,6.026506E-3,-6.0789096E-3,3.9537344E-3,4.5172E-3,1.2694432E-2,-1.0879615E-2,7.7261025E-4,-3.201823E-3,-1.1656717E-2,-1.8896358E-3,-6.1371326E-3,-1.28260795E-2,-2.7737906E-2],"categories":[],"categories_nodes":[],"categories_segments":[],"categories_sizes":[],"default_left":[0,0,0,0,0,0,0,0,0,0,0,0,0,0,0,0,0,0,0,0,0,0,0,0,0,0,0,0,0,0,0,0,0,0,0,0,0,0,0],"id":15,"left_children":[1,3,5,7,9,11,-1,-1,13,15,17,19,21,23,25,27,-1,29,31,33,35,37,-1,-1,-1,-1,-1,-1,-1,-1,-1,-1,-1,-1,-1,-1,-1,-1,-1],"loss_changes":[3.592117E1,2.0373278E0,2.3641987E0,1.302908E0,4.5752066E-1,1.133604E0,0E0,0E0,3.0190277E-1,6.3667446E-1,9.0258694E-1,9.7264194E-1,9.4184303E-1,6.615257E-2,7.6408577E-1,3.0959642E-1,0E0,1.6424489E-1,5.8846736E-1,1.0581903E0,2.0081317E-1,6.862488E-1,0E0,0E0,0E0,0E0,0E0,0E0,0E0,0E0,0E0,0E0,0E0,0E0,0E0,0E0,0E0,0E0,0E0],"parents":[2147483647,0,0,1,1,2,2,3,3,4,4,5,5,8,8,9,9,10,10,11,11,12,12,13,13,14,14,15,15,17,17,18,18,19,19,20,20,21,21],"right_children":[2,4,6,8,10,12,-1,-1,14,16,18,20,22,24,26,28,-1,30,32,34,36,38,-1,-1,-1,-1,-1,-1,-1,-1,-1,-1,-1,-1,-1,-1,-1,-1,-1],"split_conditions":[2.0641685E-2,-2.2624376E-1,2.983267E0,-9.4221157E-1,-1.5217812E-1,1.57602E0,-5.0073095E-2,-7.7213097E-4,-7.4470323E-1,-1.7686668E-1,-1.0280104E-1,8.8474077E-1,2.9338899E0,-8.6814594E-1,-6.2126046E-1,-2.0155522E-1,-1.4119128E-2,-1.2748958E-1,-7.81125E-2,1.4408441E-1,1.0822492E0,2.7857587E0,1.7039211E-2,4.8473016E-3,6.274511E-3,1.0309657E-2,6.026506E-3,-6.0789096E-3,3.9537344E-3,4.5172E-3,1.2694432E-2,-1.0879615E-2,7.7261025E-4,-3.201823E-3,-1.1656717E-2,-1.8896358E-3,-6.1371326E-3,-1.28260795E-2,-2.7737906E-2],"split_indices":[0,0,0,0,0,0,0,0,0,0,0,0,0,0,0,0,0,0,0,0,0,0,0,0,0,0,0,0,0,0,0,0,0,0,0,0,0,0,0],"split_type":[0,0,0,0,0,0,0,0,0,0,0,0,0,0,0,0,0,0,0,0,0,0,0,0,0,0,0,0,0,0,0,0,0,0,0,0,0,0,0],"sum_hessian":[1.6184509E3,1.0459303E3,5.7252057E2,9.1740564E2,1.2852469E2,5.697742E2,2.7464125E0,6.1666836E1,8.5573883E2,4.071067E1,8.781401E1,3.963589E2,1.7341528E2,3.981854E2,4.5755344E2,2.8978079E1,1.1732593E1,2.7190502E1,6.062351E1,2.584103E2,1.3794858E2,1.7169194E2,1.7233326E0,1.6469894E2,2.3348645E2,1.6970496E2,2.8784848E2,1.3238847E1,1.5739231E1,1.346836E1,1.3722142E1,1.29823675E1,4.764114E1,4.589411E1,2.125162E2,4.0409134E1,9.7539444E1,1.6367137E2,8.0205765E0],"tree_param":{"num_deleted":"0","num_feature":"1","num_nodes":"39","size_leaf_vector":"1"}},{"base_weights":[-1.9963514E-2,8.261541E-2,-2.1454729E-1,1.00467645E-1,2.1628141E-2,-2.0890105E-1,-5.157874E-2,5.5280097E-2,1.4749524E-1,-3.5789687E-2,4.754885E-2,-3.0215827E-1,-1.9925481E-1,8.460522E-3,3.5386316E-2,1.1445625E-2,1.376448E-1,1.0227632E-2,-1.0866782E-1,8.145059E-3,3.5553932E-2,-1.4516424E-1,-3.7822375E-1,-1.4063567E-1,-2.175361E-1,-1.0623008E-3,3.0981714E-3,4.9029966E-3,8.6366385E-3,-3.4135722E-3,2.472879E-3,-2.9985388E-3,-7.6642456E-3,2.013859E-3,-1.5107937E-3,-1.1569387E-2,-1.1309468E-3,-1.5633574E-2,-2.603216E-2,-9.084526E-3,-2.7953365E-3,-1.5481581E-2,-1.0233058E-2],"categories":[],"categories_nodes":[],"categories_segments":[],"categories_sizes":[],"default_left":[0,0,0,0,0,0,0,0,0,0,0,0,0,0,0,0,0,0,0,0,0,0,0,0,0,0,0,0,0,0,0,0,0,0,0,0,0,0,0,0,0,0,0],"id":16,"left_children":[1,3,5,7,9,11,-1,13,15,17,19,21,23,-1,25,-1,27,29,31,-1,33,35,37,39,41,-1,-1,-1,-1,-1,-1,-1,-1,-1,-1,-1,-1,-1,-1,-1,-1,-1,-1],"loss_changes":[3.246298E1,1.1574721E0,2.374279E0,1.7421589E0,3.6254963E-1,4.4247437E-1,0E0,9.496685E-1,2.9170322E-1,2.559256E-1,2.2593176E-1,5.475025E-1,5.152397E-1,0E0,5.4350376E-1,0E0,4.8589182E-1,1.4961432E-1,5.4889053E-2,0E0,4.873927E-2,1.8587917E-1,1.4863873E-1,4.2088223E-1,3.9483452E-1,0E0,0E0,0E0,0E0,0E0,0E0,0E0,0E0,0E0,0E0,0E0,0E0,0E0,0E0,0E0,0E0,0E0,0E0],"parents":[2147483647,0,0,1,1,2,2,3,3,4,4,5,5,7,7,8,8,9,9,10,10,11,11,12,12,14,14,16,16,17,17,18,18,20,20,21,21,22,22,23,23,24,24],"right_children":[2,4,6,8,10,12,-1,14,16,18,20,22,24,-1,26,-1,28,30,32,-1,34,36,38,40,42,-1,-1,-1,-1,-1,-1,-1,-1,-1,-1,-1,-1,-1,-1,-1,-1,-1,-1],"split_conditions":[7.0018776E-2,-3.7437505E-1,2.9585786E0,-7.693918E-1,-2.509323E-1,2.1815005E-1,-5.157874E-2,-9.4221157E-1,-7.4470323E-1,-3.003094E-1,-2.2624376E-1,1.1939587E-1,5.884782E-1,8.460522E-3,-8.928345E-1,1.1445625E-2,-6.2126046E-1,-3.4968647E-1,-2.7562085E-1,8.145059E-3,4.533023E-2,9.470732E-2,1.934615E-1,4.650355E-1,7.61298E-1,-1.0623008E-3,3.0981714E-3,4.9029966E-3,8.6366385E-3,-3.4135722E-3,2.472879E-3,-2.9985388E-3,-7.6642456E-3,2.013859E-3,-1.5107937E-3,-1.1569387E-2,-1.1309468E-3,-1.5633574E-2,-2.603216E-2,-9.084526E-3,-2.7953365E-3,-1.5481581E-2,-1.0233058E-2],"split_indices":[0,0,0,0,0,0,0,0,0,0,0,0,0,0,0,0,0,0,0,0,0,0,0,0,0,0,0,0,0,0,0,0,0,0,0,0,0,0,0,0,0,0,0],"split_type":[0,0,0,0,0,0,0,0,0,0,0,0,0,0,0,0,0,0,0,0,0,0,0,0,0,0,0,0,0,0,0,0,0,0,0,0,0,0,0,0,0,0,0],"sum_hessian":[1.624498E3,1.064107E3,5.60391E2,8.226524E2,2.414547E2,5.5779193E2,2.5990605E0,4.2064316E2,4.0200922E2,7.4981E1,1.664737E2,4.944516E1,5.0834674E2,6.1415424E1,3.5922775E2,4.0988247E1,3.6102097E2,4.6487278E1,2.8493727E1,1.4495261E1,1.5197842E2,1.708705E1,3.2358112E1,1.22914185E2,3.8543256E2,1.1480147E2,2.4442627E2,1.7142296E2,1.89598E2,1.524392E1,3.1243359E1,1.4744765E1,1.37489605E1,1.4215706E2,9.821374E0,9.50858E0,7.578469E0,2.434713E1,8.010981E0,8.202508E1,4.0889103E1,4.4447517E1,3.4098505E2],"tree_param":{"num_deleted":"0","num_feature":"1","num_nodes":"43","size_leaf_vector":"1"}},{"base_weights":[-6.024394E-3,9.479692E-2,-1.9306234E-1,5.4281063E-2,1.12768754E-1,-1.8853724E-1,-4.6007346E-2,-3.8175212E-4,6.870176E-2,1.2803172E-1,1.5617359E-2,-3.9349747E-1,-1.8015456E-1,8.634449E-3,3.9019138E-2,1.12066604E-1,1.4821006E-1,-5.310031E-3,9.334893E-3,-1.4427714E-2,-2.3923341E-2,-1.4798155E-1,-2.4792802E-1,-1.0549364E-3,3.153535E-3,6.052976E-3,2.7592974E-3,1.1916415E-2,5.034177E-3,-6.152527E-3,8.538509E-4,-8.149906E-3,-4.433177E-3,-1.8076675E-2,-8.236134E-3],"categories":[],"categories_nodes":[],"categories_segments":[],"categories_sizes":[],"default_left":[0,0,0,0,0,0,0,0,0,0,0,0,0,0,0,0,0,0,0,0,0,0,0,0,0,0,0,0,0,0,0,0,0,0,0],"id":17,"left_children":[1,3,5,7,9,11,-1,-1,13,15,17,19,21,-1,23,25,27,29,-1,-1,-1,31,33,-1,-1,-1,-1,-1,-1,-1,-1,-1,-1,-1,-1],"loss_changes":[3.0457426E1,7.5805664E-1,1.6876945E0,2.901814E-1,1.0746422E0,8.971729E-1,0E0,0E0,8.0573857E-1,1.8549252E-1,3.5802105E-1,5.1817656E-2,1.1476383E0,0E0,2.992876E-1,1.7457438E-1,1.1496E0,2.3886755E-1,0E0,0E0,0E0,3.1583023E-1,1.5791531E0,0E0,0E0,0E0,0E0,0E0,0E0,0E0,0E0,0E0,0E0,0E0,0E0],"parents":[2147483647,0,0,1,1,2,2,3,3,4,4,5,5,8,8,9,9,10,10,11,11,12,12,14,14,15,15,16,16,17,17,21,21,22,22],"right_children":[2,4,6,8,10,12,-1,-1,14,16,18,20,22,-1,24,26,28,30,-1,-1,-1,32,34,-1,-1,-1,-1,-1,-1,-1,-1,-1,-1,-1,-1],"split_conditions":[4.533023E-2,-8.1876886E-1,2.983267E0,-9.4221157E-1,-1.5217812E-1,9.470732E-2,-4.6007346E-2,-3.8175212E-4,-9.17523E-1,-5.718834E-1,2.0641685E-2,7.0018776E-2,1.57602E0,8.634449E-3,-8.928345E-1,-6.2126046E-1,-4.4844067E-1,-1.2748958E-1,9.334893E-3,-1.4427714E-2,-2.3923341E-2,1.1810033E0,2.0204139E0,-1.0549364E-3,3.153535E-3,6.052976E-3,2.7592974E-3,1.1916415E-2,5.034177E-3,-6.152527E-3,8.538509E-4,-8.149906E-3,-4.433177E-3,-1.8076675E-2,-8.236134E-3],"split_indices":[0,0,0,0,0,0,0,0,0,0,0,0,0,0,0,0,0,0,0,0,0,0,0,0,0,0,0,0,0,0,0,0,0,0,0],"split_type":[0,0,0,0,0,0,0,0,0,0,0,0,0,0,0,0,0,0,0,0,0,0,0,0,0,0,0,0,0,0,0,0,0,0,0],"sum_hessian":[1.6131731E3,1.0484874E3,5.6468567E2,3.2340985E2,7.250776E2,5.624445E2,2.2411337E0,6.1183865E1,2.6222598E2,6.263561E2,9.872149E1,2.0294426E1,5.421501E2,5.715985E1,2.0506612E2,3.5334402E2,2.730121E2,8.882495E1,9.896534E0,1.1046808E1,9.247618E0,3.6978937E2,1.7236072E2,5.863308E1,1.4643304E2,3.0413202E2,4.9212006E1,9.28805E1,1.8013158E2,1.3472475E1,7.535248E1,2.9369226E2,7.609712E1,7.145444E1,1.0090628E2],"tree_param":{"num_deleted":"0","num_feature":"1","num_nodes":"35","size_leaf_vector":"1"}},{"base_weights":[1.0495235E-2,1.0426239E-1,-1.576689E-1,9.017225E-2,1.234387E-1,-1.4552979E-1,-5.371566E-1,1.0360707E-1,-1.9712996E-2,1.4092918E-1,8.38873E-2,-8.2187496E-2,-1.8613434E-1,-4.278811E-1,-4.5161445E-2,1.2951337E-1,8.406306E-2,-1.8623589E-3,1.15795214E-4,1.1269426E-1,1.772777E-1,-4.6046238E-4,9.5519096E-2,-1.207059E-1,1.0383629E-2,-4.5614845E-1,-1.6618359E-1,-2.6393691E-2,8.818464E-3,5.7712956E-3,7.2517893E-3,3.287265E-3,5.5653085E-3,1.0865436E-2,4.5835804E-3,1.0011154E-2,7.5324983E-3,7.471533E-3,3.8830158E-3,-5.272223E-3,-9.766116E-3,-3.4797858E-4,8.200547E-3,-1.8602407E-2,-3.2799404E-2,-6.6474862E-3,-1.1515027E-2],"categories":[],"categories_nodes":[],"categories_segments":[],"categories_sizes":[],"default_left":[0,0,0,0,0,0,0,0,0,0,0,0,0,0,0,0,0,0,0,0,0,0,0,0,0,0,0,0,0,0,0,0,0,0,0,0,0,0,0,0,0,0,0,0,0,0,0],"id":18,"left_children":[1,3,5,7,9,11,13,15,17,19,21,23,25,27,-1,29,31,-1,-1,33,35,-1,37,39,41,43,45,-1,-1,-1,-1,-1,-1,-1,-1,-1,-1,-1,-1,-1,-1,-1,-1,-1,-1,-1,-1],"loss_changes":[2.5804127E1,2.7272892E-1,2.620636E0,9.015527E-1,2.9412174E-1,1.4483223E0,3.2508612E-1,2.6408434E-1,2.6050383E-2,2.932291E-1,1.504026E-1,8.002626E-1,1.7879848E0,1.0355895E0,0E0,3.392148E-2,1.4858174E-1,0E0,0E0,3.638649E-1,5.02882E-2,0E0,1.06656075E-1,1.5969062E-1,1.7902562E-1,1.4638615E-1,6.5924263E-1,0E0,0E0,0E0,0E0,0E0,0E0,0E0,0E0,0E0,0E0,0E0,0E0,0E0,0E0,0E0,0E0,0E0,0E0,0E0,0E0],"parents":[2147483647,0,0,1,1,2,2,3,3,4,4,5,5,6,6,7,7,8,8,9,9,10,10,11,11,12,12,13,13,15,15,16,16,19,19,20,20,22,22,23,23,24,24,25,25,26,26],"right_children":[2,4,6,8,10,12,14,16,18,20,22,24,26,28,-1,30,32,-1,-1,34,36,-1,38,40,42,44,46,-1,-1,-1,-1,-1,-1,-1,-1,-1,-1,-1,-1,-1,-1,-1,-1,-1,-1,-1,-1],"split_conditions":[-4.0468606E-3,-6.45949E-1,2.711693E0,-6.953261E-1,-2.509323E-1,6.6254383E-1,2.983267E0,-8.6814594E-1,-6.7063755E-1,-4.4844067E-1,-2.2624376E-1,4.4034696E-1,7.61298E-1,2.9338899E0,-4.5161445E-2,-9.17523E-1,-7.693918E-1,-1.8623589E-3,1.15795214E-4,-6.2126046E-1,-3.4968647E-1,-4.6046238E-4,-1.7686668E-1,3.662813E-1,6.378553E-1,7.3660946E-1,1.847594E0,-2.6393691E-2,8.818464E-3,5.7712956E-3,7.2517893E-3,3.287265E-3,5.5653085E-3,1.0865436E-2,4.5835804E-3,1.0011154E-2,7.5324983E-3,7.471533E-3,3.8830158E-3,-5.272223E-3,-9.766116E-3,-3.4797858E-4,8.200547E-3,-1.8602407E-2,-3.2799404E-2,-6.6474862E-3,-1.1515027E-2],"split_indices":[0,0,0,0,0,0,0,0,0,0,0,0,0,0,0,0,0,0,0,0,0,0,0,0,0,0,0,0,0,0,0,0,0,0,0,0,0,0,0,0,0,0,0,0,0,0,0],"split_type":[0,0,0,0,0,0,0,0,0,0,0,0,0,0,0,0,0,0,0,0,0,0,0,0,0,0,0,0,0,0,0,0,0,0,0,0,0,0,0,0,0,0,0,0,0,0,0],"sum_hessian":[1.6344161E3,1.0495657E3,5.848505E2,6.0830505E2,4.412606E2,5.680627E2,1.67878E1,5.420856E2,6.621949E1,3.0418173E2,1.3707887E2,2.2308252E2,3.449802E2,1.4598788E1,2.189012E0,2.3068175E2,3.1140384E2,3.6486645E1,2.9732843E1,1.7350574E2,1.30676E2,1.5247988E1,1.2183088E2,1.5731894E2,6.576359E1,2.2231709E1,3.2274847E2,1.2634415E1,1.9643728E0,1.2535303E2,1.0532871E2,1.8824478E2,1.2315905E2,2.7470112E1,1.4603563E2,6.6689575E1,6.3986423E1,2.848223E1,9.3348656E1,1.3260925E2,2.4709679E1,5.9950397E1,5.813186E0,1.7661001E1,4.5707083E0,2.1459209E2,1.0815639E2],"tree_param":{"num_deleted":"0","num_feature":"1","num_nodes":"47","size_leaf_vector":"1"}},{"base_weights":[-7.908094E-4,7.1124054E-2,-1.3188727E-1,3.0969565E-3,8.982611E-2,-1.2751058E-1,-4.434712E-2,-2.4849277E-2,3.4616873E-2,1.2106214E-1,1.9433541E-2,-1.2934802E-1,1.0655436E-2,5.086685E-4,-2.9805808E-3,1.899131E-3,1.5070153E-3,9.977882E-2,2.288768E-1,9.5566325E-3,1.0489361E-2,-1.2474021E-1,-5.7005644E-1,6.1708814E-3,3.4535162E-3,1.2424638E-2,6.4170333E-3,1.8547511E-3,-1.3076122E-3,-6.4841597E-3,2.9404366E-3,-3.5943132E-2,-3.3426776E-3],"categories":[],"categories_nodes":[],"categories_segments":[],"categories_sizes":[],"default_left":[0,0,0,0,0,0,0,0,0,0,0,0,0,0,0,0,0,0,0,0,0,0,0,0,0,0,0,0,0,0,0,0,0],"id":19,"left_children":[1,3,5,7,9,11,-1,13,15,17,19,21,-1,-1,-1,-1,-1,23,25,27,-1,29,31,-1,-1,-1,-1,-1,-1,-1,-1,-1,-1],"loss_changes":[1.5264018E1,1.3298831E0,1.7822208E0,2.0036623E-1,1.8007202E0,3.8518047E-1,0E0,1.4747259E-1,4.6519935E-4,1.2800674E0,4.74098E-1,1.0842552E0,0E0,0E0,0E0,0E0,0E0,3.3698416E-1,1.5119076E-1,2.3873626E-1,0E0,5.196419E-1,3.7178802E-1,0E0,0E0,0E0,0E0,0E0,0E0,0E0,0E0,0E0,0E0],"parents":[2147483647,0,0,1,1,2,2,3,3,4,4,5,5,7,7,8,8,9,9,10,10,11,11,17,17,18,18,19,19,21,21,22,22],"right_children":[2,4,6,8,10,12,-1,14,16,18,20,22,-1,-1,-1,-1,-1,24,26,28,-1,30,32,-1,-1,-1,-1,-1,-1,-1,-1,-1,-1],"split_conditions":[2.0641685E-2,-8.6814594E-1,2.983267E0,-9.17523E-1,-4.2375213E-1,2.9092014E0,-4.434712E-2,-9.4221157E-1,-8.928345E-1,-5.4719484E-1,-4.0468606E-3,2.8104472E0,1.0655436E-2,5.086685E-4,-2.9805808E-3,1.899131E-3,1.5070153E-3,-7.2001463E-1,-4.4844067E-1,-2.0155522E-1,1.0489361E-2,2.6376274E0,2.884513E0,6.1708814E-3,3.4535162E-3,1.2424638E-2,6.4170333E-3,1.8547511E-3,-1.3076122E-3,-6.4841597E-3,2.9404366E-3,-3.5943132E-2,-3.3426776E-3],"split_indices":[0,0,0,0,0,0,0,0,0,0,0,0,0,0,0,0,0,0,0,0,0,0,0,0,0,0,0,0,0,0,0,0,0],"split_type":[0,0,0,0,0,0,0,0,0,0,0,0,0,0,0,0,0,0,0,0,0,0,0,0,0,0,0,0,0,0,0,0,0],"sum_hessian":[1.6170513E3,1.0445214E3,5.7252985E2,2.254893E2,8.190321E2,5.703924E2,2.1374214E0,1.1963234E2,1.0585696E2,5.668002E2,2.5223196E2,5.679489E2,2.4434917E0,5.99454E1,5.968694E1,5.615304E1,4.970392E1,4.7496454E2,9.18356E1,2.4078835E2,1.1443614E1,5.63342E2,4.6069484E0,2.6666895E2,2.082956E2,7.5611176E1,1.6224422E1,1.3592517E2,1.0486318E2,5.4885474E2,1.4487216E1,3.2247562E0,1.3821921E0],"tree_param":{"num_deleted":"0","num_feature":"1","num_nodes":"33","size_leaf_vector":"1"}},{"base_weights":[1.4707569E-2,9.956336E-2,-1.5077631E-1,4.8876006E-2,1.2734027E-1,-1.4200263E-1,-5.2358514E-1,1.2374033E-1,1.2647997E-2,1.4637168E-1,4.972535E-2,-1.5860155E-1,2.4578143E-2,-3.5874268E-1,-4.0268056E-2,3.7233718E-3,8.701445E-3,3.723465E-2,-3.0429352E-2,1.5734649E-1,1.2417276E-1,-1.7532438E-2,9.6628025E-2,-2.1370375E-1,-1.4551346E-1,1.05918095E-1,-3.1434774E-2,-2.6763534E-2,8.792688E-3,-1.0548568E-3,3.4755876E-3,-2.3319905E-3,-6.1113643E-4,5.78674E-3,8.527963E-3,-8.26674E-3,7.6671625E-3,1.9561832E-3,-3.5866504E-3,1.0877313E-2,-1.4267994E-4,-8.468053E-3,-2.0009005E-2,-6.054999E-3,-8.9476835E-3,2.7806994E-3,1.7257564E-2,-5.7815537E-3,5.245018E-3],"categories":[],"categories_nodes":[],"categories_segments":[],"categories_sizes":[],"default_left":[0,0,0,0,0,0,0,0,0,0,0,0,0,0,0,0,0,0,0,0,0,0,0,0,0,0,0,0,0,0,0,0,0,0,0,0,0,0,0,0,0,0,0,0,0,0,0,0,0],"id":20,"left_children":[1,3,5,7,9,11,13,15,17,19,21,23,25,27,-1,-1,-1,29,31,33,35,37,39,41,43,45,47,-1,-1,-1,-1,-1,-1,-1,-1,-1,-1,-1,-1,-1,-1,-1,-1,-1,-1,-1,-1,-1,-1],"loss_changes":[2.2765741E1,1.5025063E0,1.7232485E0,1.0317044E0,1.0143232E0,1.4923515E0,2.807336E-1,2.9460335E-1,2.7422792E-1,1.1565399E-1,4.3609807E-1,3.2203865E-1,2.2951585E-1,9.9450517E-1,0E0,0E0,0E0,3.113828E-1,2.7244672E-2,1.823616E-1,1.6157541E0,1.7914012E-1,9.7839004E-1,6.917157E-1,3.0391693E-1,2.2719954E-1,3.5845625E-1,0E0,0E0,0E0,0E0,0E0,0E0,0E0,0E0,0E0,0E0,0E0,0E0,0E0,0E0,0E0,0E0,0E0,0E0,0E0,0E0,0E0,0E0],"parents":[2147483647,0,0,1,1,2,2,3,3,4,4,5,5,6,6,7,7,8,8,9,9,10,10,11,11,12,12,13,13,17,17,18,18,19,19,20,20,21,21,22,22,23,23,24,24,25,25,26,26],"right_children":[2,4,6,8,10,12,14,16,18,20,22,24,26,28,-1,-1,-1,30,32,34,36,38,40,42,44,46,48,-1,-1,-1,-1,-1,-1,-1,-1,-1,-1,-1,-1,-1,-1,-1,-1,-1,-1,-1,-1,-1,-1],"split_conditions":[7.0018776E-2,-7.940803E-1,2.7610703E0,-9.17523E-1,-2.0155522E-1,2.291988E0,2.9338899E0,-9.4221157E-1,-8.434574E-1,-4.9781775E-1,-1.0280104E-1,3.4159276E-1,2.4648075E0,2.884513E0,-4.0268056E-2,3.7233718E-3,8.701445E-3,-8.928345E-1,-8.1876886E-1,-7.4470323E-1,-4.731292E-1,-1.5217812E-1,-2.8735405E-2,2.9221568E-1,1.2797575E0,2.440119E0,2.6376274E0,-2.6763534E-2,8.792688E-3,-1.0548568E-3,3.4755876E-3,-2.3319905E-3,-6.1113643E-4,5.78674E-3,8.527963E-3,-8.26674E-3,7.6671625E-3,1.9561832E-3,-3.5866504E-3,1.0877313E-2,-1.4267994E-4,-8.468053E-3,-2.0009005E-2,-6.054999E-3,-8.9476835E-3,2.7806994E-3,1.7257564E-2,-5.7815537E-3,5.245018E-3],"split_indices":[0,0,0,0,0,0,0,0,0,0,0,0,0,0,0,0,0,0,0,0,0,0,0,0,0,0,0,0,0,0,0,0,0,0,0,0,0,0,0,0,0,0,0,0,0,0,0,0,0],"split_type":[0,0,0,0,0,0,0,0,0,0,0,0,0,0,0,0,0,0,0,0,0,0,0,0,0,0,0,0,0,0,0,0,0,0,0,0,0,0,0,0,0,0,0,0,0,0,0,0,0],"sum_hessian":[1.6191608E3,1.0705891E3,5.4857166E2,3.7997308E2,6.90616E2,5.3730756E2,1.1264104E1,1.2312421E2,2.5684888E2,5.539098E2,1.367062E2,4.886627E2,4.864486E1,8.540786E0,2.7233183E0,6.3443176E1,5.9681026E1,1.6360562E2,9.324324E1,3.6658688E2,1.8732292E2,5.6422836E1,8.028337E1,9.084945E1,3.9781323E2,1.9474186E1,2.9170671E1,6.419691E0,2.1210942E0,5.8403706E1,1.0520192E2,4.8499508E1,4.4743736E1,9.0700005E1,2.7588687E2,1.6719494E1,1.7060344E2,2.7722525E1,2.8700314E1,3.570173E1,4.4581646E1,7.4937965E1,1.591148E1,2.326126E2,1.6520062E2,1.7109087E1,2.365099E0,1.8127537E1,1.1043137E1],"tree_param":{"num_deleted":"0","num_feature":"1","num_nodes":"49","size_leaf_vector":"1"}},{"base_weights":[1.4237647E-2,1.02356106E-1,-1.2603396E-1,1.1361982E-1,4.2841695E-2,-1.11021355E-1,-4.7782868E-1,9.928865E-2,1.6130397E-1,2.9366592E-2,8.45651E-3,-7.8164294E-2,-1.400264E-1,-3.948515E-1,-4.4974096E-2,1.08751625E-1,4.2819183E-2,2.0194142E-1,1.09300636E-1,4.5570567E-2,-2.1518357E-3,-1.0346994E-1,2.7735127E-2,-3.1545222E-1,-1.1054497E-1,-4.4156864E-1,8.559918E-3,4.622372E-3,8.188284E-3,6.7653746E-4,5.6431857E-3,1.0526603E-2,7.6324693E-3,3.511373E-4,6.781035E-3,1.4332043E-4,4.51111E-3,-3.5741918E-3,-9.71495E-3,8.33869E-3,-1.2243635E-3,-2.6910925E-2,-1.3718798E-2,-6.6609355E-3,-3.1826973E-3,-2.941352E-2,-1.8414095E-2],"categories":[],"categories_nodes":[],"categories_segments":[],"categories_sizes":[],"default_left":[0,0,0,0,0,0,0,0,0,0,0,0,0,0,0,0,0,0,0,0,0,0,0,0,0,0,0,0,0,0,0,0,0,0,0,0,0,0,0,0,0,0,0,0,0,0,0],"id":21,"left_children":[1,3,5,7,9,11,13,15,17,19,-1,21,23,25,-1,27,29,31,33,35,-1,37,39,41,43,45,-1,-1,-1,-1,-1,-1,-1,-1,-1,-1,-1,-1,-1,-1,-1,-1,-1,-1,-1,-1,-1],"loss_changes":[2.0050673E1,6.6293716E-1,3.2526178E0,5.560045E-1,2.6755413E-1,5.6238985E-1,5.305333E-1,3.406639E-1,3.8332987E-1,1.731481E-1,0E0,7.648388E-1,1.611135E0,6.820805E-1,0E0,4.8072052E-1,1.921312E-1,1.2961388E-2,2.3144329E-1,2.280134E-1,0E0,6.534631E-1,4.0799537E-1,2.6639652E-1,2.8285027E-1,1.4131069E-2,0E0,0E0,0E0,0E0,0E0,0E0,0E0,0E0,0E0,0E0,0E0,0E0,0E0,0E0,0E0,0E0,0E0,0E0,0E0,0E0,0E0],"parents":[2147483647,0,0,1,1,2,2,3,3,4,4,5,5,6,6,7,7,8,8,9,9,11,11,12,12,13,13,15,15,16,16,17,17,18,18,19,19,21,21,22,22,23,23,24,24,25,25],"right_children":[2,4,6,8,10,12,14,16,18,20,-1,22,24,26,-1,28,30,32,34,36,-1,38,40,42,44,46,-1,-1,-1,-1,-1,-1,-1,-1,-1,-1,-1,-1,-1,-1,-1,-1,-1,-1,-1,-1,-1],"split_conditions":[-1.0280104E-1,-3.7437505E-1,2.6376274E0,-6.2126046E-1,-1.2748958E-1,7.3660946E-1,2.983267E0,-6.953261E-1,-4.9781775E-1,-1.7686668E-1,8.45651E-3,5.144126E-1,9.3411785E-1,2.9338899E0,-4.4974096E-2,-7.693918E-1,-6.45949E-1,-5.225063E-1,-4.731292E-1,-2.7562085E-1,-2.1518357E-3,3.4159276E-1,5.6378967E-1,7.61298E-1,1.8969711E0,2.6870046E0,8.559918E-3,4.622372E-3,8.188284E-3,6.7653746E-4,5.6431857E-3,1.0526603E-2,7.6324693E-3,3.511373E-4,6.781035E-3,1.4332043E-4,4.51111E-3,-3.5741918E-3,-9.71495E-3,8.33869E-3,-1.2243635E-3,-2.6910925E-2,-1.3718798E-2,-6.6609355E-3,-3.1826973E-3,-2.941352E-2,-1.8414095E-2],"split_indices":[0,0,0,0,0,0,0,0,0,0,0,0,0,0,0,0,0,0,0,0,0,0,0,0,0,0,0,0,0,0,0,0,0,0,0,0,0,0,0,0,0,0,0,0,0,0,0],"split_type":[0,0,0,0,0,0,0,0,0,0,0,0,0,0,0,0,0,0,0,0,0,0,0,0,0,0,0,0,0,0,0,0,0,0,0,0,0,0,0,0,0,0,0,0,0,0,0],"sum_hessian":[1.6201111E3,9.951987E2,6.249123E2,8.360572E2,1.5914153E2,6.005978E2,2.4314535E1,6.45222E2,1.9083516E2,1.4491183E2,1.4229695E1,2.8333234E2,3.1726544E2,2.1934483E1,2.3800538E0,5.5182336E2,9.339865E1,1.05505646E2,8.532952E1,1.1871404E2,2.619779E1,2.2870428E2,5.462806E1,4.4251583E1,2.7301385E2,2.0465351E1,1.4691311E0,4.2773767E2,1.2408569E2,6.6701324E1,2.669733E1,8.706144E1,1.844421E1,1.7723623E1,6.7605896E1,6.1224262E1,5.748978E1,1.7046193E2,5.824236E1,1.43168545E1,4.0311207E1,5.0050635E0,3.9246517E1,1.8278754E2,9.022631E1,4.476848E0,1.59885025E1],"tree_param":{"num_deleted":"0","num_feature":"1","num_nodes":"47","size_leaf_vector":"1"}},{"base_weights":[-1.4166609E-2,3.9362106E-2,-1.458742E-1,1.8494532E-3,5.438579E-2,-1.337896E-1,-5.389986E-1,4.1234414E-3,-1.7108727E-2,7.90962E-2,-4.125132E-3,-1.03800945E-1,-1.8610995E-1,-3.436071E-2,-2.1087772E-1,7.537265E-3,-3.727699E-2,6.0136773E-2,1.2102626E-1,-2.888038E-2,6.2664114E-2,-1.2586136E-1,1.5044505E-3,-2.7464464E-1,-1.1316025E-1,1.7885355E-2,-4.2089757E-2,3.271468E-4,4.2401455E-4,-2.3173462E-3,-9.2653785E-4,6.0568843E-3,5.93353E-4,1.289812E-2,4.239245E-3,-1.4910362E-4,-8.896804E-3,5.1396512E-3,-2.4311177E-3,-5.3354297E-3,-1.11580845E-2,4.012929E-3,-3.6159938E-3,-1.2106649E-2,-1.9204287E-2,9.498425E-3,-7.469973E-3],"categories":[],"categories_nodes":[],"categories_segments":[],"categories_sizes":[],"default_left":[0,0,0,0,0,0,0,0,0,0,0,0,0,0,0,0,0,0,0,0,0,0,0,0,0,0,0,0,0,0,0,0,0,0,0,0,0,0,0,0,0,0,0,0,0,0,0],"id":22,"left_children":[1,3,5,7,9,11,13,-1,15,17,19,21,23,-1,25,27,29,31,33,35,37,39,41,43,45,-1,-1,-1,-1,-1,-1,-1,-1,-1,-1,-1,-1,-1,-1,-1,-1,-1,-1,-1,-1,-1,-1],"loss_changes":[1.1396916E1,6.4779866E-1,2.1470623E0,5.054583E-1,1.187104E0,6.9383144E-1,5.16526E-1,0E0,1.334101E-1,4.5154238E-1,4.0635028E-1,6.766243E-1,1.0303226E0,0E0,2.3368046E0,5.831616E-5,2.421388E-2,1.1746858E0,8.6508894E-1,6.912123E-1,3.018834E-1,4.2485642E-1,3.047708E-1,1.6865969E-1,1.0368274E0,0E0,0E0,0E0,0E0,0E0,0E0,0E0,0E0,0E0,0E0,0E0,0E0,0E0,0E0,0E0,0E0,0E0,0E0,0E0,0E0,0E0,0E0],"parents":[2147483647,0,0,1,1,2,2,3,3,4,4,5,5,6,6,8,8,9,9,10,10,11,11,12,12,14,14,15,15,16,16,17,17,18,18,19,19,20,20,21,21,22,22,23,23,24,24],"right_children":[2,4,6,8,10,12,14,-1,16,18,20,22,24,-1,26,28,30,32,34,36,38,40,42,44,46,-1,-1,-1,-1,-1,-1,-1,-1,-1,-1,-1,-1,-1,-1,-1,-1,-1,-1,-1,-1,-1,-1],"split_conditions":[3.1690422E-1,-8.1876886E-1,2.7610703E0,-9.4221157E-1,-2.509323E-1,1.5513315E0,2.9092014E0,4.1234414E-3,-8.928345E-1,-5.225063E-1,1.1939587E-1,1.304446E0,1.9957253E0,-3.436071E-2,2.983267E0,-9.17523E-1,-8.434574E-1,-7.2001463E-1,-4.731292E-1,4.533023E-2,2.6752713E-1,1.1069376E0,1.4278888E0,1.8969711E0,2.0697908E0,1.7885355E-2,-4.2089757E-2,3.271468E-4,4.2401455E-4,-2.3173462E-3,-9.2653785E-4,6.0568843E-3,5.93353E-4,1.289812E-2,4.239245E-3,-1.4910362E-4,-8.896804E-3,5.1396512E-3,-2.4311177E-3,-5.3354297E-3,-1.11580845E-2,4.012929E-3,-3.6159938E-3,-1.2106649E-2,-1.9204287E-2,9.498425E-3,-7.469973E-3],"split_indices":[0,0,0,0,0,0,0,0,0,0,0,0,0,0,0,0,0,0,0,0,0,0,0,0,0,0,0,0,0,0,0,0,0,0,0,0,0,0,0,0,0,0,0,0,0,0,0],"split_type":[0,0,0,0,0,0,0,0,0,0,0,0,0,0,0,0,0,0,0,0,0,0,0,0,0,0,0,0,0,0,0,0,0,0,0,0,0,0,0,0,0,0,0,0,0,0,0],"sum_hessian":[1.6147378E3,1.1486171E3,4.6612076E2,3.2878827E2,8.1982874E2,4.5351993E2,1.2600836E1,6.195891E1,2.6682938E2,5.7615454E2,2.4367421E2,2.9018018E2,1.6333975E2,7.9261284E0,4.674708E0,1.2036607E2,1.4646329E2,3.9843103E2,1.777235E2,1.781945E2,6.5479706E1,2.3975809E2,5.04221E1,7.2538826E1,9.080093E1,2.686585E0,1.9881227E0,6.2453346E1,5.791273E1,9.771421E1,4.874909E1,1.753379E2,2.2309312E2,3.5912407E1,1.418111E2,1.5268552E2,2.5508978E1,4.818202E1,1.7297686E1,2.0207748E2,3.76806E1,2.4354313E1,2.6067787E1,5.840183E1,1.4136993E1,9.2431345E0,8.155779E1],"tree_param":{"num_deleted":"0","num_feature":"1","num_nodes":"47","size_leaf_vector":"1"}},{"base_weights":[-1.0658666E-3,7.3132016E-2,-1.3255265E-1,1.4802001E-2,8.109181E-2,-1.1151097E-1,-3.9792016E-1,1.5816523E-3,-1.8583557E-4,8.8432945E-2,3.0190691E-2,-1.2274979E-1,1.611346E-1,-3.5384026E-1,-4.249124E-2,8.1265606E-2,2.0872746E-1,-2.1885369E-2,4.6176333E-2,-8.760865E-2,-2.0432144E-1,9.2685044E-2,3.8976356E-1,-3.9522046E-1,1.0338008E-1,4.3394375E-3,2.185568E-3,8.450057E-3,1.3779406E-2,1.6672204E-3,-3.9239894E-3,3.929376E-3,-2.7071786E-4,-8.729382E-3,-3.032079E-3,-1.3395189E-2,-7.2122426E-3,1.2899865E-2,-3.5166969E-3,2.4995644E-2,5.6823525E-3,-1.7242765E-2,-3.9588597E-2,-1.7958643E-3,8.626982E-3],"categories":[],"categories_nodes":[],"categories_segments":[],"categories_sizes":[],"default_left":[0,0,0,0,0,0,0,0,0,0,0,0,0,0,0,0,0,0,0,0,0,0,0,0,0,0,0,0,0,0,0,0,0,0,0,0,0,0,0,0,0,0,0,0,0],"id":23,"left_children":[1,3,5,7,9,11,13,-1,-1,15,17,19,21,23,-1,25,27,29,31,33,35,37,39,41,43,-1,-1,-1,-1,-1,-1,-1,-1,-1,-1,-1,-1,-1,-1,-1,-1,-1,-1,-1,-1],"loss_changes":[1.5943717E1,4.838581E-1,3.2474127E0,3.9598882E-2,3.407545E-1,1.6977606E0,5.542908E-1,0E0,0E0,6.751108E-1,9.87092E-2,1.491303E0,3.099141E-1,8.131738E-1,0E0,1.5367603E-1,7.161975E-2,9.089526E-2,1.5111196E-1,8.566201E-1,5.6401443E-1,5.1209515E-1,8.864957E-2,4.7871113E-1,4.647054E-2,0E0,0E0,0E0,0E0,0E0,0E0,0E0,0E0,0E0,0E0,0E0,0E0,0E0,0E0,0E0,0E0,0E0,0E0,0E0,0E0],"parents":[2147483647,0,0,1,1,2,2,3,3,4,4,5,5,6,6,9,9,10,10,11,11,12,12,13,13,15,15,16,16,17,17,18,18,19,19,20,20,21,21,22,22,23,23,24,24],"right_children":[2,4,6,8,10,12,14,-1,-1,16,18,20,22,24,-1,26,28,30,32,34,36,38,40,42,44,-1,-1,-1,-1,-1,-1,-1,-1,-1,-1,-1,-1,-1,-1,-1,-1,-1,-1,-1,-1],"split_conditions":[-4.0468606E-3,-9.17523E-1,2.4648075E0,-9.4221157E-1,-2.2624376E-1,2.2672992E0,2.983267E0,1.5816523E-3,-1.8583557E-4,-3.003094E-1,-1.7686668E-1,1.304446E0,2.4154305E0,2.9092014E0,-4.249124E-2,-4.4844067E-1,-2.509323E-1,-2.0155522E-1,-7.81125E-2,2.1815005E-1,1.6994628E0,2.3413649E0,2.440119E0,2.8598244E0,2.9338899E0,4.3394375E-3,2.185568E-3,8.450057E-3,1.3779406E-2,1.6672204E-3,-3.9239894E-3,3.929376E-3,-2.7071786E-4,-8.729382E-3,-3.032079E-3,-1.3395189E-2,-7.2122426E-3,1.2899865E-2,-3.5166969E-3,2.4995644E-2,5.6823525E-3,-1.7242765E-2,-3.9588597E-2,-1.7958643E-3,8.626982E-3],"split_indices":[0,0,0,0,0,0,0,0,0,0,0,0,0,0,0,0,0,0,0,0,0,0,0,0,0,0,0,0,0,0,0,0,0,0,0,0,0,0,0,0,0,0,0,0,0],"split_type":[0,0,0,0,0,0,0,0,0,0,0,0,0,0,0,0,0,0,0,0,0,0,0,0,0,0,0,0,0,0,0,0,0,0,0,0,0,0,0,0,0,0,0,0,0],"sum_hessian":[1.632247E3,1.0437203E3,5.885267E2,1.2566882E2,9.1805145E2,5.4660516E2,4.192153E1,6.5463264E1,6.020556E1,8.016914E2,1.1636004E2,5.2549335E2,2.1111774E1,3.9820354E1,2.101178E0,7.581927E2,4.3498753E1,2.7242785E1,8.9117256E1,3.6872174E2,1.5677164E2,1.7329012E1,3.7827635E0,3.6639904E1,3.18045E0,6.5983856E2,9.835412E1,2.949907E1,1.3999681E1,1.3995537E1,1.3247248E1,5.4410976E1,3.470628E1,8.5968094E1,2.8275366E2,7.4482925E1,8.228871E1,8.314712E0,9.0143E0,2.1246693E0,1.6580942E0,3.416972E1,2.4701848E0,1.2146432E0,1.9658067E0],"tree_param":{"num_deleted":"0","num_feature":"1","num_nodes":"45","size_leaf_vector":"1"}},{"base_weights":[-7.7074636E-3,5.9916455E-2,-1.4108965E-1,7.275232E-2,1.5263027E-2,-1.3627629E-1,-4.3695495E-2,5.7430543E-2,1.6560714E-1,-4.0939967E-3,2.288658E-2,-1.6679196E-1,-1.01733565E-1,7.574027E-2,2.4843335E-2,1.9050394E-1,4.412444E-3,5.9534084E-2,5.137899E-3,-1.02258585E-1,-1.9336163E-1,1.4295275E-2,-1.232674E-1,2.151559E-3,6.2373932E-3,-1.6996462E-3,3.4855027E-3,8.88367E-3,1.14603685E-2,1.5957482E-3,4.9309167E-3,-3.2595794E-3,1.102669E-3,-8.437847E-3,2.8440075E-3,-2.5771338E-2,-8.852306E-3,-5.7504233E-3,3.0308084E-3,-4.40568E-3,-7.4072643E-3],"categories":[],"categories_nodes":[],"categories_segments":[],"categories_sizes":[],"default_left":[0,0,0,0,0,0,0,0,0,0,0,0,0,0,0,0,0,0,0,0,0,0,0,0,0,0,0,0,0,0,0,0,0,0,0,0,0,0,0,0,0],"id":24,"left_children":[1,3,5,7,9,11,-1,13,15,-1,17,19,21,23,25,27,-1,29,31,33,35,37,39,-1,-1,-1,-1,-1,-1,-1,-1,-1,-1,-1,-1,-1,-1,-1,-1,-1,-1],"loss_changes":[1.4578068E1,6.136458E-1,1.7987986E0,1.1753454E0,1.8016055E-1,5.5367756E-1,0E0,4.2556477E-1,2.0935011E-1,0E0,1.4539665E-1,4.7039223E-1,6.426134E-1,7.291074E-1,6.8661606E-1,2.9623508E-3,0E0,7.5648606E-2,1.822769E-1,9.143501E-1,9.669113E-1,2.5281817E-1,1.7623687E-1,0E0,0E0,0E0,0E0,0E0,0E0,0E0,0E0,0E0,0E0,0E0,0E0,0E0,0E0,0E0,0E0,0E0,0E0],"parents":[2147483647,0,0,1,1,2,2,3,3,4,4,5,5,7,7,8,8,10,10,11,11,12,12,13,13,14,14,15,15,17,17,18,18,19,19,20,20,21,21,22,22],"right_children":[2,4,6,8,10,12,-1,14,16,-1,18,20,22,24,26,28,-1,30,32,34,36,38,40,-1,-1,-1,-1,-1,-1,-1,-1,-1,-1,-1,-1,-1,-1,-1,-1,-1,-1],"split_conditions":[9.470732E-2,-3.4968647E-1,2.983267E0,-5.225063E-1,-3.2499793E-1,1.1316262E0,-4.3695495E-2,-7.4470323E-1,-3.990636E-1,-4.0939967E-3,-2.0155522E-1,3.4159276E-1,1.3291346E0,-8.434574E-1,-6.7063755E-1,-4.2375213E-1,4.412444E-3,-2.509323E-1,-1.5217812E-1,2.6752713E-1,3.662813E-1,1.1810033E0,1.8229054E0,2.151559E-3,6.2373932E-3,-1.6996462E-3,3.4855027E-3,8.88367E-3,1.14603685E-2,1.5957482E-3,4.9309167E-3,-3.2595794E-3,1.102669E-3,-8.437847E-3,2.8440075E-3,-2.5771338E-2,-8.852306E-3,-5.7504233E-3,3.0308084E-3,-4.40568E-3,-7.4072643E-3],"split_indices":[0,0,0,0,0,0,0,0,0,0,0,0,0,0,0,0,0,0,0,0,0,0,0,0,0,0,0,0,0,0,0,0,0,0,0,0,0,0,0,0,0],"split_type":[0,0,0,0,0,0,0,0,0,0,0,0,0,0,0,0,0,0,0,0,0,0,0,0,0,0,0,0,0,0,0,0,0,0,0,0,0,0,0,0,0],"sum_hessian":[1.6142878E3,1.071563E3,5.4272485E2,8.318221E2,2.3974089E2,5.403616E2,2.363271E0,7.1539484E2,1.1642727E2,1.6736465E1,2.2300443E2,2.8487198E2,2.5548958E2,4.5718994E2,2.582049E2,8.697336E1,2.945391E1,7.199492E1,1.510095E2,8.449533E1,2.0037666E2,4.004654E1,2.1544304E2,2.7531488E2,1.8187508E2,1.1181627E2,1.4638863E2,6.9518105E1,1.7455248E1,4.3249187E1,2.8745733E1,2.8725124E1,1.22284386E2,5.955077E1,2.4944561E1,8.186454E0,1.921902E2,1.0171146E1,2.9875393E1,9.116451E1,1.24278534E2],"tree_param":{"num_deleted":"0","num_feature":"1","num_nodes":"41","size_leaf_vector":"1"}},{"base_weights":[-5.3515867E-3,4.9734384E-2,-1.0887147E-1,1.5156879E-2,6.1806004E-2,-1.0244783E-1,-6.453273E-1,-1.0798039E-3,2.5736086E-2,8.0880955E-2,1.5915595E-2,-1.4371379E-1,-5.9625324E-2,-3.5297215E-1,-4.2070936E-2,2.9880225E-3,1.2169282E-2,6.6958174E-2,1.5494575E-1,-1.2655328E-2,5.4880567E-2,-1.3033044E-1,-2.1744698E-2,-4.759973E-3,-1.0789546E-1,-3.395084E-2,8.276031E-3,-1.1196902E-3,1.5364174E-3,3.8381387E-3,1.6846206E-3,1.1206187E-2,5.2618794E-3,7.137036E-4,-1.2035319E-2,7.4773678E-3,9.3430834E-4,-1.0213698E-2,-4.9799103E-3,-7.44736E-4,5.983597E-3,-1.2747643E-2,-2.906448E-3],"categories":[],"categories_nodes":[],"categories_segments":[],"categories_sizes":[],"default_left":[0,0,0,0,0,0,0,0,0,0,0,0,0,0,0,0,0,0,0,0,0,0,0,0,0,0,0,0,0,0,0,0,0,0,0,0,0,0,0,0,0,0,0],"id":25,"left_children":[1,3,5,7,9,11,13,-1,15,17,19,21,23,25,-1,-1,27,29,31,33,35,37,-1,39,41,-1,-1,-1,-1,-1,-1,-1,-1,-1,-1,-1,-1,-1,-1,-1,-1,-1,-1],"loss_changes":[9.233708E0,4.402299E-1,1.871809E0,1.07414424E-1,6.8419886E-1,9.755397E-1,7.366037E-2,0E0,9.799051E-2,5.597875E-1,2.580531E-1,1.0457587E0,7.2780085E-1,8.424057E-1,0E0,0E0,9.956896E-2,1.4979053E-1,2.7465463E-1,8.2752913E-1,3.3294317E-1,5.9751844E-1,0E0,1.6541623E-1,1.0555131E0,0E0,0E0,0E0,0E0,0E0,0E0,0E0,0E0,0E0,0E0,0E0,0E0,0E0,0E0,0E0,0E0,0E0,0E0],"parents":[2147483647,0,0,1,1,2,2,3,3,4,4,5,5,6,6,8,8,9,9,10,10,11,11,12,12,13,13,16,16,17,17,18,18,19,19,20,20,21,21,23,23,24,24],"right_children":[2,4,6,8,10,12,14,-1,16,18,20,22,24,26,-1,-1,28,30,32,34,36,38,-1,40,42,-1,-1,-1,-1,-1,-1,-1,-1,-1,-1,-1,-1,-1,-1,-1,-1,-1,-1],"split_conditions":[4.533023E-2,-8.434574E-1,2.884513E0,-9.4221157E-1,-3.7437505E-1,1.0328721E0,2.983267E0,-1.0798039E-3,-9.17523E-1,-4.9781775E-1,-1.5217812E-1,9.8349494E-1,1.6747742E0,2.9338899E0,-4.2070936E-2,2.9880225E-3,-8.928345E-1,-6.2126046E-1,-4.4844067E-1,-1.7686668E-1,-1.0280104E-1,2.6752713E-1,-2.1744698E-2,1.6253971E0,1.8969711E0,-3.395084E-2,8.276031E-3,-1.1196902E-3,1.5364174E-3,3.8381387E-3,1.6846206E-3,1.1206187E-2,5.2618794E-3,7.137036E-4,-1.2035319E-2,7.4773678E-3,9.3430834E-4,-1.0213698E-2,-4.9799103E-3,-7.44736E-4,5.983597E-3,-1.2747643E-2,-2.906448E-3],"split_indices":[0,0,0,0,0,0,0,0,0,0,0,0,0,0,0,0,0,0,0,0,0,0,0,0,0,0,0,0,0,0,0,0,0,0,0,0,0,0,0,0,0,0,0],"split_type":[0,0,0,0,0,0,0,0,0,0,0,0,0,0,0,0,0,0,0,0,0,0,0,0,0,0,0,0,0,0,0,0,0,0,0,0,0,0,0,0,0,0,0],"sum_hessian":[1.617291E3,1.055923E3,5.6136804E2,2.7383002E2,7.820929E2,5.5590247E2,5.4655313E0,6.0970963E1,2.1285907E2,5.5191833E2,2.3017456E2,2.818965E2,2.7400598E2,3.3182895E0,2.1472418E0,5.970906E1,1.5315E2,4.661879E2,8.5730446E1,1.3318924E2,9.698532E1,2.708932E2,1.1003319E1,1.2875624E2,1.4524974E2,1.8471475E0,1.4711419E0,5.3433193E1,9.9716805E1,3.590543E2,1.07133606E2,3.4378155E1,5.1352295E1,1.1996105E2,1.32281885E1,2.5958593E1,7.1026726E1,7.787488E1,1.9301831E2,1.198731E2,8.883141E0,3.5683605E1,1.0956614E2],"tree_param":{"num_deleted":"0","num_feature":"1","num_nodes":"43","size_leaf_vector":"1"}},{"base_weights":[-9.7022485E-4,6.175424E-2,-1.1009924E-1,2.110478E-2,7.0241235E-2,-1.0699161E-1,-3.8035247E-2,1.7990357E-3,1.3057568E-2,7.953176E-3,6.4312026E-2,-1.692182E-1,-8.683897E-2,7.8892923E-4,4.977555E-4,2.6417756E-2,7.627004E-2,-1.4366469E-1,-2.5202578E-1,-2.4742091E-2,-1.4749402E-1,2.4379196E-3,1.0541915E-4,7.178896E-3,3.2746454E-3,-7.829807E-3,1.3934884E-3,-1.3769309E-2,-8.121159E-3,1.0722894E-2,-1.757514E-3,-8.529044E-3,1.8717349E-4],"categories":[],"categories_nodes":[],"categories_segments":[],"categories_sizes":[],"default_left":[0,0,0,0,0,0,0,0,0,0,0,0,0,0,0,0,0,0,0,0,0,0,0,0,0,0,0,0,0,0,0,0,0],"id":26,"left_children":[1,3,5,7,9,11,-1,-1,13,-1,15,17,19,-1,-1,21,23,25,27,29,31,-1,-1,-1,-1,-1,-1,-1,-1,-1,-1,-1,-1],"loss_changes":[1.1073087E1,3.5291123E-1,1.1123648E0,2.0941436E-2,4.371004E-1,7.2366047E-1,0E0,0E0,8.3602406E-4,0E0,3.5955477E-1,2.6634645E-1,1.6792326E0,0E0,0E0,1.0467288E-1,4.3017673E-1,2.518921E-1,2.3072004E-2,5.601867E-1,7.8912735E-1,0E0,0E0,0E0,0E0,0E0,0E0,0E0,0E0,0E0,0E0,0E0,0E0],"parents":[2147483647,0,0,1,1,2,2,3,3,4,4,5,5,8,8,10,10,11,11,12,12,15,15,16,16,17,17,18,18,19,19,20,20],"right_children":[2,4,6,8,10,12,-1,-1,14,-1,16,18,20,-1,-1,22,24,26,28,30,32,-1,-1,-1,-1,-1,-1,-1,-1,-1,-1,-1,-1],"split_conditions":[-2.8735405E-2,-8.928345E-1,2.983267E0,-9.4221157E-1,-8.6814594E-1,3.662813E-1,-3.8035247E-2,1.7990357E-3,-9.17523E-1,7.953176E-3,-7.693918E-1,2.6752713E-1,1.2797575E0,7.8892923E-4,4.977555E-4,-8.1876886E-1,-7.2001463E-1,2.4283859E-1,3.4159276E-1,3.9096984E-1,2.563562E0,2.4379196E-3,1.0541915E-4,7.178896E-3,3.2746454E-3,-7.829807E-3,1.3934884E-3,-1.3769309E-2,-8.121159E-3,1.0722894E-2,-1.757514E-3,-8.529044E-3,1.8717349E-4],"split_indices":[0,0,0,0,0,0,0,0,0,0,0,0,0,0,0,0,0,0,0,0,0,0,0,0,0,0,0,0,0,0,0,0,0],"split_type":[0,0,0,0,0,0,0,0,0,0,0,0,0,0,0,0,0,0,0,0,0,0,0,0,0,0,0,0,0,0,0,0,0],"sum_hessian":[1.6156825E3,1.0262534E3,5.8942914E2,1.7785971E2,8.483937E2,5.87786E2,1.6431212E0,6.1219387E1,1.1664032E2,5.1473267E1,7.969204E2,1.4198209E2,4.4580392E2,5.9963448E1,5.6676872E1,1.9192624E2,6.049942E2,1.1059012E2,3.139196E1,2.2097948E2,2.2482446E2,9.948889E1,9.243734E1,8.179934E1,5.231948E2,1.0291851E2,7.671611E0,2.3255564E1,8.136396E0,8.396944E0,2.1258252E2,1.9493861E2,2.9885845E1],"tree_param":{"num_deleted":"0","num_feature":"1","num_nodes":"33","size_leaf_vector":"1"}},{"base_weights":[-3.8066267E-3,6.549762E-2,-1.1543945E-1,-6.278546E-3,7.564883E-2,-1.11850895E-1,-4.0783446E-2,1.3738488E-3,-2.215604E-3,5.484948E-2,8.892498E-2,-1.42708095E-2,-1.0799154E-1,7.9027906E-2,-1.3370692E-2,1.0488531E-1,3.720464E-2,-1.5008078E-2,-1.174366E-1,4.344122E-3,2.2063896E-3,-4.2944434E-3,3.1798822E-3,4.4829943E-3,7.7306847E-3,-2.1495605E-3,4.0239613E-3,-3.9443406E-3,1.3224487E-2,-9.120408E-3,-5.1744697E-3],"categories":[],"categories_nodes":[],"categories_segments":[],"categories_sizes":[],"default_left":[0,0,0,0,0,0,0,0,0,0,0,0,0,0,0,0,0,0,0,0,0,0,0,0,0,0,0,0,0,0,0],"id":27,"left_children":[1,3,5,7,9,11,-1,-1,-1,13,15,-1,17,19,21,23,25,27,29,-1,-1,-1,-1,-1,-1,-1,-1,-1,-1,-1,-1],"loss_changes":[1.2676543E1,7.3706627E-1,1.4857712E0,1.632188E-1,2.3971319E-1,3.8819885E-1,0E0,0E0,0E0,5.7459164E-1,4.4107008E-1,0E0,5.370755E-1,6.658006E-2,5.1809233E-1,2.976098E-1,4.4999355E-1,1.051438E0,4.857006E-1,0E0,0E0,0E0,0E0,0E0,0E0,0E0,0E0,0E0,0E0,0E0,0E0],"parents":[2147483647,0,0,1,1,2,2,3,3,4,4,5,5,9,9,10,10,12,12,13,13,14,14,15,15,16,16,17,17,18,18],"right_children":[2,4,6,8,10,12,-1,-1,-1,14,16,-1,18,20,22,24,26,28,30,-1,-1,-1,-1,-1,-1,-1,-1,-1,-1,-1,-1],"split_conditions":[-7.81125E-2,-9.17523E-1,2.983267E0,-9.4221157E-1,-7.4470323E-1,-5.342395E-2,-4.0783446E-2,1.3738488E-3,-2.215604E-3,-7.940803E-1,-3.003094E-1,-1.42708095E-2,7.0018776E-2,-8.1876886E-1,-7.693918E-1,-4.4844067E-1,-2.2624376E-1,4.533023E-2,3.4159276E-1,4.344122E-3,2.2063896E-3,-4.2944434E-3,3.1798822E-3,4.4829943E-3,7.7306847E-3,-2.1495605E-3,4.0239613E-3,-3.9443406E-3,1.3224487E-2,-9.120408E-3,-5.1744697E-3],"split_indices":[0,0,0,0,0,0,0,0,0,0,0,0,0,0,0,0,0,0,0,0,0,0,0,0,0,0,0,0,0,0,0],"split_type":[0,0,0,0,0,0,0,0,0,0,0,0,0,0,0,0,0,0,0,0,0,0,0,0,0,0,0,0,0,0,0],"sum_hessian":[1.6365326E3,1.0099472E3,6.265854E2,1.2518472E2,8.8476245E2,6.2454443E2,2.0409486E0,6.646938E1,5.8715343E1,3.467115E2,5.3805096E2,1.1998247E1,6.125462E2,2.558687E2,9.08428E1,4.103833E2,1.27667694E2,5.6722385E1,5.558238E2,2.0764679E2,4.822192E1,4.6713905E1,4.412889E1,3.1633383E2,9.404947E1,4.474795E1,8.291975E1,4.6754486E1,9.967899E0,9.609537E1,4.5972842E2],"tree_param":{"num_deleted":"0","num_feature":"1","num_nodes":"31","size_leaf_vector":"1"}},{"base_weights":[1.776132E-2,6.8511635E-2,-8.695105E-2,8.2946055E-2,2.596588E-2,-7.279939E-2,-2.6204506E-1,7.336479E-2,1.8060614E-1,-5.015415E-3,1.095784E-1,-8.437126E-2,2.7987938E-3,-2.1901365E-1,-3.8018223E-2,2.7358675E-2,8.7746084E-2,1.0640066E-2,1.4417708E-1,-1.2958092E-2,1.7495241E-2,1.1919699E-2,4.0631816E-2,-7.798456E-2,-1.5403576E-2,1.239634E-1,-2.9789174E-2,-2.545034E-2,-1.3570692E-1,2.2816225E-3,-5.06748E-4,6.3175834E-3,3.6836322E-3,4.3084216E-3,9.727863E-3,4.221751E-4,-2.4316546E-3,7.548821E-3,-1.2351581E-3,2.3759315E-4,9.737288E-3,-9.577621E-3,-3.5373103E-3,1.26025155E-2,3.6944721E-3,-3.5521889E-3,5.514187E-4,-9.148956E-3,3.3879397E-4],"categories":[],"categories_nodes":[],"categories_segments":[],"categories_sizes":[],"default_left":[0,0,0,0,0,0,0,0,0,0,0,0,0,0,0,0,0,0,0,0,0,0,0,0,0,0,0,0,0,0,0,0,0,0,0,0,0,0,0,0,0,0,0,0,0,0,0,0,0],"id":28,"left_children":[1,3,5,7,9,11,13,15,17,19,21,23,25,27,-1,29,31,-1,33,35,37,-1,39,41,-1,43,45,-1,47,-1,-1,-1,-1,-1,-1,-1,-1,-1,-1,-1,-1,-1,-1,-1,-1,-1,-1,-1,-1],"loss_changes":[8.5944605E0,6.666999E-1,1.2893057E0,7.472601E-1,7.1901774E-1,4.2882967E-1,6.7192316E-1,4.8841667E-1,5.3682327E-2,3.658044E-2,6.5667456E-1,5.830622E-1,2.6431745E-1,8.343818E-1,0E0,1.2250221E-1,2.975073E-1,0E0,9.092128E-2,1.1560053E-1,3.0483106E-1,0E0,2.7597886E-1,3.271563E-1,0E0,7.234803E-2,8.9731276E-2,0E0,2.061001E-1,0E0,0E0,0E0,0E0,0E0,0E0,0E0,0E0,0E0,0E0,0E0,0E0,0E0,0E0,0E0,0E0,0E0,0E0,0E0,0E0],"parents":[2147483647,0,0,1,1,2,2,3,3,4,4,5,5,6,6,7,7,8,8,9,9,10,10,11,11,12,12,13,13,15,15,16,16,18,18,19,19,20,20,22,22,23,23,25,25,26,26,28,28],"right_children":[2,4,6,8,10,12,14,16,18,20,22,24,26,28,-1,30,32,-1,34,36,38,-1,40,42,-1,44,46,-1,48,-1,-1,-1,-1,-1,-1,-1,-1,-1,-1,-1,-1,-1,-1,-1,-1,-1,-1,-1,-1],"split_conditions":[1.1939587E-1,-3.990636E-1,2.4894962E0,-4.9781775E-1,-5.342395E-2,1.9710367E0,2.983267E0,-8.928345E-1,-4.4844067E-1,-1.5217812E-1,-4.0468606E-3,1.8969711E0,2.0697908E0,2.563562E0,-3.8018223E-2,-9.17523E-1,-8.1876886E-1,1.0640066E-2,-4.2375213E-1,-2.509323E-1,-1.2748958E-1,1.1919699E-2,9.470732E-2,1.934615E-1,-1.5403576E-2,1.9957253E0,2.2672992E0,-2.545034E-2,2.8104472E0,2.2816225E-3,-5.06748E-4,6.3175834E-3,3.6836322E-3,4.3084216E-3,9.727863E-3,4.221751E-4,-2.4316546E-3,7.548821E-3,-1.2351581E-3,2.3759315E-4,9.737288E-3,-9.577621E-3,-3.5373103E-3,1.26025155E-2,3.6944721E-3,-3.5521889E-3,5.514187E-4,-9.148956E-3,3.3879397E-4],"split_indices":[0,0,0,0,0,0,0,0,0,0,0,0,0,0,0,0,0,0,0,0,0,0,0,0,0,0,0,0,0,0,0,0,0,0,0,0,0,0,0,0,0,0,0,0,0,0,0,0,0],"split_type":[0,0,0,0,0,0,0,0,0,0,0,0,0,0,0,0,0,0,0,0,0,0,0,0,0,0,0,0,0,0,0,0,0,0,0,0,0,0,0,0,0,0,0,0,0,0,0,0,0],"sum_hessian":[1.6151467E3,1.0881199E3,5.2702686E2,8.1176447E2,2.7635538E2,4.8892606E2,3.810079E1,7.4083374E2,7.093074E1,2.0232652E2,7.402887E1,4.239202E2,6.500586E1,3.6397278E1,1.7035112E0,1.7712115E2,5.637126E2,3.5083344E1,3.5847397E1,1.4987047E2,5.245605E1,2.4952147E1,4.907672E1,4.134643E2,1.0455914E1,1.3183736E1,5.182212E1,6.9821577E0,2.9415121E1,1.1893644E2,5.818471E1,1.4846701E2,4.1524557E2,1.792202E1,1.7925377E1,9.415174E1,5.571873E1,1.1980808E1,4.0475243E1,4.0644848E1,8.431875E0,2.3247858E1,3.9021643E2,2.5717516E0,1.0611984E1,2.540479E1,2.6417332E1,2.1873745E1,7.5413766E0],"tree_param":{"num_deleted":"0","num_feature":"1","num_nodes":"49","size_leaf_vector":"1"}},{"base_weights":[7.911395E-3,4.4002675E-2,-9.9724054E-2,6.054567E-2,7.565889E-3,-9.405536E-2,-4.046313E-2,4.890524E-2,1.1405692E-1,-7.5439855E-2,1.899766E-2,-1.1246216E-1,-2.3507165E-2,6.182179E-3,4.1019045E-2,9.213396E-3,6.426115E-2,-1.1124978E-3,-5.2199E-3,6.2114736E-3,3.9011664E-3,-9.78277E-2,-4.251523E-1,1.6885369E-1,-4.0625997E-2,3.409751E-4,2.9774953E-3,2.0628963E-3,4.963416E-3,-5.071286E-4,1.8174289E-3,-4.1696387E-3,-9.641402E-3,-1.3157139E-2,-2.7191473E-2,-3.2398553E-4,1.8377205E-2,-2.7084504E-3,7.876078E-3],"categories":[],"categories_nodes":[],"categories_segments":[],"categories_sizes":[],"default_left":[0,0,0,0,0,0,0,0,0,0,0,0,0,0,0,0,0,0,0,0,0,0,0,0,0,0,0,0,0,0,0,0,0,0,0,0,0,0,0],"id":29,"left_children":[1,3,5,7,9,11,-1,13,15,17,19,21,23,-1,25,-1,27,-1,-1,-1,29,31,33,35,37,-1,-1,-1,-1,-1,-1,-1,-1,-1,-1,-1,-1,-1,-1],"loss_changes":[6.2609577E0,7.269876E-1,1.551795E0,5.1133275E-1,3.600965E-1,5.2023697E-1,0E0,3.976878E-1,5.039078E-1,6.8461865E-2,5.285633E-1,1.4185171E0,2.853933E-1,0E0,3.9227092E-1,0E0,6.664103E-2,0E0,0E0,0E0,1.3355225E-1,4.036944E-1,1.2543273E-1,2.4993992E-1,2.1912824E-1,0E0,0E0,0E0,0E0,0E0,0E0,0E0,0E0,0E0,0E0,0E0,0E0,0E0,0E0],"parents":[2147483647,0,0,1,1,2,2,3,3,4,4,5,5,7,7,8,8,9,9,10,10,11,11,12,12,14,14,16,16,20,20,21,21,22,22,23,23,24,24],"right_children":[2,4,6,8,10,12,-1,14,16,18,20,22,24,-1,26,-1,28,-1,-1,-1,30,32,34,36,38,-1,-1,-1,-1,-1,-1,-1,-1,-1,-1,-1,-1,-1,-1],"split_conditions":[4.8972404E-1,-3.7437505E-1,2.983267E0,-5.718834E-1,-3.003094E-1,2.0944796E0,-4.046313E-2,-9.4221157E-1,-4.9781775E-1,-3.4968647E-1,-2.2624376E-1,1.9957253E0,2.1438565E0,6.182179E-3,-8.434574E-1,9.213396E-3,-4.2375213E-1,-1.1124978E-3,-5.2199E-3,6.2114736E-3,2.1815005E-1,1.7488399E0,2.0451024E0,2.119168E0,2.884513E0,3.409751E-4,2.9774953E-3,2.0628963E-3,4.963416E-3,-5.071286E-4,1.8174289E-3,-4.1696387E-3,-9.641402E-3,-1.3157139E-2,-2.7191473E-2,-3.2398553E-4,1.8377205E-2,-2.7084504E-3,7.876078E-3],"split_indices":[0,0,0,0,0,0,0,0,0,0,0,0,0,0,0,0,0,0,0,0,0,0,0,0,0,0,0,0,0,0,0,0,0,0,0,0,0,0,0],"split_type":[0,0,0,0,0,0,0,0,0,0,0,0,0,0,0,0,0,0,0,0,0,0,0,0,0,0,0,0,0,0,0,0,0,0,0,0,0,0,0],"sum_hessian":[1.6095667E3,1.2058304E3,4.037362E2,8.2885345E2,3.7697696E2,4.0165982E2,2.0764065E0,6.82337E2,1.4651648E2,4.495572E1,3.3202124E2,3.1807614E2,8.358367E1,6.372543E1,6.186115E2,5.967521E1,8.684127E1,1.647078E1,2.848494E1,4.0748714E1,2.9127252E2,3.0510934E2,1.2966807E1,6.1061773E0,7.747749E1,2.1787723E2,4.007343E2,5.3720245E1,3.312103E1,2.0376662E2,8.750591E1,2.664944E2,3.861495E1,6.8428016E0,6.124006E0,3.7576475E0,2.3485298E0,7.3200966E1,4.2765245E0],"tree_param":{"num_deleted":"0","num_feature":"1","num_nodes":"39","size_leaf_vector":"1"}},{"base_weights":[-7.513101E-3,3.4766994E-2,-6.973529E-2,8.6072385E-3,5.5318143E-2,-6.0876105E-2,-4.8908502E-1,1.6307106E-2,-2.8355992E-3,9.195495E-2,3.623816E-2,-4.268424E-2,-1.3465545E-1,-3.846759E-1,-3.7908226E-2,-6.6430857E-3,3.6196645E-2,7.859307E-2,7.782773E-3,-3.1910536E-3,4.460111E-2,-6.0851242E-2,9.499379E-2,-2.313518E-1,-9.9254996E-2,-2.9655648E-2,-1.3702345E-1,8.143717E-4,-9.222358E-4,2.375871E-3,8.415111E-5,5.410149E-3,3.3325441E-3,6.9385814E-3,1.8218445E-3,-2.5645397E-3,-6.2982473E-3,1.2641892E-2,2.0802654E-3,-9.278586E-3,-2.5120059E-2,6.687744E-3,-7.5145634E-3,8.6956023E-4,-8.913501E-3],"categories":[],"categories_nodes":[],"categories_segments":[],"categories_sizes":[],"default_left":[0,0,0,0,0,0,0,0,0,0,0,0,0,0,0,0,0,0,0,0,0,0,0,0,0,0,0,0,0,0,0,0,0,0,0,0,0,0,0,0,0,0,0,0,0],"id":30,"left_children":[1,3,5,7,9,11,13,15,-1,17,19,21,23,25,-1,27,29,31,-1,-1,33,35,37,39,41,-1,43,-1,-1,-1,-1,-1,-1,-1,-1,-1,-1,-1,-1,-1,-1,-1,-1,-1,-1],"loss_changes":[4.2959547E0,5.2230585E-1,2.424552E0,2.1669602E-1,3.7722063E-1,8.641362E-1,8.834767E-2,1.7577517E-1,0E0,1.4589262E-1,3.0377614E-1,1.309851E0,4.1427517E-1,5.265298E-1,0E0,4.8844494E-2,8.047363E-2,4.7804356E-2,0E0,0E0,2.505588E-1,2.8065014E-1,5.04947E-1,3.2220197E-1,1.152841E0,0E0,4.565525E-2,0E0,0E0,0E0,0E0,0E0,0E0,0E0,0E0,0E0,0E0,0E0,0E0,0E0,0E0,0E0,0E0,0E0,0E0],"parents":[2147483647,0,0,1,1,2,2,3,3,4,4,5,5,6,6,7,7,9,9,10,10,11,11,12,12,13,13,15,15,16,16,17,17,20,20,21,21,22,22,23,23,24,24,26,26],"right_children":[2,4,6,8,10,12,14,16,-1,18,20,22,24,26,-1,28,30,32,-1,-1,34,36,38,40,42,-1,44,-1,-1,-1,-1,-1,-1,-1,-1,-1,-1,-1,-1,-1,-1,-1,-1,-1,-1],"split_conditions":[-1.5217812E-1,-7.693918E-1,2.7610703E0,-7.940803E-1,-6.45949E-1,1.7488399E0,2.983267E0,-8.928345E-1,-2.8355992E-3,-6.7063755E-1,-6.2126046E-1,1.4278888E0,1.9710367E0,2.8351357E0,-3.7908226E-2,-9.4221157E-1,-8.1876886E-1,-7.4470323E-1,7.782773E-3,-3.1910536E-3,-5.965719E-1,1.1316262E0,1.5019543E0,1.9463482E0,2.0944796E0,-2.9655648E-2,2.8598244E0,8.143717E-4,-9.222358E-4,2.375871E-3,8.415111E-5,5.410149E-3,3.3325441E-3,6.9385814E-3,1.8218445E-3,-2.5645397E-3,-6.2982473E-3,1.2641892E-2,2.0802654E-3,-9.278586E-3,-2.5120059E-2,6.687744E-3,-7.5145634E-3,8.6956023E-4,-8.913501E-3],"split_indices":[0,0,0,0,0,0,0,0,0,0,0,0,0,0,0,0,0,0,0,0,0,0,0,0,0,0,0,0,0,0,0,0,0,0,0,0,0,0,0,0,0,0,0,0,0],"split_type":[0,0,0,0,0,0,0,0,0,0,0,0,0,0,0,0,0,0,0,0,0,0,0,0,0,0,0,0,0,0,0,0,0,0,0,0,0,0,0,0,0,0,0,0,0],"sum_hessian":[1.6310494E3,9.714134E2,6.59636E2,4.2801187E2,5.4340155E2,6.4711035E2,1.2525684E1,3.8354922E2,4.4462654E1,1.8477766E2,3.5862387E2,5.203785E2,1.2673185E2,1.0774518E1,1.7511662E0,1.7838263E2,2.051666E2,1.5458548E2,3.0192192E1,2.71503E1,3.3147357E2,4.6021042E2,6.0168045E1,3.2479317E1,9.425253E1,5.0930247E0,5.6814933E0,6.0483444E1,1.17899185E2,1.5420818E2,5.095842E1,4.2111664E1,1.12473816E2,2.516853E1,3.0630502E2,4.02849E2,5.7361416E1,1.42631035E1,4.590494E1,2.9227459E1,3.2518585E0,1.66437E1,7.760883E1,1.3196151E0,4.3618784E0],"tree_param":{"num_deleted":"0","num_feature":"1","num_nodes":"45","size_leaf_vector":"1"}},{"base_weights":[6.3380045E-3,6.378816E-2,-9.509574E-2,1.2701236E-2,7.429623E-2,-9.217657E-2,-3.6210503E-2,4.046857E-2,-2.387419E-3,9.127167E-2,3.7261017E-2,-2.8892854E-2,-1.10194184E-1,-1.2704657E-3,5.2074026E-3,6.697604E-2,3.125637E-1,1.6184632E-2,1.596235E-1,-4.3281324E-2,7.6996027E-3,-1.2578946E-1,-5.548041E-3,3.6648833E-3,-1.5830522E-4,1.9336393E-2,1.3390242E-2,2.8142699E-3,-3.9519262E-4,5.3049643E-3,1.2986419E-2,-4.035966E-3,-5.951449E-4,-1.5454969E-2,-5.8656414E-3,9.705333E-3,-2.9672857E-3],"categories":[],"categories_nodes":[],"categories_segments":[],"categories_sizes":[],"default_left":[0,0,0,0,0,0,0,0,0,0,0,0,0,0,0,0,0,0,0,0,0,0,0,0,0,0,0,0,0,0,0,0,0,0,0,0,0],"id":31,"left_children":[1,3,5,7,9,11,-1,13,-1,15,17,19,21,-1,-1,23,25,27,29,31,-1,33,35,-1,-1,-1,-1,-1,-1,-1,-1,-1,-1,-1,-1,-1,-1],"loss_changes":[9.493789E0,5.573635E-1,1.0151396E0,3.0177152E-1,5.387716E-1,6.667352E-1,0E0,5.1841813E-1,0E0,3.1546507E0,7.00791E-1,3.5286143E-1,7.450733E-1,0E0,0E0,2.3678827E-1,8.94928E-2,2.2626264E-1,1.8656063E-1,1.4323542E-1,0E0,5.816388E-1,6.5936315E-1,0E0,0E0,0E0,0E0,0E0,0E0,0E0,0E0,0E0,0E0,0E0,0E0,0E0,0E0],"parents":[2147483647,0,0,1,1,2,2,3,3,4,4,5,5,7,7,9,9,10,10,11,11,12,12,15,15,16,16,17,17,18,18,19,19,21,21,22,22],"right_children":[2,4,6,8,10,12,-1,14,-1,16,18,20,22,-1,-1,24,26,28,30,32,-1,34,36,-1,-1,-1,-1,-1,-1,-1,-1,-1,-1,-1,-1,-1,-1],"split_conditions":[-2.8735405E-2,-8.928345E-1,2.983267E0,-9.17523E-1,-4.731292E-1,3.1690422E-1,-3.6210503E-2,-9.4221157E-1,-2.387419E-3,-5.4719484E-1,-1.0280104E-1,2.9221568E-1,2.291988E0,-1.2704657E-3,5.2074026E-3,-5.965719E-1,-5.225063E-1,-3.4968647E-1,-5.342395E-2,9.470732E-2,7.6996027E-3,3.662813E-1,2.390742E0,3.6648833E-3,-1.5830522E-4,1.9336393E-2,1.3390242E-2,2.8142699E-3,-3.9519262E-4,5.3049643E-3,1.2986419E-2,-4.035966E-3,-5.951449E-4,-1.5454969E-2,-5.8656414E-3,9.705333E-3,-2.9672857E-3],"split_indices":[0,0,0,0,0,0,0,0,0,0,0,0,0,0,0,0,0,0,0,0,0,0,0,0,0,0,0,0,0,0,0,0,0,0,0,0,0],"split_type":[0,0,0,0,0,0,0,0,0,0,0,0,0,0,0,0,0,0,0,0,0,0,0,0,0,0,0,0,0,0,0,0,0,0,0,0,0],"sum_hessian":[1.627127E3,1.039018E3,5.88109E2,1.7763258E2,8.613854E2,5.8653394E2,1.5750765E0,1.2194712E2,5.5685467E1,5.8964954E2,2.7173584E2,1.3056187E2,4.5597208E2,6.0234318E1,6.17128E1,5.324902E2,5.7159378E1,2.3277386E2,3.896198E1,1.2174679E2,8.815089E0,3.966568E2,5.9315266E1,4.8842538E2,4.4064762E1,1.8637428E1,3.852195E1,8.685213E1,1.4592174E2,2.6729885E1,1.2232093E1,5.4796257E1,6.695053E1,1.5964059E1,3.8069275E2,1.2036638E1,4.727863E1],"tree_param":{"num_deleted":"0","num_feature":"1","num_nodes":"37","size_leaf_vector":"1"}},{"base_weights":[4.9937074E-3,6.206156E-2,-6.849332E-2,3.7556842E-2,9.796225E-2,-2.3577744E-1,-5.077745E-2,4.9024604E-2,-1.42039E-3,1.2645787E-1,6.328307E-2,-3.1632978E-1,-1.7811075E-1,4.7857024E-2,-8.516783E-2,2.4591383E-2,7.258831E-2,8.023805E-2,2.3329562E-1,1.5969988E-2,8.48121E-2,-1.0756784E-2,-2.0528764E-2,-1.304901E-1,-1.34901805E-2,8.7438256E-2,8.218498E-4,-8.0722705E-2,-3.8710956E-2,4.4306056E-4,2.0658153E-3,5.5245324E-3,3.0951754E-3,5.5028107E-3,-4.045645E-3,1.4349872E-2,5.3858454E-3,2.5036416E-3,-7.061703E-5,5.4537146E-3,8.497584E-4,-8.973159E-3,-3.8516123E-3,3.6301387E-3,8.847181E-3,-2.9496872E-3,6.055161E-3,-2.7708134E-3,-6.605185E-3],"categories":[],"categories_nodes":[],"categories_segments":[],"categories_sizes":[],"default_left":[0,0,0,0,0,0,0,0,0,0,0,0,0,0,0,0,0,0,0,0,0,0,0,0,0,0,0,0,0,0,0,0,0,0,0,0,0,0,0,0,0,0,0,0,0,0,0,0,0],"id":32,"left_children":[1,3,5,7,9,11,13,15,-1,17,19,21,23,25,27,29,31,33,35,37,39,-1,-1,41,-1,43,45,47,-1,-1,-1,-1,-1,-1,-1,-1,-1,-1,-1,-1,-1,-1,-1,-1,-1,-1,-1,-1,-1],"loss_changes":[6.7596626E0,7.9444623E-1,2.0761626E0,4.1050214E-1,3.550794E-1,2.558093E-1,2.1695733E0,2.6368058E-1,0E0,9.722805E-1,1.6949433E-1,1.667645E-1,1.4578915E-1,3.083817E-1,1.3884566E0,5.9585854E-2,8.8009596E-2,6.8936735E-1,3.742447E-1,3.1894907E-2,1.8743593E-1,0E0,0E0,6.267053E-2,0E0,1.0660863E-1,5.591352E-1,6.061413E-1,0E0,0E0,0E0,0E0,0E0,0E0,0E0,0E0,0E0,0E0,0E0,0E0,0E0,0E0,0E0,0E0,0E0,0E0,0E0,0E0,0E0],"parents":[2147483647,0,0,1,1,2,2,3,3,4,4,5,5,6,6,7,7,9,9,10,10,11,11,12,12,13,13,14,14,15,15,16,16,17,17,18,18,19,19,20,20,23,23,25,25,26,26,27,27],"right_children":[2,4,6,8,10,12,14,16,-1,18,20,22,24,26,28,30,32,34,36,38,40,-1,-1,42,-1,44,46,48,-1,-1,-1,-1,-1,-1,-1,-1,-1,-1,-1,-1,-1,-1,-1,-1,-1,-1,-1,-1,-1],"split_conditions":[-2.509323E-1,-6.953261E-1,-1.2748958E-1,-7.4470323E-1,-4.9781775E-1,-2.0155522E-1,2.6752713E-1,-8.6814594E-1,-1.42039E-3,-5.718834E-1,-4.2375213E-1,-2.2624376E-1,-1.5217812E-1,4.533023E-2,2.983267E0,-9.17523E-1,-8.434574E-1,-5.965719E-1,-5.225063E-1,-4.731292E-1,-3.003094E-1,-1.0756784E-2,-2.0528764E-2,-1.7686668E-1,-1.34901805E-2,2.0641685E-2,1.934615E-1,1.6253971E0,-3.8710956E-2,4.4306056E-4,2.0658153E-3,5.5245324E-3,3.0951754E-3,5.5028107E-3,-4.045645E-3,1.4349872E-2,5.3858454E-3,2.5036416E-3,-7.061703E-5,5.4537146E-3,8.497584E-4,-8.973159E-3,-3.8516123E-3,3.6301387E-3,8.847181E-3,-2.9496872E-3,6.055161E-3,-2.7708134E-3,-6.605185E-3],"split_indices":[0,0,0,0,0,0,0,0,0,0,0,0,0,0,0,0,0,0,0,0,0,0,0,0,0,0,0,0,0,0,0,0,0,0,0,0,0,0,0,0,0,0,0,0,0,0,0,0,0],"split_type":[0,0,0,0,0,0,0,0,0,0,0,0,0,0,0,0,0,0,0,0,0,0,0,0,0,0,0,0,0,0,0,0,0,0,0,0,0,0,0,0,0,0,0,0,0,0,0,0,0],"sum_hessian":[1.6098296E3,9.062321E2,7.0359753E2,5.398162E2,3.6641586E2,6.619884E1,6.373987E2,4.6008807E2,7.9728165E1,1.996876E2,1.6672827E2,2.5747578E1,4.045126E1,1.6468289E2,4.727158E2,2.2687985E2,2.332082E2,1.4060886E2,5.9078747E1,5.268572E1,1.1404256E2,1.3999082E1,1.1748496E1,2.8218904E1,1.2232355E1,8.896103E1,7.572186E1,4.707958E2,1.9199919E0,1.1770522E2,1.0917464E2,4.9230698E1,1.8397751E2,1.1892157E2,2.1687294E1,4.048189E1,1.8596855E1,1.7152704E1,3.5533012E1,8.354508E1,3.049747E1,1.3497062E1,1.4721842E1,7.786593E1,1.1095103E1,5.0912666E1,2.4809193E1,3.1682834E2,1.5396745E2],"tree_param":{"num_deleted":"0","num_feature":"1","num_nodes":"49","size_leaf_vector":"1"}}]},"name":"gbtree"},"learner_model_param":{"base_score":"[4.6651298E-1]","boost_from_average":"1","num_class":"0","num_feature":"1","num_target":"1"},"objective":{"name":"binary:logistic","reg_loss_param":{"scale_pos_weight":"1"}}},"version":[3,2,0]}